<?xml version="1.0"?>
<opencv_storage>
<my_svm type_id="opencv-ml-svm">
  <svm_type>C_SVC</svm_type>
  <kernel><type>LINEAR</type></kernel>
  <C>5.0000000000000000e-01</C>
  <term_criteria><epsilon>1.1920928955078125e-07</epsilon>
    <iterations>1000</iterations></term_criteria>
  <var_all>1764</var_all>
  <var_count>1764</var_count>
  <class_count>2</class_count>
  <class_labels type_id="opencv-matrix">
    <rows>1</rows>
    <cols>2</cols>
    <dt>i</dt>
    <data>
      0 1</data></class_labels>
  <sv_total>1</sv_total>
  <support_vectors>
    <_>
      -1.56497031e-01 -1.27406418e-01 -5.81453592e-02 -3.36284935e-01
      -4.16237861e-01 -2.12664738e-01 -9.03299898e-02 4.04697776e-01
      -1.26652554e-01 1.49532333e-01 2.23073587e-02 -1.80464536e-01
      -4.75801796e-01 -1.09782353e-01 -2.35831171e-01 1.11347534e-01
      -1.17665380e-01 -5.00014186e-01 -6.01383746e-01 2.05327868e-01
      -1.97776914e-01 -7.06109524e-01 -2.09499851e-01 -1.12195045e-01
      1.86552137e-01 4.01054561e-01 -4.70752656e-01 -1.39407605e-01
      -1.25073567e-01 -4.34517562e-02 -5.18289208e-01 -1.47361591e-01
      -2.78944433e-01 -6.03081822e-01 -3.42757136e-01 -3.91299695e-01
      8.84651318e-02 6.83740377e-02 -1.14895836e-01 -1.99836969e-01
      4.40121405e-02 1.99565098e-01 1.62149563e-01 -8.96591172e-02
      -1.38430685e-01 2.85536975e-01 4.98146206e-01 1.84483647e-01
      8.30576345e-02 8.50971118e-02 2.03864779e-02 -5.18814754e-03
      -1.69886917e-01 1.91340894e-01 -4.22541387e-02 7.48776942e-02
      4.15412217e-01 4.40459579e-01 -6.44885823e-02 -1.41176656e-01
      -3.00537765e-01 -2.05198139e-01 -2.23356530e-01 -6.51130751e-02
      -5.69677129e-02 1.57495569e-02 -3.25350463e-02 3.04543912e-01
      -1.31873369e-01 -1.78897269e-02 2.36718729e-01 5.88683710e-02
      1.01456814e-01 7.34590888e-02 1.52637297e-03 3.91414352e-02
      1.79742351e-01 3.97759706e-01 -4.36461538e-01 -4.55203354e-01
      -8.08165446e-02 -2.04687431e-01 -5.59089966e-02 -9.11843553e-02
      -1.89513430e-01 4.68739793e-02 2.05398843e-01 -4.82799374e-02
      -5.26076257e-01 -3.38136226e-01 -1.20723434e-01 -3.03754896e-01
      -2.12387890e-01 -9.90100279e-02 2.35381760e-02 1.81512684e-01
      1.23054698e-01 6.11156598e-02 1.66363701e-01 -3.07950261e-03
      -2.01589257e-01 9.77878720e-02 -3.51623930e-02 -2.29947433e-01
      7.08014295e-02 1.63045242e-01 4.69562300e-02 2.75502764e-02
      1.67313471e-01 7.74059296e-02 2.97189094e-02 -8.24925154e-02
      -1.54515997e-01 -3.69192362e-01 4.89406027e-02 -2.26059034e-01
      -7.49910176e-02 3.32347780e-01 7.04445168e-02 1.86343580e-01
      4.01287109e-01 4.18747723e-01 -3.07492949e-02 -2.54229099e-01
      1.75780430e-01 6.30799830e-02 8.67192671e-02 -1.66885387e-02
      2.04858586e-01 6.16049059e-02 1.68675501e-02 -2.74446130e-01
      1.45605758e-01 1.30024403e-01 8.83054063e-02 8.28145538e-03
      -1.75314382e-01 -1.42591193e-01 2.60897130e-01 -1.22151166e-01
      1.65483639e-01 1.02487296e-01 3.79944980e-01 -1.88771650e-01
      4.99977082e-01 3.92841212e-02 1.15933374e-01 7.13182241e-02
      -5.04613295e-03 -3.39705229e-01 -4.93569970e-01 -4.12263572e-02
      3.97333130e-02 1.43567055e-01 -9.67625678e-02 -1.85101956e-01
      1.31551549e-02 1.30277291e-01 -8.54879990e-02 4.11609896e-02
      -1.36085033e-01 -6.44602627e-02 5.74471019e-02 -2.17190295e-01
      2.22610593e-01 2.47712448e-01 -1.00915819e-01 -2.38346979e-02
      -1.13746338e-01 -4.44248281e-02 -1.08840205e-02 -2.04635840e-02
      1.08915918e-01 -1.10881403e-01 5.45119978e-02 -4.67804968e-01
      -1.39340058e-01 1.81681197e-02 -1.64248601e-01 -3.55087034e-02
      -7.31918216e-02 1.17165074e-01 -2.78558247e-02 -9.96434316e-02
      -7.01283216e-02 3.49589698e-02 2.57243007e-01 3.48131806e-02
      -2.92085320e-01 -3.18295658e-01 1.70285523e-01 2.86420345e-01
      -6.03771135e-02 1.30161315e-01 -4.84403297e-02 2.38637656e-01
      8.80148709e-02 -3.58823031e-01 3.22177522e-02 -1.23027891e-01
      -1.34139925e-01 -2.17096344e-01 -4.02325392e-01 -3.48944440e-02
      -1.16648138e-01 -2.27103140e-02 -7.99926594e-02 -2.01436684e-01
      -1.29421547e-01 1.34370446e-01 -6.59017488e-02 -2.14015231e-01
      -1.08063355e-01 -2.41144195e-01 -1.98378265e-01 -3.09357136e-01
      -1.84166148e-01 1.21169299e-01 2.00540632e-01 -3.19947034e-01
      -3.61948699e-01 -2.20898181e-01 9.90901440e-02 2.18011830e-02
      -3.81483465e-01 -9.66647714e-02 1.84917971e-01 -1.37704536e-01
      -4.26778615e-01 -1.76169038e-01 -4.28972393e-01 -3.96307588e-01
      -2.67430007e-01 -1.64912324e-02 -3.40230465e-01 -7.48146698e-02
      -2.82343477e-02 -9.30281542e-03 9.15438980e-02 -1.67991053e-02
      -2.70255702e-03 -1.43650711e-01 -1.11425199e-01 -2.04651281e-01
      -1.52313441e-01 -3.88969511e-01 -2.41624922e-01 6.25103638e-02
      -2.31803671e-01 1.94211051e-01 1.16170436e-01 3.00110895e-02
      -3.33935320e-01 3.96938652e-01 2.67362565e-01 -1.21409096e-01
      -4.23657805e-01 -1.35673717e-01 3.63246143e-01 2.85270184e-01
      -3.11029851e-01 -8.85172194e-05 4.09814157e-02 5.69363125e-02
      -1.73807010e-01 -4.28951114e-01 -2.96003938e-01 1.73606232e-01
      2.12863326e-01 1.12899847e-01 -1.65031880e-01 4.34777856e-01
      1.86046824e-01 -1.11953244e-01 -2.21747547e-01 -9.34385285e-02
      1.45152118e-02 6.67110533e-02 -3.74375701e-01 5.03493734e-02
      -6.72886372e-02 -7.28188024e-04 -4.09986734e-01 1.42711997e-01
      -1.74505547e-01 -1.31890506e-01 1.47434808e-02 3.16785648e-02
      6.69837464e-04 -1.81804866e-01 -3.17254290e-02 3.88081819e-01
      1.52768111e-02 1.73038408e-01 1.31118089e-01 -1.96853671e-02
      -3.99269089e-02 2.24481195e-01 1.43084437e-01 1.18190393e-01
      3.35487910e-02 7.81539083e-02 9.32369605e-02 1.70073122e-01
      1.45834729e-01 9.39800311e-03 1.31202415e-01 -4.46435064e-01
      -2.45682120e-01 3.50890160e-01 2.07197770e-01 6.84104338e-02
      -1.03706352e-01 3.52851525e-02 -4.07525413e-02 2.86228865e-01
      -7.37116933e-02 2.01478284e-02 1.11117877e-01 1.10234283e-01
      -5.87714985e-02 4.42806035e-01 1.59537748e-01 4.92633969e-01
      1.30502671e-01 -8.60395432e-02 4.83691804e-02 -1.48712809e-03
      9.47482139e-03 -6.20698780e-02 5.22234850e-02 6.51586875e-02
      3.04152668e-01 1.30994394e-01 2.01649278e-01 1.98311582e-01
      2.07324121e-02 -1.22592792e-01 -3.02106645e-02 7.19871931e-03
      -6.48395643e-02 -9.61314142e-02 3.76970917e-02 6.48863539e-02
      1.33718610e-01 -8.91735554e-02 2.49281794e-01 -9.29022059e-02
      -1.50830120e-01 -3.36500943e-01 -1.90488547e-02 -1.58491924e-01
      -8.87451600e-03 8.46425246e-05 -1.92197505e-02 1.19053498e-01
      1.77130491e-01 1.86479315e-01 1.56477109e-01 -3.01772207e-02
      3.64069603e-02 -8.31967965e-02 7.90856332e-02 1.22626945e-01
      2.06107646e-01 -1.51168127e-02 3.81496213e-02 -2.79641181e-01
      6.47451654e-02 1.64230213e-01 -6.26723990e-02 -1.10802934e-01
      1.48353517e-01 -1.06501773e-01 1.59890264e-01 -3.81295122e-02
      1.70551643e-01 1.03383921e-01 -1.02931865e-01 -2.79666841e-01
      8.17686766e-02 -9.02123228e-02 1.41248286e-01 -3.05010099e-02
      -1.93961084e-01 -2.87168622e-01 -3.08001880e-02 1.89520523e-01
      -2.48939842e-01 3.04484796e-02 -9.66231804e-03 -1.83943108e-01
      2.12297767e-01 -3.79508346e-01 -7.24904165e-02 1.14165910e-01
      -2.59790152e-01 -1.94774479e-01 2.26924568e-02 1.00454375e-01
      -7.76949972e-02 -1.71775818e-01 -1.39354700e-02 1.60064712e-01
      2.21794873e-01 -3.59161735e-01 -4.72613517e-03 -1.33420542e-01
      1.70894608e-01 -1.57582849e-01 -5.30598871e-02 1.59848392e-01
      9.09886733e-02 3.86436209e-02 -2.94127375e-01 -3.34271714e-02
      9.30889547e-02 1.47684682e-02 -4.38970812e-02 -1.14005968e-01
      -2.56330431e-01 -3.79192713e-03 -2.42784023e-01 -1.48240566e-01
      1.51498437e-01 -3.06453556e-02 1.68263167e-01 -1.76287115e-01
      1.36884212e-01 1.95337459e-01 1.91323593e-01 7.89958388e-02
      1.89285502e-01 5.40317148e-02 -1.74415875e-02 -4.29779245e-03
      -2.54943110e-02 1.67382404e-01 1.41896933e-01 -1.03004538e-01
      -1.45144805e-01 6.28552809e-02 1.39944270e-01 4.95445542e-02
      -1.52241975e-01 1.50522497e-02 -8.07097927e-02 -1.39118403e-01
      -8.98860916e-02 -2.96746939e-01 7.25521445e-02 5.41192554e-02
      7.65984207e-02 1.20692424e-01 -4.59183827e-02 1.10833421e-01
      1.70737803e-02 -2.01129854e-01 -1.20626040e-01 5.85233904e-02
      1.98965147e-01 3.94514836e-02 9.83374566e-03 -5.31562865e-02
      -2.54399061e-01 -1.17708810e-01 6.40049726e-02 -1.61099639e-02
      -2.42800057e-01 7.77004361e-02 -3.46567668e-02 8.69418774e-03
      2.90224135e-01 -2.05074862e-01 -1.41361967e-01 -1.63870573e-01
      -3.36376548e-01 -3.49538714e-01 -1.06614679e-01 -6.82800310e-03
      -3.15064728e-01 -1.42704397e-01 -3.14891011e-01 9.60533395e-02
      4.73128706e-01 1.86446398e-01 -1.98148131e-01 -3.37073244e-02
      -9.58847106e-02 2.89956301e-01 -2.00598419e-01 -9.81451645e-02
      7.25709694e-03 1.13234133e-03 -7.09809139e-02 -8.65631923e-03
      -6.62359223e-03 7.14671984e-02 -3.42928097e-02 -2.36689746e-01
      3.81534137e-02 -2.95420885e-01 -2.10678056e-01 -3.64417359e-02
      -2.33473964e-02 4.40764338e-01 3.18892926e-01 -4.02788430e-01
      -2.32708350e-01 5.01271546e-01 3.08569878e-01 2.94222385e-01
      1.86806127e-01 -1.62343770e-01 -1.09075785e-01 2.01480865e-01
      -3.32857788e-01 -1.11853115e-01 -2.54795700e-01 -2.79909045e-01
      7.02572335e-03 6.30045086e-02 -4.07775670e-01 -2.28858627e-02
      -3.57149541e-03 -3.96809250e-01 -5.30083403e-02 -1.78104267e-01
      -1.91728752e-02 2.37944931e-01 -5.31769156e-01 -3.69039685e-01
      -2.73858935e-01 8.48761275e-02 -4.77593273e-01 -1.31724030e-01
      -9.75577235e-02 -5.79871774e-01 -1.32689431e-01 -2.22149983e-01
      -1.07978657e-01 -7.30910897e-02 -1.36577904e-01 -3.23724933e-02
      1.07860774e-01 2.23731957e-02 -5.99605180e-02 -1.30779266e-01
      -2.78440602e-02 1.07271656e-01 8.92048925e-02 4.21586446e-02
      -1.06029719e-01 6.12002797e-02 1.91074625e-01 5.23822904e-02
      4.87108901e-02 2.75203198e-01 -3.11195981e-02 6.42927289e-02
      -1.77310482e-01 -7.81761929e-02 2.44547352e-01 1.35774940e-01
      -9.68596637e-02 -8.29886571e-02 -1.91488594e-01 2.91745216e-01
      2.94244081e-01 -1.51136389e-03 -1.06758773e-01 1.99202552e-01
      -1.73870727e-01 8.12950358e-02 -5.40356971e-02 3.80674511e-01
      1.29538462e-01 5.13479263e-02 -1.50923692e-02 -1.12454638e-01
      5.09252846e-02 2.38864765e-01 -9.22589377e-02 1.34997992e-02
      -2.03826018e-02 -3.23943943e-02 7.04656169e-02 1.41589060e-01
      -2.93573081e-01 -3.85707915e-02 1.88604131e-01 3.00396889e-01
      1.51506454e-01 -1.39428645e-01 3.99995595e-02 5.19514903e-02
      1.27000874e-02 -6.08653836e-02 2.46197224e-01 1.30441055e-01
      -4.56783362e-02 -4.51622866e-02 7.89114758e-02 2.34999210e-01
      2.55792052e-01 8.30400735e-02 -5.19034564e-02 2.45750144e-01
      -1.16145656e-01 -2.44731475e-02 1.75126672e-01 8.57529342e-02
      -1.76379517e-01 -3.08689088e-01 7.51407966e-02 -1.62398010e-01
      -2.81694949e-01 -1.96893141e-01 -1.57167375e-01 -3.23246419e-01
      -7.26318434e-02 -1.59502029e-01 -2.79892702e-02 -5.75217828e-02
      1.00620687e-01 4.55252454e-02 9.44212824e-02 -3.12421471e-01
      6.99899122e-02 8.89643580e-02 -8.25824142e-02 -5.66989519e-02
      -4.20046272e-03 3.14625986e-02 -3.13379884e-01 -2.98274726e-01
      -1.20902397e-01 7.99157545e-02 9.76408646e-02 -1.75016209e-01
      1.40484616e-01 1.92788988e-01 -1.68392435e-02 -1.82897955e-01
      -9.92004201e-03 -1.43174708e-01 1.43344775e-01 1.31355584e-01
      -1.84538811e-01 1.09246247e-01 -3.94186154e-02 -3.26789558e-01
      1.51257679e-01 -1.18682943e-01 -1.28614949e-02 2.14266434e-01
      -1.14204392e-01 -1.68560430e-01 2.05989361e-01 -1.68611512e-01
      -1.73560530e-01 1.34993985e-01 -1.82257861e-01 2.27329284e-01
      7.62630207e-03 1.42284065e-01 -1.82184055e-01 1.36731789e-01
      -9.92625058e-02 -1.92785382e-01 -6.61592111e-02 5.77327684e-02
      -2.00082883e-01 5.61183281e-02 8.73480961e-02 -5.88181391e-02
      5.89894876e-02 -2.32264817e-01 6.47610575e-02 2.14299813e-01
      -7.05318060e-03 -4.83675711e-02 5.51421382e-02 -4.80808243e-02
      -9.47421715e-02 -1.63185392e-02 5.26997074e-02 -1.01608388e-01
      8.80205482e-02 -6.61592856e-02 -5.42947538e-02 -1.48840219e-01
      -6.31191283e-02 4.48388010e-02 -5.16392384e-03 8.89691487e-02
      -1.00214377e-01 -1.19870283e-01 -1.48339435e-01 -7.05801696e-02
      1.11329533e-01 4.77372669e-02 2.92402565e-01 1.07799031e-01
      1.82313547e-02 7.39423782e-02 1.80089608e-01 3.26348506e-02
      3.79228778e-02 -1.33259565e-01 1.14478964e-04 2.68920939e-02
      3.01574562e-02 -7.86269084e-03 1.76401203e-03 -4.91483100e-02
      1.49247155e-01 -7.87156522e-02 -4.06770483e-02 -1.40513882e-01
      3.07421703e-02 -1.60751268e-01 -1.72718894e-02 7.94489309e-02
      -1.87032834e-01 -1.50236607e-01 1.13220729e-01 -1.09403014e-01
      -5.41362725e-02 1.59096912e-01 -1.34012671e-02 -4.36040049e-04
      9.61443968e-03 -1.66706547e-01 5.23543134e-02 -1.73699394e-01
      -4.46726568e-02 -1.34270042e-01 -3.47822942e-02 -9.97537225e-02
      -2.71244138e-01 -3.44057292e-01 -5.71574867e-02 1.02396980e-02
      6.50684088e-02 1.13196895e-01 5.35403863e-02 2.21718490e-01
      -5.42132184e-02 6.05890751e-02 -5.53955473e-02 -3.10131703e-02
      1.22122660e-01 -1.82691365e-02 1.42790508e-02 -2.79203534e-01
      -1.71804905e-01 -3.48968282e-02 -1.21693157e-01 3.67287278e-01
      -5.74054420e-01 -2.61568666e-01 -1.97554424e-01 1.22214571e-01
      -5.70802569e-01 8.24293345e-02 2.14342624e-01 7.11354166e-02
      -7.80066624e-02 -3.64534140e-01 2.24849805e-02 -1.69941589e-01
      1.06993355e-01 -6.52608722e-02 -1.47610093e-02 -9.18786824e-02
      -7.08536655e-02 -2.78112531e-01 -3.54837686e-01 -3.84666860e-01
      6.30448237e-02 -6.62923604e-02 -4.28260088e-01 1.86517805e-01
      -1.91862583e-01 -1.11672878e-01 -2.19390914e-01 -1.34125546e-01
      -3.24606746e-01 -2.63192385e-01 1.50686577e-01 1.40154362e-01
      -2.98246115e-01 2.47999549e-01 -2.39414677e-01 4.25815117e-03
      -1.00446500e-01 -2.88181663e-01 1.17810637e-01 1.57358959e-01
      -3.81577879e-01 -2.03002747e-02 1.04539678e-01 7.61648193e-02
      -1.95013911e-01 2.41831616e-01 -1.97849587e-01 1.60426363e-01
      2.24086583e-01 1.39976129e-01 9.53400042e-03 -9.56510305e-02
      -3.06226701e-01 7.72521943e-02 -1.28071994e-01 -4.14552502e-02
      6.38902420e-03 2.30204195e-01 -1.37996348e-02 -2.47129738e-01
      -6.67586327e-02 -1.20356470e-01 -3.67832124e-01 -6.02643900e-02
      3.91191896e-03 2.13276878e-01 2.50300258e-01 -1.55751660e-01
      -1.19661674e-01 -1.27741113e-01 5.39395660e-02 1.72759056e-01
      2.93795139e-01 1.95762426e-01 -1.77195594e-01 -2.83251464e-01
      -1.86692685e-01 5.67387938e-02 -1.22781552e-01 6.61987215e-02
      4.69356589e-02 2.87694842e-01 1.17995821e-01 9.95894596e-02
      1.29129350e-01 1.71907216e-01 -9.87153128e-02 -3.88343781e-02
      -3.21630202e-02 -3.59408140e-01 -2.76391511e-03 -1.88604608e-01
      -1.55507222e-01 -1.41170248e-01 -1.20099694e-01 1.25458151e-01
      -7.01549575e-02 1.11943789e-01 -2.53891528e-01 2.90936958e-02
      -9.37862769e-02 1.54449359e-01 -1.23950273e-01 1.26455441e-01
      -1.53781116e-01 -3.52932364e-01 -1.69391930e-01 -1.20477803e-01
      -2.23329477e-02 -5.48325654e-04 3.10151614e-02 -1.50113255e-01
      -1.75644323e-01 1.54265746e-01 5.74278459e-02 3.96110564e-02
      -9.76943448e-02 3.05347353e-01 2.45019212e-01 -1.60932809e-01
      -1.27281308e-01 1.43243670e-02 -7.89177194e-02 -1.41630113e-01
      1.53158456e-01 -1.69045940e-01 -9.13690329e-02 -3.03291660e-02
      -1.22886010e-01 -5.81110835e-01 -1.66660383e-01 -1.52839050e-01
      -1.94244802e-01 -5.07122092e-02 2.44006336e-01 2.19065435e-02
      1.23126224e-01 1.03155077e-01 -1.93522517e-02 5.10723554e-02
      2.99820334e-01 2.70485401e-01 -5.55548221e-02 -1.86911777e-01
      1.87352180e-01 1.11850157e-01 -7.94797614e-02 7.19937310e-02
      6.81124302e-03 5.13967611e-02 -1.36502728e-01 -9.18668881e-02
      -1.62482187e-01 4.54075634e-02 -1.10436417e-01 1.16457440e-01
      2.62607038e-01 1.93841964e-01 3.56586277e-01 1.83818296e-01
      5.14002703e-02 -7.33900592e-02 -1.75628424e-01 -2.40877643e-01
      -1.49108917e-01 1.13545381e-01 -2.68470179e-02 3.49738717e-01
      8.37768540e-02 1.77475527e-01 -1.12820603e-01 -2.60463655e-01
      3.41551006e-02 1.78107321e-01 -3.23276110e-02 -2.79643744e-01
      -4.95138764e-03 -1.42938524e-01 -6.52511343e-02 8.57124999e-02
      -1.63709193e-01 -2.21287489e-01 1.05549298e-01 1.86998248e-02
      -2.62687147e-01 4.54280525e-02 2.87023723e-01 -7.14222044e-02
      2.40956113e-01 2.84475505e-01 2.70100951e-01 1.14484191e-01
      -1.82436004e-01 9.49720591e-02 2.19702758e-02 2.14050084e-01
      1.78853393e-01 -4.45405534e-03 -9.23274606e-02 1.18601203e-01
      -2.53591686e-01 1.12316787e-01 -2.35594183e-01 -1.17400803e-01
      3.21080834e-02 6.44354969e-02 7.15275556e-02 -8.72392133e-02
      3.04390676e-02 5.79225570e-02 -9.56627657e-04 -1.14619553e-01
      -1.47425845e-01 3.99998240e-02 -1.30524725e-01 -1.63563013e-01
      6.21234626e-03 -9.87765566e-02 -2.36755535e-02 -4.36443798e-02
      1.33334532e-01 -2.23715499e-01 -1.93523452e-01 -7.08018765e-02
      9.69559252e-02 1.85792178e-01 -1.65244088e-01 -2.41692942e-02
      7.61693865e-02 -6.62378594e-02 -2.84273446e-01 -1.07485108e-01
      2.08287388e-02 2.45760102e-02 -7.53521994e-02 -2.50015646e-01
      -8.78043324e-02 -3.95269722e-01 -9.78190005e-02 -3.50781865e-02
      -6.31870255e-02 4.91096117e-02 -1.40232399e-01 -2.80269813e-02
      -1.95721403e-01 -1.40948175e-02 -1.79095715e-01 -1.06145501e-01
      4.51970957e-02 -1.50040835e-01 -1.20595068e-01 -2.34950677e-01
      -5.05213082e-01 -1.82723347e-02 2.90208729e-03 -1.15221784e-01
      -2.25094371e-02 1.57928497e-01 -2.83670157e-01 -1.42073452e-01
      -1.26617357e-01 -3.96208197e-01 -2.39899665e-01 -5.08207917e-01
      -2.92852879e-01 2.12977886e-01 1.50805011e-01 1.03960358e-01
      2.17938751e-01 1.95687667e-01 -2.81482816e-01 1.25503214e-02
      -2.90034264e-02 -7.08552822e-02 2.45761126e-01 -2.28481486e-01
      -3.94613802e-01 -3.82058918e-01 -3.40764105e-01 -1.06430635e-01
      2.59786159e-01 -2.40657955e-01 -1.25229180e-01 -2.30222847e-02
      6.61207661e-02 5.51902279e-02 -1.47151798e-01 -2.08803624e-01
      -3.35023791e-01 -3.25863719e-01 -3.41885746e-01 -2.08553031e-01
      8.41798410e-02 -2.75417175e-02 1.16277277e-01 6.79726824e-02
      -2.14008272e-01 -1.63107112e-01 -3.19323778e-01 -9.61656496e-02
      8.14669058e-02 -9.32371765e-02 -2.25866750e-01 -2.28974819e-02
      -9.85193402e-02 -1.77626774e-01 -1.54205680e-01 -2.03385696e-01
      -6.99319467e-02 5.06336540e-02 -9.04732272e-02 -1.53654978e-01
      2.00856496e-02 3.09364405e-02 -3.12141240e-01 -2.30642840e-01
      -3.34620386e-01 -2.02887461e-01 -8.49836855e-04 -2.44363621e-01
      5.76302148e-02 -1.07858352e-01 2.17372961e-02 1.66373700e-01
      -2.26130545e-01 -2.01738656e-01 2.30343059e-01 -9.16069224e-02
      8.77972320e-02 7.98887480e-03 -1.97166696e-01 1.65629759e-01
      3.75664085e-02 -1.20849192e-01 -1.76702037e-01 1.39268473e-01
      2.02058762e-01 6.71311170e-02 -1.10512242e-01 5.25908284e-02
      -2.49253109e-01 2.14919597e-01 9.55481753e-02 1.59259155e-01
      2.03961328e-01 -7.60917440e-02 -2.77510464e-01 3.03469092e-01
      -1.46125890e-02 2.09949791e-01 2.71470904e-01 7.89090022e-02
      -5.22528589e-02 1.74016565e-01 8.92674550e-02 2.01115534e-01
      -4.09979165e-01 -1.87768191e-01 -6.06079102e-02 -1.19776152e-01
      4.64516059e-02 6.83445334e-02 -1.17208220e-01 -1.59898609e-01
      4.47850116e-02 -3.14406484e-01 -2.24798813e-01 8.66327509e-02
      2.00528309e-01 -2.54438613e-02 -4.30686167e-03 8.09227675e-02
      1.24128126e-01 2.58378009e-03 -2.15913445e-01 -1.03066750e-01
      -3.86650525e-02 1.24708459e-01 -2.48956811e-02 -9.05929580e-02
      -4.79879342e-02 -2.82273352e-01 -4.44807820e-02 1.09701313e-01
      2.27037966e-01 7.80103682e-03 -1.25553071e-01 1.21809311e-01
      2.27350116e-01 9.08547565e-02 1.32730398e-02 1.01188526e-01
      -1.92910790e-01 -2.52282649e-01 -1.72602445e-01 -2.21313030e-01
      -1.79420114e-01 -4.25626397e-01 -1.09904438e-01 1.03250872e-02
      -2.83191830e-01 -1.77291766e-01 -8.47062171e-02 2.75116134e-02
      1.67862251e-01 1.93091631e-02 -1.55866802e-01 -2.88366497e-01
      -2.30514988e-01 -4.24260080e-01 2.80880153e-01 7.21255094e-02
      1.10663950e-01 -1.30508021e-01 7.32866675e-02 1.14798382e-01
      -1.12461433e-01 4.05145697e-02 1.55585870e-01 -1.29150238e-03
      -4.05608825e-02 -1.74690410e-01 1.70604773e-02 6.69311732e-02
      -1.68746077e-02 7.54969369e-05 -8.00750405e-02 -3.18610162e-01
      3.14036943e-02 -3.42494287e-02 -5.16740754e-02 4.43394110e-02
      -3.91749889e-02 3.17222066e-02 -2.89779186e-01 -1.18706569e-01
      -5.91278933e-02 8.16281214e-02 1.13569915e-01 -1.10239364e-01
      -1.34854004e-01 -4.53588553e-02 -2.97292352e-01 -4.66302745e-02
      1.19829707e-01 3.17602038e-01 2.15927780e-01 9.54797417e-02
      -1.41284242e-01 -4.58648875e-02 5.94201274e-02 -4.50695157e-01
      -4.39861193e-02 -1.65115371e-01 6.30594492e-02 1.09988302e-01
      -7.79129041e-04 -2.24922329e-01 -1.47928461e-01 -2.52927333e-01
      7.52249658e-02 1.62562374e-02 1.91101953e-01 -6.38401182e-03
      -9.03337896e-02 -4.69009094e-02 -1.65789351e-02 -2.03097567e-01
      1.16115555e-01 -1.79152079e-02 -5.52661195e-02 -4.17673625e-02
      -5.58268465e-02 -1.90108940e-02 1.05927177e-01 -4.31979224e-02
      -2.84334689e-01 -9.73039940e-02 -4.66028839e-01 -1.34185672e-01
      2.38361001e-01 3.86662930e-02 -3.75623822e-01 -2.73531526e-01
      -4.61533554e-02 -2.04867236e-02 -1.79647654e-02 -1.31002754e-01
      -3.19995791e-01 -1.24210849e-01 -2.43405417e-01 6.63339568e-04
      -1.82762250e-01 1.80783600e-01 3.41021121e-02 -1.48924902e-01
      -3.42138290e-01 -2.06827864e-01 -1.42782867e-01 -1.46826938e-01
      2.66188502e-01 3.18501115e-01 2.11487770e-01 4.23447877e-01
      -5.30146420e-01 -4.56001133e-01 -5.40525734e-01 -3.35446000e-01
      2.23566845e-01 5.89018222e-03 -1.60157010e-01 -2.66871095e-01
      -4.31732953e-01 -2.64937520e-01 2.95577198e-01 -2.61772275e-01
      -2.69887000e-01 -4.85974476e-02 2.41687536e-01 2.50965059e-01
      3.51432621e-01 3.23738307e-01 -2.47217640e-01 -1.70344666e-01
      -2.34414741e-01 9.38653387e-03 2.53476948e-01 -3.52754951e-01
      -1.59004748e-01 -3.68984848e-01 -2.49626189e-02 -1.25171632e-01
      3.52048218e-01 -4.18890007e-02 -2.42997274e-01 -2.57063568e-01
      2.42677946e-02 9.87386629e-02 1.90337509e-01 -1.45818278e-01
      -8.61302987e-02 1.73259303e-01 3.46878311e-04 9.28285718e-02
      -3.13587603e-03 -7.75453774e-03 -1.79783747e-01 1.84538156e-01
      -5.39009310e-02 2.56875474e-02 -2.20761642e-01 -1.23623773e-01
      -6.59305677e-02 -1.35040969e-01 -1.60122905e-02 8.37108046e-02
      -1.30370334e-02 -7.85823688e-02 -8.81449208e-02 -7.92588294e-02
      -2.40042433e-02 1.07512763e-02 4.63065580e-02 3.51540834e-01
      4.46474962e-02 1.03351995e-01 1.90169528e-01 -4.58901562e-03
      -1.47491470e-01 8.48958492e-02 -1.29447311e-01 2.64534861e-01
      -9.22191888e-02 -1.80924430e-01 2.80303434e-02 1.15498707e-01
      3.73529315e-01 1.97623268e-01 1.23087004e-01 1.85497388e-01
      -1.35563284e-01 -7.68872872e-02 2.10331306e-01 1.16303213e-01
      1.52589649e-01 2.93806400e-02 1.39633907e-04 1.61369890e-01
      -8.50006565e-03 -3.14490318e-01 3.33193868e-01 3.41458172e-02
      5.80960773e-02 3.15537751e-02 2.02922419e-01 -8.04346576e-02
      1.33134365e-01 -4.71167862e-02 3.06600451e-01 4.94896807e-02
      1.94943458e-01 1.15186334e-01 -1.10409427e-02 2.60801762e-01
      -1.36421949e-01 2.24958032e-01 -2.31491383e-02 1.07559554e-01
      -3.59338850e-01 -3.69204223e-01 -2.24217534e-01 -3.54186706e-02
      -1.68912351e-01 1.08315982e-01 1.92527100e-01 -1.75215483e-01
      -1.83751404e-01 4.37284037e-02 -1.21759251e-01 -8.64193961e-02
      -2.23450780e-01 6.25806022e-03 1.40180841e-01 1.07109047e-01
      -1.44939005e-01 1.29343614e-01 -1.51252836e-01 -1.52087867e-01
      -1.00056432e-01 -7.71711767e-02 -1.66260868e-01 2.71527380e-01
      2.07875624e-01 7.12279696e-03 6.80075586e-02 1.38482004e-01
      7.33952969e-02 3.62684205e-02 -2.07344964e-01 -1.46104693e-01
      -8.46850201e-02 -3.68519761e-02 2.03104690e-01 2.28826210e-01
      -4.12336916e-01 1.58770066e-02 1.98655576e-02 -8.53782799e-03
      5.39685115e-02 2.14286335e-02 -4.86511588e-02 -1.87126145e-01
      8.40021372e-02 -1.16679765e-01 1.31333426e-01 -2.22577989e-01
      -1.43406272e-01 -1.21999107e-01 4.45063561e-02 1.00819930e-03
      -1.38054907e-01 -6.41161650e-02 -2.91668028e-01 6.38668239e-02
      1.67858880e-03 -1.91261932e-01 -7.13882223e-02 -2.68649548e-01
      -1.91473067e-01 -2.01150313e-01 -8.00986663e-02 1.07070781e-01
      -4.63793576e-02 -6.44685403e-02 1.62307564e-02 -1.00652337e-01
      6.07958920e-02 -3.63522440e-01 -1.30619019e-01 -1.64720431e-01
      5.37949763e-02 -1.04510710e-01 -1.73543431e-02 -1.86943516e-01
      -4.27806973e-02 -1.28623649e-01 -4.07550931e-02 7.03410655e-02
      2.23877802e-02 -2.12701261e-01 -3.41158092e-01 -1.36027895e-02
      -2.79798537e-01 -2.31244639e-01 -9.12522003e-02 -2.89423674e-01
      1.08797833e-01 -4.00721103e-01 6.00134209e-03 -3.68689299e-02
      -1.00425012e-01 -4.95950021e-02 -3.33747193e-02 2.47931466e-01
      -9.61793214e-02 -6.09109215e-02 1.01034597e-01 8.69738907e-02
      -1.98017955e-02 -4.15853746e-02 -2.71763504e-01 -3.23944956e-01
      -1.14596441e-01 4.03431319e-02 9.69386697e-02 6.82339221e-02
      -4.06654000e-01 -3.24705213e-01 1.17600739e-01 -4.07227352e-02
      2.04232052e-01 7.26185888e-02 -2.75239944e-01 1.05337156e-02
      -2.48022508e-02 -1.35292768e-01 -2.08401963e-01 1.51132166e-01
      -9.39892698e-03 2.39959925e-01 2.43207082e-01 3.74080867e-01
      2.57418621e-02 7.11848512e-02 -2.29543537e-01 -2.83964247e-01
      -8.92125815e-02 -9.35665220e-02 -2.49774352e-01 -8.51108283e-02
      -1.91140443e-01 -2.68054277e-01 -2.62881547e-01 -9.20719877e-02
      -1.99483633e-01 -2.28525624e-01 -1.83076203e-01 -1.69541210e-01
      -3.63592454e-03 6.71016723e-02 8.10622349e-02 3.49514037e-02
      1.67414859e-01 1.91548720e-01 1.05752744e-01 -4.83981341e-01
      -3.42176408e-01 -6.00253455e-02 1.33113429e-01 2.58839458e-01
      2.97698975e-01 -2.93206275e-01 -1.61523253e-01 -4.43231404e-01
      -6.17393553e-01 -2.96643972e-01 2.96799727e-02 2.67271221e-01
      -4.98727039e-02 -8.62588361e-02 -2.07996830e-01 1.62657187e-03
      3.24151223e-03 -1.15486868e-02 -1.27917036e-01 -6.29309118e-01
      -4.26452786e-01 -6.86312793e-03 -8.85137245e-02 -1.73049212e-01
      5.01844240e-03 -1.11245632e-01 -4.58164126e-01 -6.49762899e-02
      -2.88513571e-01 -5.13121307e-01 -3.48792255e-01 -1.62590414e-01
      -2.31652521e-02 -1.46705374e-01 -2.30930999e-01 3.62862535e-02
      -7.99829736e-02 -1.43440291e-01 1.56830981e-01 1.57102019e-01
      1.22762583e-01 4.24323156e-02 -8.85670036e-02 4.12127487e-02
      4.11420017e-02 9.35591310e-02 -3.42953742e-01 1.95642561e-01
      1.33358672e-01 2.11133003e-01 -2.94343382e-02 -2.37868384e-01
      -1.15209915e-01 1.79340214e-01 1.83232695e-01 -9.68125910e-02
      -1.67677715e-01 -1.36502191e-01 -1.75104305e-01 -1.70422733e-01
      -3.66389990e-01 -2.56882250e-01 -1.34230658e-01 5.31463921e-01
      -1.42480731e-01 -2.73750275e-01 -8.03388804e-02 -1.72020748e-01
      5.30161196e-03 -1.80061921e-01 2.69476593e-01 1.69942722e-01
      -4.84020412e-02 -9.97197777e-02 4.52170670e-01 1.64039403e-01
      3.85007322e-01 -1.35705806e-02 -1.02461360e-01 -7.80279189e-02
      -6.06526844e-02 -7.90523291e-02 -3.80016655e-01 4.01049912e-01
      1.84390426e-01 2.03931868e-01 2.72159785e-01 1.76767651e-02
      3.08372289e-01 1.57039776e-01 2.22439915e-01 -1.27444580e-01
      7.63434097e-02 5.53175583e-02 2.60019124e-01 7.34954998e-02
      1.26668021e-01 4.32859302e-01 1.12467356e-01 -4.55610901e-02
      -3.97606611e-01 2.99393922e-01 3.76741081e-01 1.02112703e-01
      -3.17438394e-01 -2.95143843e-01 -2.65144229e-01 -4.09131609e-02
      -2.25649104e-01 4.10925895e-02 1.73864961e-02 -1.03266597e-01
      8.69179070e-02 -1.21435836e-01 -2.46784329e-01 -3.29633802e-01
      -4.57896627e-02 -1.42380014e-01 -1.12007819e-01 -2.16571853e-01
      -2.58571237e-01 1.84104413e-01 -7.81638399e-02 -3.76929104e-01
      1.11440547e-01 4.91830140e-01 1.12301767e-01 1.92006990e-01
      1.75247133e-01 2.51450688e-01 4.16522622e-02 2.48943735e-02
      -1.18095152e-01 3.24083045e-02 2.16252565e-01 2.26508215e-01
      3.68416965e-01 -2.82671571e-01 1.17041096e-01 7.47706741e-02
      9.91548374e-02 1.00519713e-02 -9.92377102e-03 1.59410298e-01
      2.13437423e-01 1.28163084e-01 1.19939551e-01 -1.06107220e-01
      -9.63191390e-02 1.32176012e-01 7.95866475e-02 6.54098988e-02
      -3.42645235e-02 -7.41712004e-02 6.16200902e-02 -1.15819134e-01
      -6.48677126e-02 2.35944670e-02 7.46607780e-03 2.64432222e-01
      -1.98559631e-02 -9.96296853e-02 -2.91002125e-01 2.85479855e-02
      -2.28245899e-01 9.58499610e-02 1.43196702e-01 -1.41237736e-01
      -6.06064461e-02 -1.14354633e-01 -1.40179724e-01 3.17744613e-01
      -8.91958177e-02 3.14442188e-01 1.71349838e-01 1.27287097e-02
      1.53008744e-01 1.50313646e-01 1.70561180e-01 -5.58984512e-03
      1.71971634e-01 3.98884058e-01 -9.28140804e-02 -1.29208028e-01
      -1.25854194e-01 1.32616395e-02 1.97202146e-01 1.81035012e-01
      1.64423406e-01 8.72903168e-02 -1.47113860e-01 8.89528021e-02
      1.36398494e-01 -2.60220826e-01 4.07351069e-02 -1.91259667e-01
      6.22489192e-02 -1.07836612e-01 1.06136195e-01 -3.42052504e-02
      1.24245957e-01 1.47632986e-01 -3.44711304e-01 1.51218370e-01
      7.23721012e-02 -2.08924413e-02 -2.67547637e-01 -3.94030102e-03
      -2.16811746e-01 -2.72610843e-01 -2.67444141e-02 1.53353781e-01
      -9.14292485e-02 -1.92811757e-01 -1.76949605e-01 5.57837822e-02
      -2.83380714e-03 2.72406619e-02 1.33545682e-01 -3.40206295e-01
      -2.77941853e-01 -7.30179697e-02 -4.70675044e-02 7.22965971e-03
      -1.28757671e-01 -1.23602949e-01 -2.59518355e-01 -1.92119032e-01
      -7.52545148e-02 8.56597070e-03 -3.31339449e-01 -4.23966110e-01
      -3.16685826e-01 -2.09593445e-01 9.89836901e-02 -1.71196967e-01
      5.19710593e-02 -7.62411654e-02 -9.67995822e-03 -6.95135519e-02
      -1.30864203e-01 -1.31152362e-01 7.50877475e-03 2.42244035e-01
      -2.72694051e-01 -1.61705121e-01 -3.06204408e-01 -2.54364043e-01</_></support_vectors>
  <decision_functions>
    <_>
      <sv_count>1</sv_count>
      <rho>-1.1358651138009440e+01</rho>
      <alpha>
        1.</alpha>
      <index>
        0</index></_></decision_functions></my_svm>
</opencv_storage>
