<?xml version="1.0"?>
<opencv_storage>
<my_svm type_id="opencv-ml-svm">
  <svm_type>C_SVC</svm_type>
  <kernel><type>LINEAR</type></kernel>
  <C>1.0000000000000001e-01</C>
  <term_criteria><epsilon>1.1920928955078125e-07</epsilon>
    <iterations>1000</iterations></term_criteria>
  <var_all>1764</var_all>
  <var_count>1764</var_count>
  <class_count>2</class_count>
  <class_labels type_id="opencv-matrix">
    <rows>1</rows>
    <cols>2</cols>
    <dt>i</dt>
    <data>
      0 1</data></class_labels>
  <sv_total>1</sv_total>
  <support_vectors>
    <_>
      2.55593453e-02 1.71552170e-02 -3.82105745e-02 -2.33158261e-01
      -9.02776346e-02 1.79174598e-02 1.59732755e-02 1.13916136e-01
      9.31233354e-03 6.32123742e-03 -2.72309799e-02 -1.21648885e-01
      -2.19915271e-01 -9.51239560e-03 2.94673024e-03 1.64673924e-02
      -2.57526543e-02 -9.81477126e-02 -2.72297487e-02 8.47876146e-02
      3.73359285e-02 -2.47322440e-01 -1.24764465e-01 -1.68294385e-02
      9.87716988e-02 1.51627734e-01 -4.95993793e-02 4.27920446e-02
      -7.10319951e-02 -6.85519576e-02 -2.28596166e-01 -1.26807690e-01
      -9.04876292e-02 -8.97959620e-02 -8.09402913e-02 -5.23340590e-02
      -2.95030847e-02 -2.84236558e-02 -5.95545843e-02 7.28760147e-03
      1.24522477e-01 1.10657148e-01 -3.67223322e-02 -1.07563823e-01
      -7.32825398e-02 -1.73505284e-02 5.84450513e-02 6.38169572e-02
      7.51383528e-02 2.27563292e-01 1.33654140e-02 -7.93494880e-02
      -8.01727176e-02 -1.04889691e-01 2.28631832e-02 -1.52200842e-02
      5.37743643e-02 1.29011780e-01 3.31696495e-02 4.74584894e-03
      -2.08646238e-01 -1.56020194e-01 -6.95593432e-02 -4.89321463e-02
      -2.55883168e-02 4.73181792e-02 -3.68337822e-03 1.73106521e-01
      -3.37619036e-02 -1.33885473e-01 5.80725912e-03 -4.16160859e-02
      -6.37595952e-02 -5.87690100e-02 7.22315675e-03 3.68018039e-02
      2.29390740e-01 1.41424999e-01 2.60770414e-02 -8.97118971e-02
      -1.21107079e-01 -7.09015653e-02 -3.30170989e-02 -1.86507646e-02
      -9.16313846e-03 1.22468784e-01 7.17652291e-02 9.05692205e-02
      -1.89394042e-01 -2.16672286e-01 -9.83715355e-02 -1.87169835e-01
      -6.28973469e-02 -4.41168323e-02 1.25913024e-01 2.03207266e-02
      7.71257058e-02 6.99822977e-02 -3.00474130e-02 -7.42271766e-02
      -6.36307672e-02 4.71737124e-02 2.04360634e-02 -8.13789107e-03
      -1.62202157e-02 7.27282465e-02 3.12582441e-02 -8.55932608e-02
      4.77876514e-02 7.07069561e-02 4.73125242e-02 4.42901999e-02
      4.49037325e-05 -1.28975585e-01 -7.01222867e-02 -1.46294400e-01
      -1.14309728e-01 1.14307560e-01 5.36284000e-02 7.10693002e-02
      1.81522608e-01 1.69400349e-01 -1.13874391e-01 -2.82762617e-01
      -6.77710995e-02 5.58305494e-02 6.51813596e-02 7.83283412e-02
      1.07027553e-01 4.14190367e-02 7.06710219e-02 -1.57221630e-01
      4.35474068e-02 1.81008670e-02 -1.25330901e-02 1.22430116e-01
      3.12078209e-03 1.54136606e-02 1.42684743e-01 3.19550261e-02
      -5.30270897e-02 -1.60933584e-02 7.16061890e-02 3.88701037e-02
      1.16945609e-01 8.68488327e-02 7.70303160e-02 1.25864998e-01
      1.33357672e-02 -2.16759816e-01 -2.17900455e-01 -1.73580516e-02
      4.34473865e-02 -4.99532297e-02 -1.45988660e-02 -2.35386118e-02
      -6.70532882e-03 1.18343392e-02 -9.14571062e-02 2.24984493e-02
      8.71705487e-02 -2.47225333e-02 1.58093825e-01 5.73764220e-02
      7.40500540e-02 1.10923521e-01 -1.17578536e-01 -1.51423305e-01
      -1.11238807e-01 7.47860968e-02 1.37336925e-01 6.50487393e-02
      5.51621914e-02 1.24433897e-02 -2.89788730e-02 -8.52651596e-02
      -1.80065572e-01 -9.68216509e-02 2.81431451e-02 4.52739932e-02
      -1.65603608e-01 -2.99723111e-02 -6.34791702e-02 -5.49384691e-02
      -3.99301201e-02 -4.72669257e-03 9.57280770e-02 8.46543610e-02
      -6.56940863e-02 -1.92713723e-01 5.03530949e-02 7.90615007e-02
      -5.64264543e-02 3.60031463e-02 -2.97082365e-02 1.44009709e-01
      7.54708946e-02 1.14018684e-02 -6.14700615e-02 -9.40489471e-02
      -1.05920874e-01 -6.47762120e-02 -4.04577516e-02 -1.87876504e-02
      -4.85973023e-02 4.33888100e-02 -4.16179672e-02 -4.80723381e-02
      -5.76932989e-02 -1.33163324e-02 4.32717688e-02 2.61756722e-02
      9.41402372e-03 1.10525014e-02 -5.11167459e-02 -6.60197809e-02
      -1.28185526e-01 7.44801015e-02 9.54852030e-02 -8.32555145e-02
      -4.30038907e-02 -1.45752266e-01 6.83676079e-02 4.24188608e-03
      -5.76499216e-02 -2.82527246e-02 5.55756465e-02 2.54087634e-02
      -1.31312102e-01 -3.62664685e-02 -5.13317958e-02 -3.12681347e-02
      -1.25216886e-01 -3.52413952e-02 -1.21983998e-01 2.24523041e-02
      1.91697606e-03 4.25211005e-02 1.30429983e-01 -2.56364234e-02
      1.47098815e-03 -2.56618354e-02 -4.74633612e-02 -1.23804033e-01
      -5.60964718e-02 -1.21726692e-01 -7.96631947e-02 2.30538081e-02
      2.73145474e-02 8.42099637e-02 -3.05281207e-02 -5.61236180e-02
      2.32675998e-03 1.38978928e-01 1.18734300e-01 -1.40986085e-01
      -1.70811340e-01 -4.28010039e-02 9.60730240e-02 1.04139663e-01
      -2.39133332e-02 3.72621045e-02 3.97386029e-02 7.26287887e-02
      -1.37784973e-01 -1.52723119e-01 -1.52180791e-01 -2.39718705e-02
      -1.15482723e-02 2.23260410e-02 7.34226406e-02 1.41981825e-01
      1.19027220e-01 -1.62132040e-01 -9.64540914e-02 -7.09596789e-03
      1.48255810e-01 1.22855447e-01 -9.90144815e-03 4.37684841e-02
      -1.47167593e-02 3.48159410e-02 -1.32495105e-01 -7.58533329e-02
      -1.65549129e-01 -4.06145453e-02 -1.94262136e-02 3.71502116e-02
      2.70984992e-02 -8.82399753e-02 6.97765946e-02 1.79054618e-01
      5.37787750e-02 1.93939004e-02 -1.11942194e-01 -1.35784969e-01
      -1.07810162e-01 5.47363646e-02 -6.69934601e-02 4.25133482e-03
      -5.89989461e-02 7.84766302e-02 -2.04152409e-02 -2.62447074e-02
      -9.90431756e-02 -8.74988213e-02 3.14817540e-02 -1.12987146e-01
      -8.35451577e-03 1.50616825e-01 7.11875707e-02 2.61028893e-02
      -2.73874421e-02 -6.59960806e-02 -7.21373782e-03 1.46548778e-01
      2.51548029e-02 2.00077631e-02 -1.84251170e-03 1.63649172e-02
      -1.57636199e-02 7.34619796e-02 -6.69106329e-03 1.75509378e-01
      3.70469429e-02 -7.35137090e-02 -9.87628475e-03 -6.29343241e-02
      2.15756893e-02 -1.06483467e-01 2.83424761e-02 2.28995904e-02
      2.55660675e-02 3.12018022e-02 6.12698533e-02 9.28779542e-02
      2.48217452e-02 6.70420844e-03 -8.14423487e-02 2.47649811e-02
      -2.71322597e-02 -5.06563745e-02 1.24051876e-01 1.05456509e-01
      7.62401074e-02 -6.95136860e-02 2.92018596e-02 -4.69243452e-02
      2.70976182e-02 -1.02981299e-01 7.94421583e-02 3.37106511e-02
      1.32752573e-02 -2.17197295e-02 6.21007271e-02 1.51625723e-01
      6.36772737e-02 8.44450742e-02 -8.58155116e-02 -4.19496112e-02
      5.97133711e-02 8.00856724e-02 5.09990156e-02 2.80637201e-03
      1.28294036e-01 -1.37136400e-01 7.07368329e-02 -1.37996703e-01
      -2.84067430e-02 1.34801492e-01 3.59070785e-02 4.38778801e-03
      7.75513202e-02 6.41772225e-02 -2.37409920e-02 7.83816800e-02
      2.53283959e-02 3.09571959e-02 -3.97400633e-02 -5.89756928e-02
      -1.48911998e-02 6.94583803e-02 1.78525656e-01 2.17508264e-02
      3.08902729e-02 -1.63647279e-01 -6.45505637e-02 3.35047208e-02
      5.38160279e-02 3.47416699e-02 9.01662931e-02 3.09973676e-03
      2.42871419e-03 -3.33424211e-02 -4.75798436e-02 3.17766331e-02
      -2.68740323e-03 -3.89452428e-02 -2.67651957e-02 2.15232242e-02
      -4.47314307e-02 -1.16299689e-01 -2.85961032e-02 3.98717448e-02
      8.41459781e-02 -3.72831374e-02 -9.35455691e-03 -2.99548972e-02
      -9.57657874e-04 -3.68965194e-02 -8.64442065e-02 5.23571111e-02
      7.54816532e-02 1.04323765e-02 -2.18041409e-02 7.03371782e-03
      5.07832319e-02 -1.95285678e-02 -2.35358234e-02 1.82484742e-02
      3.87377255e-02 2.68632937e-02 -1.50684034e-02 -3.06394026e-02
      3.92714841e-03 9.26619675e-03 -1.07154083e-02 -2.75436360e-02
      2.49264669e-02 1.74178645e-01 9.24953520e-02 -5.17064594e-02
      -9.02701318e-02 -1.21244840e-01 -8.23370293e-02 -5.50078414e-02
      -2.17535775e-02 -2.34333556e-02 4.83696768e-03 1.59282275e-02
      -1.13920309e-01 -1.96829885e-02 -3.81345749e-02 -6.91826642e-02
      -2.43535209e-02 7.98929390e-03 -5.11151999e-02 -1.42772188e-02
      -7.57793039e-02 -8.60721245e-02 -5.03511392e-02 -4.92563955e-02
      5.22399507e-03 -2.33210344e-02 3.70128416e-02 -7.45360740e-03
      5.56478165e-02 -2.78362706e-02 -1.00569673e-01 7.93726463e-03
      7.08136261e-02 1.84195470e-02 4.94738668e-02 2.01455411e-02
      -6.74042702e-02 4.93255118e-03 -2.24925186e-02 5.00690751e-03
      -4.88169417e-02 1.15051167e-02 -2.77868044e-02 -7.43954256e-03
      5.53038977e-02 2.89717596e-03 -3.95758487e-02 -5.78076094e-02
      -6.25607893e-02 -8.42933878e-02 -1.19814552e-01 -6.26960322e-02
      -8.90042558e-02 -7.13000214e-03 -4.06733602e-02 -5.01896478e-02
      -9.17725042e-02 -4.48727459e-02 8.80120508e-03 2.95891576e-02
      1.41232496e-03 1.88769102e-02 -2.21732538e-02 -1.71868247e-03
      5.28451949e-02 2.27143969e-02 6.46729895e-04 -1.84218567e-02
      5.01384251e-02 4.15272191e-02 8.51179007e-03 -1.16870198e-02
      1.09227234e-03 -9.57774594e-02 -8.24967474e-02 5.32918517e-03
      9.28699598e-02 1.30189970e-01 1.45486668e-01 -1.89934671e-01
      -1.57035142e-01 8.96067396e-02 2.07510889e-01 1.62065193e-01
      9.24151912e-02 9.26684588e-03 -1.66781203e-04 8.36474672e-02
      -7.73338228e-02 -1.27811790e-01 -1.19928559e-02 1.51579492e-02
      1.52355852e-02 6.34553879e-02 -8.80785212e-02 -1.11710392e-02
      6.98636845e-02 -1.61555395e-01 -1.09392643e-01 -1.41344711e-01
      -6.02186657e-03 1.01861656e-01 -1.89700365e-01 -5.79306707e-02
      -3.32056284e-02 7.76109248e-02 -1.15634300e-01 -9.53173712e-02
      -7.79153481e-02 -1.17651664e-01 -4.74141799e-02 -5.39910123e-02
      -2.00555157e-02 -4.82087806e-02 -5.05624861e-02 3.82647775e-02
      1.00775145e-01 7.58674070e-02 -5.53886518e-02 -5.39079830e-02
      5.32594975e-03 1.35946214e-01 7.45427310e-02 6.54854253e-03
      -7.15904981e-02 3.05244196e-02 -7.78116472e-03 -1.29755714e-03
      3.91932540e-02 1.40089974e-01 -5.76155223e-02 -4.17243876e-02
      -4.67628315e-02 6.83565214e-02 7.79595450e-02 3.05136386e-02
      -8.87655020e-02 -7.94743150e-02 -1.41123816e-01 5.81032895e-02
      1.37572020e-01 -4.11699824e-02 -7.46617243e-02 7.27644190e-02
      -5.04156854e-03 1.69375772e-03 6.78159893e-02 2.92834584e-02
      1.39502913e-01 5.85979410e-02 2.05884408e-02 -4.92895357e-02
      5.50016426e-02 -1.50565999e-02 2.43708976e-02 -5.39849885e-02
      9.64703411e-02 -1.32634258e-02 4.63710679e-03 -9.90261883e-03
      -2.34484375e-02 8.87429863e-02 5.44355065e-02 6.32153898e-02
      -1.09426863e-01 -2.55660322e-02 5.95378801e-02 7.04719275e-02
      1.85943116e-02 -2.44601015e-02 5.83397746e-02 -5.94809745e-03
      1.49941957e-02 1.28546720e-02 1.52921481e-02 2.39023827e-02
      1.05858579e-01 1.09312430e-01 2.17566285e-02 3.33698764e-02
      2.79918779e-02 5.82799837e-02 4.94773723e-02 9.30079166e-03
      -1.37395740e-01 -8.16952959e-02 -5.43945953e-02 -4.95724641e-02
      -7.82234594e-03 -9.27838590e-03 -8.47057160e-03 -1.09015413e-01
      -7.94993117e-02 -3.74900587e-02 2.91103367e-02 -1.74185317e-02
      3.25318053e-02 1.95344649e-02 1.76335580e-03 -4.61721793e-02
      4.47802916e-02 -2.95552239e-02 -8.32691565e-02 -3.77640277e-02
      3.33458222e-02 -2.37673670e-02 8.04499816e-03 -7.34769925e-02
      4.56190631e-02 1.01242075e-02 -1.76100992e-02 -7.08067045e-03
      8.64065737e-02 7.65588507e-02 3.27091403e-02 7.45850503e-02
      9.81420558e-03 1.93831567e-02 6.59948438e-02 9.99990758e-03
      3.21593396e-02 1.32390931e-02 -2.12456915e-03 -1.32304490e-01
      -6.47943988e-02 7.84519874e-03 -5.92542300e-03 4.06539924e-02
      -3.80735546e-02 8.99723172e-02 4.77277450e-02 -2.49696840e-02
      -1.04474582e-01 3.61177884e-03 1.25574647e-03 5.02822734e-02
      -2.17748843e-02 5.48170134e-02 2.23489664e-02 7.47685283e-02
      -5.70021453e-04 -5.81665188e-02 -1.64697543e-02 1.90705080e-02
      -7.26178214e-02 -1.53249037e-03 -2.37162746e-02 2.81883087e-02
      -2.43929308e-03 -3.78309228e-02 -4.56242412e-02 7.12728826e-03
      1.88924149e-02 -6.01969808e-02 2.04873588e-02 -2.74502579e-02
      8.45160615e-03 1.07868882e-02 -1.61238462e-02 -8.38046223e-02
      -1.57680977e-02 -5.25008775e-02 -6.40219077e-02 -1.13954410e-01
      -1.51819400e-02 4.22029048e-02 8.47547799e-02 3.01253572e-02
      2.35962812e-02 2.26661861e-02 -1.15377031e-01 -6.80784136e-02
      -6.91823140e-02 3.43622640e-02 4.20608930e-02 -4.98180166e-02
      -6.70673847e-02 2.53857728e-02 1.13051841e-02 1.48068825e-02
      -7.74568841e-02 -6.52534515e-02 -1.04789846e-01 4.67798002e-02
      5.37476651e-02 2.41049360e-02 8.39856192e-02 6.69218525e-02
      -3.78893912e-02 -3.42395827e-02 2.36643683e-02 3.23841604e-03
      -2.17999239e-02 -5.77461459e-02 -4.36539389e-02 -5.00143915e-02
      -7.74203390e-02 -6.40610829e-02 -5.57776308e-03 -6.42993897e-02
      -7.36583918e-02 -2.66908146e-02 -7.55878445e-03 -1.35126943e-02
      -2.02876721e-02 -1.28146755e-02 -5.73828183e-02 -1.28789619e-01
      -7.87824467e-02 -1.40694141e-01 4.48987968e-02 -1.78742278e-02
      -1.51650652e-01 -5.92221357e-02 5.09744696e-02 -1.91424657e-02
      4.32781540e-02 5.84400259e-02 2.46560499e-02 2.87372600e-02
      -1.00969197e-02 2.07434371e-02 3.94496247e-02 7.38988295e-02
      -5.50465472e-02 -3.26824784e-02 -4.33822460e-02 -8.48362744e-02
      -8.39859843e-02 4.92059737e-02 5.31142130e-02 1.04455292e-01
      -1.47334591e-01 -1.37448013e-01 -3.10371816e-02 4.24309596e-02
      -2.14567751e-01 2.44595725e-02 4.91036177e-02 5.74757494e-02
      5.98065481e-02 -1.32762998e-01 -1.52583212e-01 -8.38671252e-02
      6.38668016e-02 -1.70171317e-02 -4.09781784e-02 1.36834923e-02
      -1.17578255e-02 -9.09410492e-02 -7.37141818e-02 -9.58069712e-02
      1.30070582e-01 6.16864264e-02 -1.66770443e-01 9.01909396e-02
      1.24819984e-03 -1.01696201e-01 -1.53717250e-01 -8.65326077e-02
      -1.73318848e-01 -3.89057510e-02 1.36182800e-01 5.58361895e-02
      1.50031717e-02 2.93202102e-02 -2.48717405e-02 9.00606588e-02
      7.62970597e-02 -1.17276780e-01 -1.30343083e-02 5.67492358e-02
      -7.23906904e-02 4.23482507e-02 1.20522313e-01 -9.42470133e-03
      -7.29689673e-02 6.35437816e-02 -8.42302665e-03 7.68316463e-02
      6.77418932e-02 2.82210251e-03 3.73914838e-02 -5.34476936e-02
      -1.13843530e-01 -6.26132488e-02 -5.00352420e-02 -6.76423982e-02
      -5.06863408e-02 1.26872927e-01 -3.13575901e-02 -4.14151885e-02
      3.09775099e-02 1.06621692e-02 -1.12733953e-01 -3.74164134e-02
      -4.77717258e-02 8.91240463e-02 1.00825392e-01 -1.24460720e-02
      -4.45399545e-02 -8.78772046e-03 5.32393157e-03 -3.82465497e-02
      -1.33744534e-02 -1.27646187e-02 4.80532385e-02 -5.54516502e-02
      -7.63689727e-02 1.48792099e-03 1.61257666e-02 1.10319212e-01
      1.46559356e-02 1.66548714e-02 -2.19380017e-03 4.73986231e-02
      1.10848306e-03 2.86346339e-02 -7.95161650e-02 1.10796560e-02
      6.52517751e-02 -1.08912028e-01 -6.18988462e-02 -1.17516503e-01
      1.14847971e-02 -1.09473038e-02 1.71478968e-02 3.73422876e-02
      2.22528521e-02 8.53257924e-02 -2.63614859e-02 -4.11560461e-02
      -8.28329846e-02 3.15139070e-02 -2.13000886e-02 6.66429028e-02
      -5.46568371e-02 -8.48976821e-02 9.09806602e-03 -1.57849658e-02
      5.75041175e-02 -8.15532655e-02 -1.86600946e-02 -1.11949362e-01
      -9.42239687e-02 2.75963861e-02 1.02626188e-02 3.10801677e-02
      2.30666921e-02 1.57617927e-01 2.40471624e-02 -4.88271229e-02
      -6.51582852e-02 -5.05227521e-02 -8.73359814e-02 -8.57854709e-02
      -3.16511514e-03 -2.01640856e-02 5.28549254e-02 -1.07297255e-02
      -4.88762483e-02 -1.67402565e-01 -1.02611490e-01 -4.73207096e-03
      -7.65346736e-02 -4.98254225e-02 2.45053619e-02 1.13333151e-01
      6.05032854e-02 -1.74856279e-02 -4.04555956e-03 -7.18562817e-03
      1.02197565e-01 7.77292699e-02 8.46714340e-03 -8.80866423e-02
      -3.77428085e-02 -3.43338773e-02 -9.17187240e-03 1.44298300e-02
      4.59010974e-02 6.59585148e-02 -3.83162424e-02 -2.26646755e-02
      -3.68052274e-02 -9.54621285e-02 -5.35347760e-02 1.83637831e-02
      4.51562926e-02 6.26605079e-02 1.13854043e-01 6.97046369e-02
      1.14154024e-02 -9.98565853e-02 -9.58404168e-02 -1.22986197e-01
      -3.89598235e-02 6.42799139e-02 4.86870818e-02 1.02547631e-01
      5.15462719e-02 5.96170388e-02 -2.58082850e-03 -1.82530463e-01
      -1.20148212e-01 -6.45702034e-02 4.99406364e-03 -1.15861408e-01
      4.76138219e-02 -9.40139666e-02 -1.61287710e-02 5.01641929e-02
      -2.67519336e-02 -8.51358473e-02 -5.05847223e-02 -4.13609780e-02
      -5.49025685e-02 3.12362146e-02 -1.88135616e-02 -3.87378782e-02
      1.44735008e-01 1.28138304e-01 1.32935392e-02 -3.17879580e-02
      1.96089316e-02 2.34099999e-02 -1.62460264e-02 -4.09489051e-02
      2.57212371e-02 1.63299274e-02 -1.16301939e-01 -8.04896504e-02
      -1.70094207e-01 -1.17348090e-01 -1.67855039e-01 -6.74257204e-02
      -1.92751829e-02 2.81652398e-02 3.31926979e-02 -2.61840248e-03
      1.01035098e-02 -5.34395799e-02 -7.01972246e-02 -5.78729473e-02
      -8.29996243e-02 -3.83174121e-02 -2.11415306e-01 -5.74224368e-02
      6.68052733e-02 -6.30444288e-02 -5.20615131e-02 2.64051892e-02
      1.49130411e-02 -1.48240225e-02 -3.46986465e-02 -7.41255805e-02
      -1.64286364e-02 5.50881922e-02 -1.13332428e-01 2.74258703e-02
      2.69338600e-02 -3.29504609e-02 -9.89840254e-02 -8.37594196e-02
      -5.89825772e-02 -7.74083957e-02 -8.25611502e-02 -9.73013267e-02
      -8.76790136e-02 -1.40447497e-01 -6.57608435e-02 8.52518305e-02
      1.51259322e-02 -2.71659009e-02 -1.02036484e-01 -4.88388203e-02
      -9.81117785e-02 -3.44317444e-02 -4.43040431e-02 2.99650766e-02
      5.72512597e-02 -1.66169320e-05 -1.06626358e-02 -1.07421204e-01
      -1.47946328e-01 1.40747437e-02 9.34930071e-02 3.09969839e-02
      1.64549041e-03 7.82370493e-02 -5.54139204e-02 -1.15875185e-01
      -1.31947994e-01 -9.86996293e-02 -2.70666219e-02 -2.55610757e-02
      7.69702811e-03 7.30664283e-02 1.71036333e-01 6.36762977e-02
      6.05700724e-02 -4.97557595e-02 -6.96881413e-02 -8.35165083e-02
      3.79579067e-02 9.80228335e-02 1.70137137e-01 -2.26809774e-02
      -9.91735905e-02 -1.00363813e-01 -1.13108717e-01 -5.34578525e-02
      -6.01421632e-02 -1.13242351e-01 -5.65122217e-02 2.47967127e-03
      5.10789528e-02 -4.31618914e-02 -1.01986520e-01 -9.73521098e-02
      -8.77905115e-02 5.29470341e-03 -8.41766447e-02 1.45975109e-02
      3.58424783e-02 -1.47075048e-02 -6.29075710e-03 9.13218334e-02
      -8.09668079e-02 -7.35442191e-02 -1.14651196e-01 4.44222055e-02
      1.18119076e-01 6.32910654e-02 -8.87343585e-02 -7.16390386e-02
      -4.81259860e-02 -8.19652006e-02 -1.63989086e-02 -2.23974530e-02
      -1.27995431e-01 -3.57647985e-02 -9.74230543e-02 -7.62486905e-02
      -6.11511916e-02 3.89533713e-02 -9.89491865e-02 -9.97466501e-03
      -1.06451966e-01 -1.60185043e-02 6.04675785e-02 -6.00826330e-02
      -6.10739253e-02 1.68433675e-04 1.15118489e-01 -3.52321751e-02
      -1.58967644e-01 -1.17713898e-01 9.89283994e-02 9.91376787e-02
      3.00703216e-02 -1.57123385e-03 1.49007533e-02 7.43015260e-02
      -6.17051264e-03 -3.21989097e-02 -4.29961495e-02 9.41826478e-02
      1.28276303e-01 5.37095126e-03 -1.86041519e-02 -8.56858194e-02
      2.32322682e-02 1.30564079e-03 -5.27948812e-02 -8.03369954e-02
      5.18657528e-02 7.95154124e-02 1.12077519e-02 7.06628561e-02
      -6.10577129e-02 6.15182891e-02 1.69159994e-02 1.21870162e-02
      -5.19996993e-02 1.36061102e-01 1.00097016e-01 1.45002082e-01
      -1.64547563e-01 -9.14365873e-02 -5.54316975e-02 -9.62201059e-02
      3.02427113e-02 4.26038168e-02 4.69778217e-02 -4.13913578e-02
      -9.15909410e-02 -6.14902973e-02 -1.03868507e-01 -3.17655429e-02
      7.89606869e-02 5.46149611e-02 9.45784501e-04 -3.14557329e-02
      3.50349173e-02 -5.71527109e-02 -9.09887850e-02 -1.22482106e-01
      -3.81164849e-02 -6.09014779e-02 6.95303008e-02 1.05258496e-03
      8.32372010e-02 -5.45474552e-02 -1.70915201e-02 -1.16997091e-02
      -6.36819676e-02 -1.44697689e-02 -3.56508046e-02 1.55364498e-01
      4.87498194e-03 -2.34783571e-02 -1.89816335e-03 7.23238960e-02
      -7.96227995e-03 -4.22714241e-02 -2.84854770e-02 -6.93330690e-02
      -8.36744830e-02 -1.61753163e-01 -1.46855980e-01 -9.81790014e-03
      -5.68714067e-02 -8.88200849e-02 -1.41756628e-02 1.05213247e-01
      5.97506315e-02 4.28100210e-03 -3.71156000e-02 -1.45054728e-01
      -1.09761856e-01 -2.39360467e-01 1.69859547e-02 -8.25781971e-02
      -3.50241363e-02 -1.36860739e-02 5.42417355e-02 -6.53176429e-03
      -2.23022457e-02 3.15450355e-02 6.11299537e-02 -5.88252880e-02
      -6.13426901e-02 7.85582662e-02 9.72526968e-02 1.33949667e-01
      7.53501654e-02 3.32724974e-02 -1.06216908e-01 -1.96891263e-01
      -9.58199278e-02 -5.26747946e-03 5.47668412e-02 9.65061784e-03
      -4.90134433e-02 -4.80353497e-02 -1.12446688e-01 -9.60612372e-02
      -2.51701355e-01 -7.62957484e-02 5.64453118e-02 7.93418959e-02
      1.68301985e-02 -2.53199730e-02 -5.86482957e-02 2.43863165e-02
      2.42090095e-02 -7.33926818e-02 9.97924712e-03 -3.96146737e-02
      2.31742393e-02 -2.46493774e-03 2.02328842e-02 -6.35437891e-02
      1.83887482e-02 -8.20834413e-02 -1.49753138e-01 4.07493189e-02
      -1.42488414e-02 -4.86761890e-02 -3.36095616e-02 -6.45173490e-02
      1.45478109e-02 1.41380787e-01 1.06532864e-01 -4.53182831e-02
      -7.23265186e-02 -2.73355935e-02 4.38244119e-02 -8.05228949e-02
      -1.04267694e-01 -9.74677876e-02 -2.17502955e-02 -4.35743108e-02
      -1.25914037e-01 4.39260602e-02 8.69193971e-02 5.13435490e-02
      -4.62899655e-02 -1.00539193e-01 -1.15442850e-01 -1.99969625e-04
      7.15355501e-02 -8.66382010e-03 -5.00525460e-02 -1.35410860e-01
      -1.61739867e-02 -4.67233248e-02 -1.40847012e-01 -1.17412135e-01
      -7.50974417e-02 -8.20697024e-02 -1.08986460e-01 1.00563392e-01
      -2.98072752e-02 7.31615648e-02 6.13299198e-02 -4.73436564e-02
      -5.21923192e-02 -2.56983121e-03 1.89288601e-03 1.01570543e-02
      1.72904223e-01 9.42165777e-02 1.14222392e-01 2.60542352e-02
      -1.34574696e-01 -1.66433632e-01 -9.13602933e-02 5.92956580e-02
      1.61314934e-01 2.54107192e-02 1.39507521e-02 -4.65056039e-02
      -1.60378337e-01 -1.17343768e-01 -9.31743383e-02 -1.46756634e-01
      -9.13560465e-02 -4.93152114e-03 1.67770624e-01 1.15704238e-01
      1.51940510e-01 4.18127924e-02 -7.06619471e-02 -9.76388976e-02
      -3.01133748e-02 1.43417403e-01 1.58573806e-01 -8.43450055e-03
      -3.34767215e-02 -6.12595640e-02 -1.23906165e-01 -1.04016937e-01
      3.17630805e-02 -6.73042261e-04 1.85057372e-02 -2.42264867e-02
      -5.80140091e-02 -6.60329172e-03 6.29000440e-02 6.53901778e-04
      2.52465643e-02 3.49738114e-02 -5.72048798e-02 -5.69959730e-02
      -7.01261610e-02 -5.48958741e-02 -5.74468710e-02 5.95267899e-02
      -3.23508456e-02 5.36828749e-02 -4.41512130e-02 -5.14202677e-02
      2.44648643e-02 -4.34604548e-02 -2.55753752e-02 -3.61111946e-02
      -5.04305363e-02 -1.51203582e-02 -1.04212284e-03 6.20062388e-02
      1.18002594e-02 -1.62248015e-02 -1.27582289e-02 -1.43110296e-02
      -2.04817019e-02 -3.19157578e-02 5.89947626e-02 1.11732639e-01
      1.53024457e-02 3.53751555e-02 5.13870902e-02 7.37017393e-02
      -2.50998233e-02 -2.50537638e-02 6.90604746e-02 2.13257186e-02
      8.64243787e-03 -2.14437023e-02 -2.14514279e-04 9.39373598e-02
      2.91072614e-02 -1.39498133e-02 7.29764532e-03 9.35294628e-02
      1.70367435e-02 -4.67625409e-02 -4.63595539e-02 1.01318449e-01
      5.93020879e-02 3.71275432e-02 1.60494503e-02 4.94665001e-03
      3.15838978e-02 1.58358272e-03 3.23345512e-02 -7.23712612e-03
      8.64277557e-02 9.24507529e-02 6.08883426e-02 5.37237478e-03
      -2.60207690e-02 4.23980430e-02 1.46638760e-02 2.76338421e-02
      -3.40172462e-02 1.17699556e-01 8.29723030e-02 1.08885020e-01
      -9.21672583e-02 -1.86870560e-01 -8.23318660e-02 -9.44950730e-02
      -5.75749762e-03 -2.99321231e-03 8.39575976e-02 -5.95154203e-02
      -9.47791897e-03 5.31987697e-02 -1.60508752e-01 -5.34618571e-02
      -8.50125253e-02 1.30526111e-01 9.73823201e-03 3.74523811e-02
      4.51880060e-02 8.36526304e-02 -1.24139577e-01 -1.89849168e-01
      -5.68808652e-02 1.66594107e-02 1.27862496e-02 2.78814998e-03
      1.05888516e-01 4.19400744e-02 -1.53625598e-02 1.22124895e-01
      -5.88206351e-02 1.09753311e-02 -4.97191511e-02 4.48629260e-02
      -7.10030799e-05 -3.18302610e-03 9.72813219e-02 1.05024949e-01
      -1.66109204e-02 -1.14282139e-01 -4.63115498e-02 -1.05272412e-01
      4.07917462e-02 -5.19083105e-02 -1.16848461e-02 -1.74592731e-06
      4.63682190e-02 -3.13483551e-02 -8.25721845e-02 -1.42596224e-02
      2.43150126e-02 8.00535306e-02 7.74678960e-02 -1.64387226e-02
      -1.04185745e-01 -1.12686381e-01 1.77741572e-02 -9.76926740e-03
      5.04267216e-02 -7.92925879e-02 -2.60398556e-02 -1.23076119e-01
      -1.16750620e-01 -3.79700214e-02 2.10413244e-02 2.22957097e-02
      -5.13570905e-02 -9.33924224e-03 -4.60182726e-02 -2.91271578e-03
      1.47864968e-02 -1.22253053e-01 -1.20012328e-01 -4.33204733e-02
      3.56242880e-02 -5.73819689e-02 -4.18381244e-02 -2.05449387e-02
      -4.16398086e-02 6.32324442e-02 5.33164665e-02 8.25569592e-03
      -4.70414534e-02 -7.49529377e-02 -1.17738746e-01 -1.54017121e-01
      -9.12942141e-02 -1.23798817e-01 3.59632471e-03 5.03832921e-02
      8.51958245e-02 -5.98260574e-02 -2.80507505e-02 -4.84475493e-02
      -3.05438749e-02 -2.73711570e-02 -4.68415394e-02 8.68995488e-02
      -6.87102750e-02 -5.72285242e-02 -4.76820618e-02 -1.09417140e-01
      -1.17456643e-02 -5.73929809e-02 2.94192135e-02 -8.79878625e-02
      -3.90213281e-02 -4.05421387e-03 -2.25336626e-04 -6.65091127e-02
      -9.79712382e-02 -1.52048498e-01 -9.71846730e-02 -3.22668664e-02
      -7.90418237e-02 -1.58659201e-02 -5.95790222e-02 -1.34512335e-02
      -3.02374382e-02 5.61736450e-02 -3.35322395e-02 3.89239676e-02
      1.12455219e-01 3.96830738e-02 4.62013185e-02 1.21828958e-01
      7.09052831e-02 7.44213089e-02 -1.44020393e-01 -5.22880815e-02
      -6.69293106e-02 -6.48551285e-02 -1.17034316e-01 -3.65280993e-02
      -8.02912265e-02 -1.18888900e-01 -8.04718286e-02 2.50192601e-02
      2.52791587e-02 -2.14347765e-02 -1.50091927e-02 -1.13218017e-01
      -1.00666927e-02 5.28399311e-02 -3.09653152e-02 7.71825463e-02
      1.57273754e-01 1.37635008e-01 1.10141307e-01 -1.68589219e-01
      -1.55989751e-01 -1.13625214e-01 3.89333740e-02 1.64325744e-01
      1.75244570e-01 -6.30595163e-02 -2.00780835e-02 -1.31957725e-01
      -2.78718084e-01 -1.09822519e-01 -3.16594876e-02 6.75805733e-02
      6.95833415e-02 1.60927381e-02 1.03540748e-01 1.50792778e-01
      1.11279644e-01 1.58794958e-03 -1.25858605e-01 -3.60834062e-01
      -1.72897413e-01 8.52509737e-02 1.08554862e-01 -1.39139846e-01
      -3.95434648e-02 -3.19104902e-02 -1.67142481e-01 -6.03879355e-02
      -8.51590186e-02 -1.62116945e-01 -3.42155620e-02 -1.90925179e-03
      -3.32369916e-02 -5.12439124e-02 -1.53124556e-01 -4.96035330e-02
      2.50550658e-02 8.90398584e-03 7.45233968e-02 4.25774418e-02
      2.08126083e-02 -8.19154754e-02 -4.38884273e-02 -8.89332741e-02
      3.80569659e-02 1.86353758e-01 -3.23599204e-02 9.04962867e-02
      1.26833707e-01 8.61598477e-02 -1.12075225e-01 -1.26569793e-01
      -1.01986006e-01 3.75839546e-02 1.39003247e-01 3.63520719e-02
      -5.54917157e-02 -7.50111463e-03 -2.09013671e-02 -1.63678214e-01
      -1.27370819e-01 -6.20325729e-02 5.63356131e-02 3.13219905e-01
      -2.27248576e-03 -3.80313322e-02 -3.44677307e-02 -1.01250120e-01
      -9.00886282e-02 -1.33204207e-01 -2.16888022e-02 -2.16662069e-03
      -9.52027272e-03 -5.70770986e-02 1.26518101e-01 1.40150711e-01
      5.78590147e-02 3.33894417e-02 -6.68996349e-02 1.67931486e-02
      1.05978616e-01 1.59824807e-02 -6.85719773e-02 2.04490572e-01
      1.53461367e-01 9.15931538e-02 -8.62189457e-02 -9.22710001e-02
      1.68954283e-02 7.41630420e-02 3.96588407e-02 -1.05790824e-01
      2.77616400e-02 4.85808477e-02 4.76388559e-02 4.89293672e-02
      3.44236754e-02 1.07318878e-01 1.21636070e-01 3.81723121e-02
      -7.72598237e-02 1.75357565e-01 1.98420301e-01 9.98602211e-02
      -1.74829960e-01 -2.55984753e-01 -1.39628753e-01 5.14312983e-02
      -4.79816571e-02 -7.87387192e-02 4.13378887e-02 3.56954080e-03
      -6.96240887e-02 -7.79395700e-02 -1.76149800e-01 -4.67329808e-02
      -6.12675503e-05 4.87954132e-02 -1.25175724e-02 -6.60903379e-02
      3.13144028e-02 2.79799709e-03 -6.51096404e-02 -1.36159420e-01
      -5.28993681e-02 1.68787554e-01 8.67936835e-02 1.01679135e-02
      1.04389086e-01 8.73986036e-02 -2.78154779e-02 4.04373631e-02
      1.33635541e-02 7.38869235e-02 2.41953894e-01 1.55956581e-01
      1.06400408e-01 -4.10488360e-02 5.35375886e-02 4.64855134e-02
      7.71207139e-02 3.39222774e-02 5.83269596e-02 -3.69098279e-06
      7.02775782e-03 -8.72881431e-03 -2.55397111e-02 1.91601682e-02
      7.37580508e-02 4.76865284e-02 1.38802947e-02 -2.89200507e-02
      -9.63177383e-02 -2.89304014e-02 -4.92386967e-02 -3.28213423e-02
      -3.88039052e-02 3.92548516e-02 1.15603730e-01 8.84930640e-02
      3.71835567e-02 -1.94612890e-02 -6.60992265e-02 1.57616008e-02
      -2.75342353e-02 -1.30531741e-02 1.20516352e-01 1.04265258e-01
      1.41011188e-02 -1.01395249e-01 -8.84153321e-02 -6.44516721e-02
      -3.76721919e-02 6.69419765e-02 -1.42141348e-02 5.01845405e-02
      -7.38469476e-04 -4.56112139e-02 -3.19881104e-02 -4.84282859e-02
      3.32345925e-02 1.07728250e-01 -5.28406389e-02 -5.56911193e-02
      -2.33491194e-02 -8.45895037e-02 -3.89767089e-03 3.14288475e-02
      8.92394781e-02 4.37977873e-02 -2.47833915e-02 -8.49554539e-02
      4.05217055e-03 -1.75768480e-01 5.68126366e-02 -6.84368238e-02
      -5.44615984e-02 -7.30766803e-02 7.82085732e-02 3.98758240e-02
      3.58691178e-02 -7.06190392e-02 -8.21374878e-02 -3.65012921e-02
      -6.18612133e-02 -8.11985433e-02 -2.94516478e-02 4.81742108e-03
      -2.10646857e-02 -1.16961353e-01 1.70535594e-02 1.15429917e-02
      -1.46449089e-01 -7.15153739e-02 -1.81064811e-02 -5.18578738e-02
      -3.84846632e-03 -3.28194648e-02 -2.11324990e-02 -9.09318998e-02
      -1.10670246e-01 -3.93672176e-02 -1.98612418e-02 -4.20449562e-02
      1.59490798e-02 -2.62868777e-03 -9.18959826e-03 2.75292788e-02
      3.20428163e-02 4.31442149e-02 -1.68299466e-01 -1.60233483e-01
      -8.14952478e-02 -5.76147996e-02 7.61950538e-02 -1.10273033e-01
      6.28474774e-03 2.36809459e-02 -3.98343317e-02 -3.69375348e-02
      -9.99710038e-02 -2.65903678e-02 7.16839582e-02 9.35883150e-02
      -4.70132902e-02 3.34786400e-02 -1.54000428e-02 -1.71687491e-02</_></support_vectors>
  <decision_functions>
    <_>
      <sv_count>1</sv_count>
      <rho>-4.1598277544595890e+00</rho>
      <alpha>
        1.</alpha>
      <index>
        0</index></_></decision_functions></my_svm>
</opencv_storage>
