<?xml version="1.0"?>
<opencv_storage>
<my_svm type_id="opencv-ml-svm">
  <svm_type>C_SVC</svm_type>
  <kernel><type>LINEAR</type></kernel>
  <C>8.</C>
  <term_criteria><epsilon>1.1920928955078125e-07</epsilon>
    <iterations>1000</iterations></term_criteria>
  <var_all>1764</var_all>
  <var_count>1764</var_count>
  <class_count>2</class_count>
  <class_labels type_id="opencv-matrix">
    <rows>1</rows>
    <cols>2</cols>
    <dt>i</dt>
    <data>
      0 1</data></class_labels>
  <sv_total>1</sv_total>
  <support_vectors>
    <_>
      1.72236171e-02 3.24653573e-02 2.67136879e-02 6.93300143e-02
      1.16196148e-01 7.05890208e-02 3.00996937e-02 3.75858508e-02
      5.74435992e-03 7.53974989e-02 1.62682291e-02 -3.23352963e-02
      -5.23021147e-02 -8.75514895e-02 -1.01546422e-01 4.70425636e-02
      6.98282570e-02 7.28777722e-02 -7.57293254e-02 6.46097660e-02
      1.17549457e-01 1.23681068e-01 8.95533711e-02 1.89375933e-02
      -5.87021969e-02 -8.17281287e-03 -1.02261260e-01 -4.92852144e-02
      2.22458541e-02 1.04223192e-02 -1.98397804e-02 -9.47995484e-02
      -1.11580482e-02 2.97938678e-02 5.77507876e-02 -3.49942707e-02
      8.57956633e-02 -1.16095301e-02 -1.64378546e-02 -7.12174848e-02
      -2.85954475e-02 -2.27937419e-02 1.90608017e-02 4.11977768e-02
      1.10009454e-01 -8.36313069e-02 -7.59338140e-02 -2.30058189e-02
      -3.92358452e-02 5.50690852e-02 -4.99397935e-03 -1.06557971e-02
      -4.13000844e-02 -8.70036930e-02 7.52389729e-02 4.97222804e-02
      3.42962928e-02 -1.14224918e-01 -4.01760750e-02 -2.30564084e-02
      1.88535050e-04 3.05153541e-02 2.39117183e-02 -1.39502790e-02
      1.21935215e-02 7.99705237e-02 8.43061879e-03 -4.00258927e-03
      -5.73133975e-02 -9.22703370e-02 -6.72651976e-02 -1.23414308e-01
      -4.14029695e-02 -1.81793224e-03 2.86483346e-03 5.81976473e-02
      1.08306371e-01 3.57201844e-02 -4.23320755e-02 -1.19353145e-01
      -9.00191069e-02 7.90954530e-02 3.69120277e-02 5.84829859e-02
      2.58347746e-02 1.37631640e-01 -9.56704002e-03 -5.91879450e-02
      -1.32211745e-01 -9.97202322e-02 2.09723972e-02 5.01308888e-02
      1.16756588e-01 6.62497953e-02 6.37903363e-02 1.53095415e-02
      -7.05282539e-02 -1.13829859e-01 -9.51690376e-02 9.10726637e-02
      4.86359149e-02 2.43113618e-02 4.90397625e-02 7.15721622e-02
      -3.15919146e-02 -4.22925726e-02 -4.70469594e-02 -4.18147556e-02
      4.03115945e-03 6.78140856e-03 8.35798383e-02 2.82602031e-02
      1.16813928e-01 7.37609789e-02 -4.66503426e-02 -1.77592993e-01
      -1.27879128e-01 2.32452191e-02 5.56041673e-02 8.57585520e-02
      -1.74934138e-02 6.38676807e-02 6.90417662e-02 -5.79906860e-04
      -1.04860500e-01 -9.89238694e-02 4.56689531e-03 -2.44498309e-02
      -1.79158151e-02 2.66502495e-03 4.28561121e-02 4.42716368e-02
      2.02204101e-02 -1.82018615e-02 -6.30630851e-02 6.22489564e-02
      5.61245866e-02 1.02439433e-01 2.02188864e-02 3.36221904e-02
      8.75262246e-02 6.02567866e-02 -9.22044143e-02 -7.73121342e-02
      5.28264418e-02 5.09463213e-02 1.00539647e-01 1.34742213e-02
      3.48957931e-03 -5.13053685e-03 -1.11831218e-01 -6.98927194e-02
      -3.19395736e-02 9.37482268e-02 4.04627062e-02 1.06836163e-01
      4.85714898e-02 1.11341596e-01 3.54078524e-02 -4.05000113e-02
      -2.82728132e-02 2.20603719e-02 5.62928580e-02 1.41296135e-02
      7.10789785e-02 -7.45174102e-03 1.35938767e-02 3.33475061e-02
      -5.68472818e-02 -1.52129203e-01 -1.49510941e-02 8.54065865e-02
      -2.63179187e-02 4.03732620e-02 2.95830518e-02 1.24244625e-02
      -5.96506707e-02 -5.90622760e-02 -3.79185043e-02 4.48553674e-02
      1.14484802e-01 1.19222207e-02 -9.13638808e-03 -5.17209917e-02
      -6.12236671e-02 -2.85392185e-03 1.48145193e-02 -3.41786444e-03
      5.59538528e-02 -4.44909371e-03 6.73819974e-04 -1.61325354e-02
      -3.23107727e-02 -1.24038734e-01 2.08919570e-02 7.35304505e-02
      2.86032930e-02 -9.36385617e-03 9.45855454e-02 9.34409164e-03
      -1.79390311e-02 -1.87823866e-02 -7.25426972e-02 -9.11532193e-02
      -3.88728045e-02 2.24205200e-02 4.84861694e-02 5.01189083e-02
      5.45021221e-02 2.04716623e-02 -6.20681085e-02 -7.57224560e-02
      -1.27813183e-02 6.85071796e-02 3.38279493e-02 -1.40794097e-02
      -5.32150082e-02 4.24152706e-03 5.08266389e-02 -1.03306146e-02
      -1.21675551e-01 -8.61193112e-04 7.70259276e-02 1.33128306e-02
      -1.15278317e-02 -6.11325912e-02 2.47207750e-02 6.39328882e-02
      -6.19308874e-02 -3.86807462e-03 -2.14518178e-02 1.96841061e-02
      -2.95068342e-02 4.56951931e-03 3.73910851e-04 3.89366574e-03
      2.76022181e-02 -6.36099875e-02 6.82517746e-03 6.89463597e-03
      5.91096655e-02 -1.06509058e-02 -2.63276212e-02 -3.00374664e-02
      -8.94903019e-03 5.50127923e-02 -2.15048175e-02 8.73238668e-02
      -8.38689283e-02 -5.95785641e-05 -5.83818704e-02 -1.02690056e-01
      6.44370960e-03 4.79629226e-02 1.06374614e-01 5.58023080e-02
      7.52983540e-02 -2.56842095e-02 -6.14888370e-02 4.68492471e-02
      6.25564083e-02 4.59239893e-02 3.58880498e-02 2.71720067e-02
      -4.89637256e-02 -6.99583292e-02 1.80277526e-02 -1.93684902e-02
      7.79405534e-02 8.90701935e-02 -2.88402438e-02 2.33557504e-02
      2.20087282e-02 -4.52716015e-02 -5.18885581e-03 -3.57006933e-03
      -1.86601710e-02 7.00537041e-02 2.85829604e-02 -8.24463926e-03
      3.28541920e-02 -2.12465972e-02 -1.19735025e-01 -8.95858705e-02
      1.68328378e-02 1.15669761e-02 7.32500702e-02 5.11216745e-02
      4.96710911e-02 6.13531284e-02 2.48423256e-02 -7.43236914e-02
      -6.92597255e-02 -1.28024817e-02 -1.55562283e-02 1.53356763e-02
      1.08129242e-02 -3.03223915e-02 -1.03758173e-02 5.21336757e-02
      6.28979802e-02 -4.32001762e-02 -7.62050748e-02 -9.05248523e-02
      -6.10089302e-02 -4.78666574e-02 2.08858084e-02 -1.01416130e-02
      -1.16658406e-02 -7.24331290e-02 3.32145998e-03 5.20176515e-02
      9.20008402e-03 7.17825256e-03 4.70050611e-02 -6.78154677e-02
      -1.10265881e-01 -3.37616503e-02 -1.15885641e-02 3.43143493e-02
      2.02359501e-02 -7.21057728e-02 -5.29926196e-02 -4.89331484e-02
      5.41974157e-02 -2.62861438e-02 4.30589095e-02 9.57295671e-02
      2.18576919e-02 -8.64321017e-04 -5.23047969e-02 -1.04331180e-01
      -6.32370189e-02 1.08727239e-01 1.41368639e-02 -3.86698432e-02
      -9.60686058e-02 3.49237658e-02 -4.69240583e-02 -4.73826677e-02
      -1.60089154e-02 3.94330136e-02 3.41561576e-03 -1.17131241e-01
      -2.75793914e-02 1.10581154e-02 1.37066394e-02 6.04794584e-02
      -3.02193873e-02 8.38333199e-06 5.10831028e-02 1.13571823e-01
      5.77029325e-02 2.46186964e-02 -4.31982540e-02 8.11313279e-03
      3.90882930e-03 -2.25621350e-02 3.96082662e-02 1.40005216e-01
      7.00171068e-02 1.45891244e-02 3.83493789e-02 -7.06950724e-02
      9.63601284e-03 -2.36622319e-02 3.02564669e-02 4.58997376e-02
      4.63193059e-02 -8.18189885e-03 2.99557131e-02 9.34181362e-02
      -2.00019535e-02 6.79442361e-02 6.03238009e-02 6.54361546e-02
      -3.98486368e-02 -4.81565893e-02 6.03782125e-02 8.63478929e-02
      1.18784182e-01 -7.13451877e-02 -2.73408182e-02 -2.86915321e-02
      -4.44271490e-02 2.75027677e-02 7.37839118e-02 -4.23467159e-02
      7.49711916e-02 1.23377919e-01 1.83114465e-02 6.38916641e-02
      1.00484364e-01 -1.78147631e-03 -6.66761547e-02 -1.00885421e-01
      3.53175513e-02 -1.25501584e-03 -1.27525711e-02 -5.39946891e-02
      7.53056183e-02 3.70441638e-02 -3.39116976e-02 -1.16983518e-01
      -4.15248014e-02 8.93062726e-02 7.81098474e-03 -6.87197363e-03
      2.12021004e-02 6.26687631e-02 6.63708849e-03 -1.22660929e-02
      -1.38410740e-02 5.63461147e-02 -3.62506625e-03 3.86910476e-02
      8.57713893e-02 -3.81075754e-03 5.08817434e-02 -2.47014873e-02
      -1.02121547e-01 -1.63036570e-01 -1.32748067e-01 6.99253604e-02
      5.15093654e-02 9.31262597e-03 -5.18485680e-02 5.62716015e-02
      -6.55924752e-02 4.73071411e-02 -5.56331836e-02 2.34048776e-02
      9.47473105e-03 -1.75747648e-02 -1.64795369e-02 -2.30400148e-03
      -8.31976980e-02 -2.15318128e-02 2.52265390e-02 2.46103574e-02
      1.43920686e-02 -3.19571677e-03 5.27121350e-02 5.58521226e-02
      -5.19478619e-02 4.68078889e-02 1.94217470e-02 8.86820927e-02
      2.76563168e-02 -4.91619743e-02 5.20225056e-02 1.46250473e-02
      -1.96643788e-02 4.78156726e-04 -5.16396575e-02 1.97922532e-02
      7.06565604e-02 -1.87650416e-02 5.16544282e-02 6.74640313e-02
      4.40260880e-02 -3.00809499e-02 1.16707440e-02 4.93326932e-02
      5.66997193e-02 8.42045248e-02 1.71362907e-02 3.78011307e-03
      3.33904452e-03 -3.56058590e-02 -7.93911219e-02 -3.90852615e-02
      4.34024334e-02 -8.48562573e-04 7.41926506e-02 -7.55569264e-02
      -6.86432496e-02 -1.03005588e-01 -4.12179828e-02 1.52790910e-02
      -1.18348747e-02 1.55153051e-01 -1.20395921e-01 -5.90304285e-02
      -7.99292699e-02 -1.51405692e-01 5.81115969e-02 -6.18130947e-03
      7.76954601e-03 2.32726540e-02 1.43590942e-01 -1.22585557e-02
      6.33193925e-02 -4.45032157e-02 -6.58065528e-02 5.51900007e-02
      -5.63137196e-02 -6.94914209e-03 -6.12188503e-02 1.00993894e-01
      -5.38406074e-02 1.45328548e-02 -3.20999250e-02 5.49157746e-02
      -9.48473737e-02 2.88095847e-02 3.01022772e-02 -3.93511815e-04
      5.20960353e-02 4.87546958e-02 3.27750333e-02 5.89053370e-02
      -6.72710612e-02 1.08030485e-02 1.30769508e-02 4.71030548e-02
      -9.59102809e-02 9.27776855e-04 1.35031506e-01 1.00715697e-01
      8.74843597e-02 4.92732003e-02 -1.43052489e-01 4.67802994e-02
      2.68471278e-02 1.15321958e-02 7.83723965e-02 6.73125759e-02
      4.27307002e-02 2.16015186e-02 -1.27000242e-01 -8.60086381e-02
      4.18541953e-02 1.14611201e-02 -7.27209225e-02 4.59260903e-02
      9.46155265e-02 1.08029097e-01 1.51517065e-02 3.82784232e-02
      4.78144586e-02 -3.82925868e-02 -1.33225964e-02 -1.30470902e-01
      2.21303012e-02 8.88008997e-02 4.32884470e-02 4.79147881e-02
      1.08547471e-01 -4.91187535e-02 -1.02669746e-01 -4.39392515e-02
      -9.02382061e-02 7.39590749e-02 1.25689059e-01 -2.62972992e-03
      -1.49051556e-02 -6.63948059e-03 -1.51960300e-02 -2.77401246e-02
      -4.86451089e-02 -1.17794335e-01 4.68522087e-02 1.89113878e-02
      3.98219675e-02 5.10178283e-02 1.08293407e-01 4.10782313e-03
      -4.71466035e-02 -4.01446922e-03 -9.94273648e-02 1.09718509e-01
      1.50851309e-02 4.49036211e-02 -6.73224684e-03 3.15805860e-02
      -1.48931900e-02 -2.17508208e-02 -2.98315007e-02 -3.63313034e-02
      -3.30422223e-02 7.26395175e-02 6.76366780e-03 -2.51807887e-02
      4.66491990e-02 1.11009635e-01 6.29189461e-02 -2.30468903e-02
      -4.80080657e-02 -2.89888214e-02 -2.94696279e-02 -9.05563030e-03
      -1.25952177e-02 8.43017921e-02 1.71050280e-02 3.61970253e-02
      3.44208628e-02 9.73479263e-03 -2.74231043e-02 -2.10316218e-02
      4.39500697e-02 -1.91344470e-02 4.62986752e-02 4.95882444e-02
      9.45796594e-02 2.34803930e-02 6.69888174e-03 -7.17321783e-02
      -1.66045986e-02 6.43777177e-02 2.45288573e-02 6.94800913e-02
      5.82549050e-02 2.82284636e-02 2.16444843e-02 -2.69600917e-02
      -5.14445268e-02 -1.23004615e-02 -3.29372659e-02 -3.04634348e-02
      2.58999504e-02 7.81698618e-03 5.95563371e-03 9.30552781e-02
      2.03974303e-02 4.02970277e-02 5.65667525e-02 -3.87129113e-02
      -7.41996318e-02 -6.76866472e-02 7.36854970e-03 4.17915592e-03
      6.34271950e-02 3.57264839e-02 -8.60037133e-02 -3.01817944e-03
      3.27986688e-03 3.50435227e-02 9.71742533e-03 -4.55936119e-02
      -1.95729304e-02 -3.93219432e-03 5.75937815e-02 1.00431688e-01
      1.21151097e-02 1.88331287e-02 1.32927084e-02 -5.69833592e-02
      2.72737443e-02 1.94176026e-02 3.71749736e-02 -4.76800613e-02
      4.18244228e-02 -2.37452686e-02 -8.55701789e-02 -9.71951783e-02
      -5.77770136e-02 5.99946566e-02 7.18741938e-02 3.52003388e-02
      -8.12850446e-02 2.38662716e-02 -3.81573662e-02 -7.56207108e-03
      -4.90123965e-02 5.29133566e-02 -1.12914614e-01 -3.95919122e-02
      -7.33507350e-02 -1.46823358e-02 1.01465672e-01 1.62503757e-02
      -2.47885305e-02 -2.60611326e-02 -6.48432001e-02 6.16884371e-03
      4.83260443e-03 -3.33626904e-02 -6.07194193e-02 5.10267317e-02
      9.28086694e-03 -3.32235955e-02 8.44463147e-03 4.00285684e-02
      7.09966347e-02 6.16895705e-02 -2.71231495e-02 -7.83371180e-02
      -6.30749017e-02 2.44350079e-02 2.60462053e-02 -2.97368877e-02
      3.77835706e-02 8.95022377e-02 5.42455316e-02 -2.94281207e-02
      -4.51217890e-02 -4.71861400e-02 4.47164066e-02 3.42339948e-02
      7.40324846e-03 3.91895287e-02 8.09720084e-02 4.09832485e-02
      -9.17917714e-02 -9.53080282e-02 -7.52588138e-02 -3.75998276e-03
      -2.74619646e-02 9.47831757e-03 3.57526578e-02 -3.13877389e-02
      4.55457121e-02 3.87455001e-02 -6.01746738e-02 -1.27316415e-01
      1.72452778e-02 -2.87318844e-02 7.37463683e-02 -2.68957186e-02
      5.99056408e-02 -5.48896231e-02 -1.74794625e-02 1.46741187e-02
      2.37829387e-02 4.98876255e-03 1.67003982e-02 -5.41244596e-02
      2.33442914e-02 6.92265704e-02 -6.28116280e-02 -3.69416404e-04
      -5.86230755e-02 4.64528278e-02 1.49095635e-04 4.72096540e-03
      -3.73607278e-02 5.70834130e-02 -8.32931250e-02 -2.28015874e-02
      1.95145868e-02 1.19795101e-02 -1.21309988e-01 -1.50167467e-02
      -5.08681349e-02 -2.43073460e-02 -3.56274843e-02 4.48481031e-02
      -3.52794230e-02 -4.47410718e-02 -4.53359373e-02 6.89624920e-02
      4.78416830e-02 1.29011786e-02 -3.69997323e-02 5.69780022e-02
      -1.46649808e-01 4.67668613e-03 7.12038204e-02 7.23389164e-02
      1.44493222e-01 1.12778939e-01 5.13141491e-02 3.15500535e-02
      -1.13118365e-01 -3.64225078e-03 4.21995372e-02 4.67202812e-02
      5.35089383e-03 1.72953308e-02 4.36404832e-02 2.80963685e-02
      2.26744544e-02 1.90387890e-02 -1.87421352e-01 -2.72492878e-02
      7.78976679e-02 7.35732019e-02 7.17849731e-02 1.04521692e-01
      -1.03751913e-01 -5.14794420e-03 -1.61659464e-01 -3.67328362e-03
      1.01380236e-02 6.97695613e-02 -1.22534722e-01 -1.31213730e-02
      -7.08051026e-02 5.01432419e-02 1.49158742e-02 1.10833235e-02
      8.11474472e-02 2.96200886e-02 2.12048851e-02 -4.49318029e-02
      -6.10188441e-03 -5.82535379e-02 -1.88174676e-02 1.02132671e-02
      7.26497471e-02 6.78505749e-02 8.20481852e-02 6.66185617e-02
      -4.03051600e-02 1.22205224e-02 -9.48732570e-02 -3.53128165e-02
      -2.43671760e-02 4.50441614e-02 9.02089775e-02 -2.84356577e-03
      1.73531305e-02 -1.15115434e-01 3.56251560e-02 -1.29652768e-01
      -1.66078203e-03 -1.35403126e-02 9.69737396e-02 6.08635619e-02
      2.49630604e-02 -3.98517307e-03 -1.32463545e-01 -4.61082906e-02
      -8.81944820e-02 -1.00352786e-01 -5.47703467e-02 2.91371346e-02
      4.71931919e-02 1.00859284e-01 6.67613149e-02 5.56079037e-02
      -6.52620867e-02 -8.66941735e-02 -1.57519523e-03 -9.90473665e-03
      3.36233191e-02 6.45217523e-02 1.04354210e-01 7.68206492e-02
      -5.03566861e-02 -1.01410665e-01 -3.47832069e-02 5.65191656e-02
      4.36334759e-02 8.39434490e-02 2.85048094e-02 -4.30943118e-03
      -5.81032969e-02 -9.07540023e-02 -1.51191130e-01 -4.29900177e-02
      -2.20800340e-02 -2.05126479e-02 2.59671696e-02 -3.57254371e-02
      9.52216238e-03 -5.63139655e-03 -1.06171869e-01 -1.26165763e-01
      -1.75512061e-02 9.71470773e-02 -8.07462912e-03 -2.13655960e-02
      2.81642005e-02 4.71908152e-02 4.41996567e-02 -2.28265710e-02
      -5.06782383e-02 -1.57275014e-02 -8.86401813e-03 7.61111034e-03
      3.99999805e-02 -2.21268367e-02 -9.92272981e-03 -2.64380313e-02
      9.01553873e-03 5.44447005e-02 1.14756599e-02 4.39347029e-02
      3.67038772e-02 -2.86712922e-04 -6.71345294e-02 -3.25965509e-02
      -7.35939369e-02 -3.98010388e-02 -1.18634216e-01 -3.81955970e-03
      5.14311381e-02 -8.37570149e-03 -5.20551018e-02 -3.20570469e-02
      -4.52206936e-03 -4.14312594e-02 -1.17810667e-02 3.37161981e-02
      -1.34482188e-02 2.07589362e-02 2.11838447e-02 -3.34357917e-02
      -5.44034205e-02 -1.86871402e-02 -2.85714492e-02 9.29623283e-03
      4.81260307e-02 2.03284677e-02 -2.41289604e-02 -3.13718393e-02
      -7.86779076e-03 4.15561870e-02 -7.07819238e-02 -3.75155471e-02
      -1.25602866e-02 6.48755059e-02 -6.12199940e-02 -1.04576670e-01
      1.72020250e-03 3.58687080e-02 -6.99005798e-02 -3.69056053e-02
      -4.50799987e-02 6.40857294e-02 8.91395733e-02 6.36947751e-02
      -1.67179368e-02 -7.49341324e-02 -3.96004170e-02 -3.43154483e-02
      -7.42576644e-02 -3.75915319e-02 -2.14138143e-02 3.77053246e-02
      -8.22727531e-02 -1.44013271e-01 -7.31107220e-02 1.77857224e-02
      1.34191796e-01 -1.99957192e-02 -8.07750970e-02 -7.45789036e-02
      -8.66161194e-03 -7.74423033e-02 -7.73461759e-02 2.24074256e-02
      8.38618055e-02 3.44864279e-02 9.47921071e-03 2.18059756e-02
      -7.89355338e-02 2.58041918e-03 -1.82877984e-02 -2.78049409e-02
      1.14494219e-01 6.74006492e-02 -5.96215669e-03 -5.15594296e-02
      1.38641673e-03 -2.97481865e-02 -5.36550321e-02 -1.45873815e-01
      -1.64817542e-01 -8.39110240e-02 -5.73457545e-03 -1.57988369e-02
      -7.96209369e-03 6.33288324e-02 -1.11632226e-02 9.93044116e-03
      -2.15188437e-03 -9.44573879e-02 -4.45369743e-02 -1.21426992e-01
      -3.60642411e-02 -7.91010447e-03 -1.80549864e-02 -4.48450223e-02
      2.61243265e-02 -9.78822354e-03 -1.69529766e-02 1.52183315e-02
      1.48804029e-02 -1.97432470e-02 -3.37198824e-02 -7.25168437e-02
      -7.02356324e-02 7.24796671e-03 1.14171833e-01 2.55368538e-02
      7.52173504e-03 8.48644506e-03 -4.05937955e-02 -5.47785945e-02
      -2.26981230e-02 -7.98274279e-02 1.06119290e-02 5.42004742e-02
      -3.01898271e-02 -5.25596254e-02 -1.11313112e-01 -4.43456806e-02
      -3.25408913e-02 -1.10585131e-01 -2.81503201e-02 2.38417368e-02
      6.00869283e-02 -1.09001519e-02 -5.45508415e-02 -5.92411645e-02
      -1.32816359e-01 -1.51714683e-03 4.43335949e-03 1.13942340e-01
      6.46922812e-02 4.42354344e-02 -5.25719449e-02 -1.82073191e-02
      -1.61560372e-01 5.50845750e-02 3.70185301e-02 6.84929937e-02
      -1.28476411e-01 -7.69393519e-02 -3.95200253e-02 3.38926502e-02
      9.53003298e-03 5.68545461e-02 -1.32775148e-02 6.75417334e-02
      4.64985222e-02 1.62816450e-01 -6.46934239e-03 5.82780279e-02
      -2.90601421e-03 -6.49695098e-02 -5.97052388e-02 1.01812012e-01
      1.19302392e-01 1.36747390e-01 -4.61682416e-02 -6.88575655e-02
      -3.92991714e-02 5.16150671e-04 -1.93070259e-03 1.29442230e-01
      8.40321630e-02 -2.07407940e-02 -5.73163480e-03 -1.02471933e-01
      -9.78123210e-03 -2.81485599e-02 -3.42553221e-02 -1.16107259e-02
      1.36999309e-01 7.94472024e-02 7.32533121e-03 -3.93206961e-02
      -1.31062850e-01 -8.89136791e-02 2.59874910e-02 -5.58718704e-02
      -1.79376323e-02 8.84260833e-02 1.25730976e-01 5.15615977e-02
      2.93252692e-02 -4.80018817e-02 -2.17191484e-02 -7.20662549e-02
      -4.88273427e-02 -3.70969139e-02 1.29277989e-01 4.78447676e-02
      5.80109842e-02 1.22693097e-02 -6.15790859e-02 -3.64435487e-03
      -6.34210557e-02 4.69669048e-03 -2.07338780e-02 5.66224679e-02
      6.34253547e-02 -5.44994837e-03 -9.10905600e-02 -1.29440710e-01
      -1.53315142e-01 3.35823633e-02 -3.11155478e-03 -8.75008851e-03
      5.48130758e-02 -1.18448706e-02 -4.88271266e-02 -5.03111258e-02
      -8.39933902e-02 -9.13299844e-02 9.39052086e-03 3.74224149e-02
      1.80022325e-02 -2.03247424e-02 3.74856815e-02 2.55156569e-02
      -1.39378421e-02 -4.42799069e-02 -2.81575043e-02 -2.30856203e-02
      3.10475845e-02 -5.44454018e-03 3.35215107e-02 1.90770719e-02
      9.34162550e-03 -4.79792319e-02 -1.05421670e-01 -3.57208848e-02
      -8.24386552e-02 -6.60860911e-02 1.45146372e-02 -5.12112305e-03
      -9.11785066e-02 -6.67857006e-02 -2.85072587e-02 4.85356152e-02
      -9.98064429e-02 2.79604122e-02 4.55095135e-02 -1.93649549e-02
      -6.14175983e-02 -2.52029300e-02 -4.60560666e-03 4.07529324e-02
      4.98519316e-02 1.43296598e-02 4.80429158e-02 7.34995306e-02
      1.50467725e-02 -5.30676208e-02 -1.53643237e-02 -6.34763241e-02
      -2.10247543e-02 2.24038679e-02 1.49990637e-02 -9.02164914e-03
      -5.59914485e-02 3.02750822e-02 -1.90515164e-02 4.53647673e-02
      4.45191003e-02 4.23288010e-02 5.59196882e-02 2.67950185e-02
      1.39764827e-02 9.80067328e-02 5.67389987e-02 4.49394956e-02
      -1.08985804e-01 -1.13479972e-01 -4.74262089e-02 1.04268659e-02
      6.91617355e-02 1.02174729e-01 4.27207686e-02 -3.74120995e-02
      -7.04707727e-02 -9.24077034e-02 -1.11492895e-01 -8.86800978e-03
      -3.19853332e-03 3.96317765e-02 4.22471315e-02 -1.61683619e-01
      -7.03870133e-02 -4.16474007e-02 1.27850398e-02 -3.40123661e-02
      9.19764675e-03 4.75004017e-02 2.20897179e-02 2.36466099e-02
      6.61110282e-02 4.74382378e-02 3.20079476e-02 6.73904717e-02
      1.29704666e-03 9.13272426e-03 6.97659478e-02 -2.25476623e-02
      3.09669646e-03 -1.49007933e-02 3.73719595e-02 8.37865286e-03
      -6.04372807e-02 -6.69165030e-02 -9.71628260e-03 -2.22059451e-02
      -2.25706883e-02 -5.79589121e-02 -7.99100399e-02 -9.05672759e-02
      -8.05640519e-02 -4.59063053e-02 -3.78318690e-02 -9.76364128e-03
      1.70858223e-02 9.69425738e-02 2.92975735e-02 -1.15145490e-01
      -1.19755082e-01 -1.68238565e-01 4.36345637e-02 -1.60414688e-02
      -2.75375266e-02 1.33485552e-02 2.23956183e-02 1.82181299e-02
      2.22143456e-02 -1.41622145e-02 -4.78220023e-02 -2.28153486e-02
      4.22337763e-02 -5.69667146e-02 -3.24838832e-02 4.86603640e-02
      -1.55525072e-03 -6.48522899e-02 -6.57286271e-02 -1.14988081e-01
      3.97186028e-03 -2.97057275e-02 -1.81041844e-02 -2.56955009e-02
      6.24887794e-02 3.92102562e-02 -7.75166377e-02 -8.71535912e-02
      -8.24502856e-02 1.52379656e-02 -8.13090056e-03 -3.48066613e-02
      -2.70939786e-02 6.53835908e-02 -5.04631773e-02 -9.40055102e-02
      -5.12163900e-02 -4.14813031e-03 -1.86187178e-02 2.86988150e-02
      7.05551403e-03 -3.52548100e-02 -2.38501187e-02 -5.37149496e-02
      -1.17300175e-01 -6.62155226e-02 -2.91152969e-02 -5.58855794e-02
      -9.42691565e-02 -2.33350210e-02 2.44899117e-03 -3.57909733e-03
      -2.73028500e-02 -3.54520269e-02 -1.71177220e-02 -3.61844450e-02
      6.94038160e-03 3.07061654e-02 6.85628578e-02 1.08819619e-01
      3.42661962e-02 4.21907082e-02 -8.09478089e-02 -4.78629731e-02
      -1.30618196e-02 9.47069302e-02 7.70478472e-02 1.21486858e-01
      -1.14186853e-02 -4.69680615e-02 -1.73510492e-01 -9.35660079e-02
      -3.87582816e-02 9.76725072e-02 -2.98951194e-03 4.65641078e-03
      3.70124206e-02 6.86159581e-02 -9.73322764e-02 2.00951416e-02
      -4.47811522e-02 1.63755231e-02 2.78532878e-02 6.76368847e-02
      4.71397080e-02 9.43439677e-02 -4.44426350e-02 -3.92846465e-02
      -1.92840531e-01 -1.04148835e-01 -5.97548205e-03 7.35121593e-02
      9.46708694e-02 5.45707606e-02 6.60453811e-02 2.81675979e-02
      -1.21022454e-02 -1.38506860e-01 -1.38174891e-01 -3.90949547e-02
      9.66496319e-02 5.43192178e-02 7.28272051e-02 2.75242869e-02
      2.68099178e-03 1.52399195e-02 -4.66486551e-02 -4.26090993e-02
      -3.51413116e-02 5.58316596e-02 -7.40116313e-02 1.11074764e-02
      9.74252075e-02 5.95747232e-02 -7.00884673e-04 -1.22406587e-01
      -6.43255711e-02 2.24016793e-02 -2.02356298e-02 -2.55705714e-02
      -4.33208793e-03 3.69874947e-02 -6.59171608e-04 4.15372029e-02
      -1.69122275e-02 -5.18876389e-02 2.24404689e-03 3.09652202e-02
      3.82799730e-02 2.69148294e-02 2.27657109e-02 4.04428467e-02
      2.93104406e-02 2.73844530e-03 -2.90290602e-02 -7.51085533e-03
      5.39912693e-02 -2.77884491e-03 -2.15117969e-02 -2.86359992e-02
      -3.39537561e-02 8.04053620e-02 -6.89293519e-02 -7.57072717e-02
      -1.23448838e-02 2.39640605e-02 -4.07799613e-04 -5.28163917e-04
      -2.70741433e-02 6.02797568e-02 5.85629642e-02 3.67603861e-02
      1.31779797e-02 2.95819938e-02 4.89304513e-02 -2.50674579e-02
      -3.19671556e-02 -3.72205265e-02 1.20094605e-02 3.84831540e-02
      -3.01467441e-02 4.03891876e-02 2.18320303e-02 8.79322644e-04
      -1.69130936e-02 -5.07719219e-02 -3.00776567e-02 -1.97944287e-02
      2.26911604e-02 2.36328202e-03 -2.21260414e-02 6.09374680e-02
      6.02666009e-03 1.36042284e-02 2.55203266e-02 3.86189334e-02
      6.29811585e-02 -2.06235815e-02 4.66831885e-02 6.11716136e-02
      5.35507463e-02 -1.55995619e-02 3.13818268e-02 -6.16602786e-02
      -1.73603427e-02 -3.94225977e-02 -1.09503651e-02 -2.60562859e-02
      4.24091667e-02 4.38613631e-02 2.10554097e-02 -1.38658215e-03
      -4.74795327e-02 -6.42608898e-03 4.17534960e-03 8.86608963e-04
      1.15019411e-01 7.61108547e-02 2.77507063e-02 -1.04927141e-02
      1.91711783e-02 9.36796982e-03 1.90149266e-02 1.29216462e-02
      1.80701036e-02 -1.84657332e-02 5.66402525e-02 3.00021507e-02
      -1.89636387e-02 4.89278995e-02 3.85167897e-02 2.78541893e-02
      6.52896091e-02 -1.17030684e-02 -2.85136960e-02 2.79960595e-02
      3.96768339e-02 -3.63317057e-02 -4.99941632e-02 -5.51323183e-02
      -8.09781551e-02 1.47376070e-02 6.54707523e-03 6.06947988e-02
      5.92302829e-02 -2.41443198e-02 -6.12092689e-02 -1.08271852e-01
      -7.16179758e-02 -1.32425472e-01 -2.74159256e-02 2.40488313e-02
      5.15535772e-02 6.15688823e-02 3.99375185e-02 -1.01428330e-01
      1.74127724e-02 2.60970299e-03 -4.37860154e-02 -6.83491956e-03
      -5.64748421e-02 2.43168022e-03 5.14398366e-02 3.82857732e-02
      -1.93114057e-02 1.90681666e-02 2.96051577e-02 -6.87576085e-03
      -5.15571199e-02 -4.05649468e-02 -6.56347498e-02 -2.75251959e-02
      4.64564487e-02 1.84124894e-02 -7.65707046e-02 -2.92581506e-02
      -7.58653730e-02 -1.09130114e-01 -1.06611669e-01 2.86685806e-02
      7.44064152e-02 4.21997719e-02 -5.78101762e-02 -1.79859661e-02
      -9.54768807e-03 3.31470296e-02 -7.70850182e-02 -6.70257211e-02
      -1.74236260e-02 -3.97962891e-02 -9.90675613e-02 -5.10978252e-02
      -3.79409194e-02 8.32504258e-02 9.15237814e-02 2.79074479e-02
      -2.35788375e-02 -1.33487899e-02 1.25878006e-02 2.45382953e-02
      -4.01417492e-04 -6.78866580e-02 -6.12728521e-02 4.97853756e-02
      3.53649491e-03 6.25993079e-03 1.68182682e-02 9.29062366e-02
      6.80792034e-02 -6.05861545e-02 5.67834359e-04 9.70636960e-03
      6.43480569e-02 4.62009246e-03 -1.13495318e-02 -3.57177071e-02
      -7.50493333e-02 -8.18388164e-02 7.24837184e-03 -6.95037423e-03
      -5.89966215e-02 3.56400646e-02 9.64485295e-03 5.01152128e-02
      -6.82365596e-02 -7.71120116e-02 -5.41939922e-02 1.45164859e-02
      3.53601016e-02 1.01185543e-02 1.56380069e-02 4.21654396e-02
      -9.75093767e-02 -2.39060987e-02 9.91043821e-03 6.43606018e-03
      8.74824896e-02 6.89077228e-02 5.07760607e-02 3.45447920e-02
      -4.25881967e-02 -4.15525101e-02 -1.32765085e-01 -5.84071800e-02
      -1.91320684e-02 5.49852885e-02 -1.04496054e-01 -4.53855358e-02
      -5.58242155e-03 3.27232992e-03 -1.27789885e-01 -1.66490208e-02
      5.27341366e-02 -9.41226631e-03 -7.50364438e-02 -6.04046285e-02
      -8.53494508e-04 2.95160078e-02 -1.26790673e-01 -7.24122748e-02
      -1.37436658e-01 -4.05330919e-02 -1.68755688e-02 -4.42419201e-02
      1.56571157e-02 1.87687147e-02 8.92044697e-03 -4.59811464e-02
      -5.17050661e-02 -5.23206554e-02 -4.77073118e-02 1.50645263e-02
      3.35987806e-02 1.60481199e-03 -3.94064002e-02 -4.14684191e-02
      -3.82347554e-02 -5.60623175e-03 -1.87704135e-02 -2.23644301e-02
      1.60573088e-02 4.56162356e-02 -1.02945203e-02 2.36709639e-02
      6.14786521e-02 -4.81947474e-02 -3.33244875e-02 -5.21733835e-02
      -1.10206716e-01 -7.38926232e-02 -3.38081606e-02 2.94774491e-02
      -5.83584495e-02 -2.61023603e-02 -3.54835913e-02 3.54133435e-02
      -4.03815927e-03 -1.09682307e-01 -7.08799586e-02 -2.46079974e-02
      2.18268298e-02 -6.45913333e-02 -5.22143133e-02 4.37084511e-02
      5.48593737e-02 2.62885112e-02 2.83591580e-02 3.22992392e-02
      7.39532486e-02 -3.08894385e-02 -6.66783601e-02 -5.68267107e-02
      1.09565658e-02 -2.34053703e-03 -4.19481061e-02 8.30456167e-02
      1.80640221e-02 6.97909072e-02 3.20667699e-02 -1.49236754e-01
      -3.58554982e-02 7.86651075e-02 1.06309570e-01 -2.19011568e-02
      -4.80087623e-02 -4.17406075e-02 3.56119871e-02 -2.08457606e-03
      -1.72593653e-01 -2.41613835e-02 6.82645962e-02 -1.70826912e-02
      -3.72893438e-02 5.12312865e-03 -4.33617756e-02 5.53339869e-02
      -9.63681471e-03 -8.07769299e-02 -1.76535193e-02 -7.31728375e-02
      -1.33381456e-01 -5.78903370e-02 8.24059099e-02 4.42009643e-02
      6.71877116e-02 1.00625241e-02 -9.86375511e-02 -6.69579953e-02
      -2.96439026e-02 -4.28000167e-02 8.90464634e-02 1.15914553e-01
      9.55322981e-02 5.58317825e-02 -2.33026315e-02 -1.24560013e-01
      -1.78651381e-02 3.53547856e-02 -4.21263352e-02 -8.82080663e-03
      -1.50368148e-02 1.29294302e-02 6.17202818e-02 -1.48818092e-02
      -1.50958434e-01 6.39339676e-03 9.52141806e-02 -4.53609750e-02
      5.96939027e-02 1.31869838e-01 1.30243748e-01 4.63421121e-02
      -1.33547470e-01 -1.74567804e-01 -1.27853841e-01 2.20521279e-02
      6.35574758e-02 5.02426699e-02 4.56250273e-02 -1.15259922e-04
      -1.04920156e-01 -1.22243471e-01 -1.41923994e-01 -1.31104827e-01
      -4.27068360e-02 3.39964367e-02 -9.01177805e-03 3.25186364e-02
      4.23869863e-03 -7.71378651e-02 -3.69527675e-02 -1.75701544e-01
      -1.15343640e-02 7.15888515e-02 3.31413485e-02 5.27285114e-02
      7.11360946e-02 7.66455978e-02 -5.46587408e-02 5.74946180e-02
      -6.08826317e-02 -1.31184738e-02 5.26466640e-03 5.89551963e-02
      -9.46335401e-03 1.33007234e-02 7.91723877e-02 7.83196166e-02
      8.85631423e-03 2.99487393e-02 -3.78887206e-02 -5.13432138e-02
      -8.82322900e-03 1.03670815e-02 2.83874143e-02 3.11560114e-03
      3.11399903e-02 -5.66394208e-03 4.59956080e-02 -2.29950366e-03
      -3.73084322e-02 -5.89804091e-02 2.47410461e-02 -6.21124133e-02
      -1.01834416e-01 -6.28748909e-03 6.14023916e-02 2.89720879e-03
      -3.45011614e-02 2.99998876e-02 -2.30933609e-03 -3.69553044e-02
      -7.99435377e-02 2.33886112e-02 8.49233493e-02 -6.08146898e-02
      -3.75625268e-02 -9.15081333e-03 -1.61128640e-02 1.86929163e-02
      1.80416333e-03 -1.14660099e-01 -4.26099375e-02 -8.02282169e-02
      -1.80088002e-02 1.83802713e-02 3.49455886e-02 -2.03631427e-02
      2.42791399e-02 1.80021860e-02 -1.72552001e-02 -2.40457505e-02
      1.92323308e-02 -9.35534909e-02 -4.66170721e-02 3.57950367e-02
      2.06084922e-02 4.88637350e-02 -1.08863547e-01 -1.02556117e-01
      -5.13478741e-02 -1.20677613e-01 -1.43490359e-01 -3.49282809e-02
      1.26656494e-03 -7.34594241e-02 7.56771639e-02 5.46911396e-02
      -4.33077626e-02 3.68127115e-02 -1.14517160e-01 -1.26996607e-01
      -7.35096186e-02 -3.53621431e-02 -6.97247460e-02 6.31993636e-02
      -3.81758921e-02 -3.75890955e-02 3.10458187e-02 -8.65435153e-02</_></support_vectors>
  <decision_functions>
    <_>
      <sv_count>1</sv_count>
      <rho>-2.2841097316811019e+00</rho>
      <alpha>
        1.</alpha>
      <index>
        0</index></_></decision_functions></my_svm>
</opencv_storage>
