<?xml version="1.0"?>
<opencv_storage>
<my_svm type_id="opencv-ml-svm">
  <svm_type>C_SVC</svm_type>
  <kernel><type>LINEAR</type></kernel>
  <C>8.</C>
  <term_criteria><epsilon>1.1920928955078125e-07</epsilon>
    <iterations>1000</iterations></term_criteria>
  <var_all>1764</var_all>
  <var_count>1764</var_count>
  <class_count>2</class_count>
  <class_labels type_id="opencv-matrix">
    <rows>1</rows>
    <cols>2</cols>
    <dt>i</dt>
    <data>
      0 1</data></class_labels>
  <sv_total>1</sv_total>
  <support_vectors>
    <_>
      -1.06247820e-01 -3.05338725e-02 5.98742329e-02 5.68082258e-02
      2.33959675e-01 4.41506244e-02 4.30519097e-02 1.07538119e-01
      -5.38356863e-02 -4.06109542e-02 -4.60070409e-02 -8.32564980e-02
      -1.51641637e-01 -8.03518146e-02 -7.71171004e-02 2.89312284e-02
      2.15741135e-02 2.45355703e-02 -2.56820321e-01 1.08766044e-03
      8.62829909e-02 -9.71842965e-04 2.38081828e-01 1.26500085e-01
      -4.36028838e-02 6.97050244e-02 -1.22449383e-01 -2.06658170e-01
      -1.03745058e-01 -1.64544734e-03 -1.27118170e-01 -6.43371567e-02
      4.90336828e-02 5.37489243e-02 1.05481260e-01 -1.41155258e-01
      7.41347447e-02 4.37992066e-02 -3.95632312e-02 -2.05966815e-01
      -6.32490292e-02 6.57624453e-02 6.24240190e-02 -4.00060825e-02
      7.17328638e-02 -4.37304825e-02 -8.40974525e-02 -7.66631961e-02
      -2.12564483e-01 8.21825396e-03 -1.89144723e-02 -1.12904450e-02
      -1.49811685e-01 -1.14373766e-01 5.88014547e-04 4.38227970e-03
      4.45140526e-02 -2.60184348e-01 -1.85237899e-01 -4.09104750e-02
      8.84999707e-02 6.59780353e-02 -7.25367814e-02 1.72199700e-02
      2.71412288e-03 1.08864093e-02 -1.19469926e-01 -2.38057189e-02
      -1.19873412e-01 -2.04687297e-01 -1.75856888e-01 -1.80976570e-01
      2.77809910e-02 -1.18067712e-02 -2.34242924e-03 5.98815382e-02
      1.58791095e-01 1.27743278e-03 -1.28778920e-01 -1.51224002e-01
      4.34833243e-02 1.15695365e-01 -1.17927538e-02 1.84194129e-02
      1.17490418e-01 1.56355917e-01 4.98132838e-04 -1.68994844e-01
      -1.67286485e-01 1.30136777e-02 -1.27819106e-02 2.56587937e-02
      6.29221424e-02 1.29004717e-01 4.82791215e-02 -3.63617912e-02
      -1.81157514e-01 -1.65851802e-01 -1.45377919e-01 -2.19520112e-03
      -9.53759700e-02 1.10526364e-02 -8.95568430e-02 -1.20618707e-02
      -1.54585158e-03 1.89332757e-02 -6.09114990e-02 9.55928788e-02
      -2.10143602e-03 -9.48264152e-02 -6.26644865e-02 3.79056931e-02
      2.15485737e-01 1.33270755e-01 -1.09321304e-01 -2.47712508e-01
      -1.31262079e-01 -1.93205271e-02 2.91203316e-02 6.20944276e-02
      1.49510410e-02 1.43445328e-01 4.90519106e-02 2.04604678e-02
      -2.03370854e-01 -2.16848403e-01 -3.93684814e-03 -1.05884604e-01
      -4.96844836e-02 -8.42598677e-02 3.51166502e-02 6.64802939e-02
      2.42086127e-02 -1.22879324e-02 -1.37798097e-02 6.24316512e-03
      1.29026935e-01 1.00662552e-01 -4.16147076e-02 2.42732167e-02
      -1.23961670e-02 8.16262811e-02 -5.20245209e-02 -9.79059041e-02
      1.28742442e-01 1.25136182e-01 7.17944801e-02 2.73533259e-02
      3.35608684e-02 -1.03639580e-01 -8.92724842e-03 -1.52363032e-01
      -1.50531024e-01 1.97505027e-01 5.38507737e-02 1.03923686e-01
      1.05970331e-01 1.06462874e-01 -6.84348121e-02 -2.12695807e-01
      -6.37725666e-02 3.55872996e-02 -1.61810648e-02 5.45631759e-02
      4.40785959e-02 -7.65328482e-02 3.98723818e-02 -1.29294515e-01
      6.18377216e-02 -2.55986769e-02 3.05638351e-02 6.55184835e-02
      -7.37415105e-02 4.54291664e-02 -3.18155177e-02 -2.11683791e-02
      -1.11307912e-02 2.39819195e-02 5.17251194e-02 1.39179602e-01
      1.62498713e-01 4.80206646e-02 8.35755318e-02 2.17403844e-02
      -6.32995516e-02 -1.49333343e-01 -1.33938372e-01 -3.63408774e-02
      1.08941264e-01 8.44664648e-02 -6.85363933e-02 -3.74068990e-02
      6.34175614e-02 1.01540521e-01 -6.87865615e-02 2.18381137e-02
      -4.82796654e-02 -8.61740671e-03 1.16729803e-01 -2.10189242e-02
      7.29386732e-02 3.08361333e-02 -2.58940253e-02 -1.45027578e-01
      -6.83287308e-02 4.08007950e-02 9.33984816e-02 -1.72133576e-02
      1.70448590e-02 -8.15531686e-02 -9.27050561e-02 -1.17281072e-01
      -1.75982282e-01 -7.77235478e-02 7.79820979e-02 -7.82728344e-02
      9.45321564e-03 4.44220901e-02 9.10065398e-02 3.66835631e-02
      9.96527746e-02 -7.40766199e-03 7.38488808e-02 -1.77320594e-03
      -1.53420746e-01 -7.43368492e-02 9.22816992e-02 1.72589138e-01
      1.45647023e-03 5.56134479e-03 -1.11129712e-02 1.10639766e-01
      -8.05584192e-02 -9.92893800e-02 1.34434095e-02 5.75133525e-02
      9.37836710e-03 -6.77608326e-02 -9.52925906e-02 -1.22064009e-01
      3.17925923e-02 -4.52276580e-02 -2.09182680e-01 -1.16433941e-01
      4.68507297e-02 8.73733163e-02 -4.86282334e-02 1.05950162e-01
      -6.63747713e-02 8.90544280e-02 -2.24607125e-01 -1.69614524e-01
      -3.20709944e-02 5.38357459e-02 7.62856528e-02 -6.01088703e-02
      1.35078222e-01 6.46355078e-02 -1.28238171e-01 3.39210816e-02
      3.14942487e-02 5.94539056e-03 5.38368076e-02 1.29696503e-01
      -7.54864067e-02 -1.02634430e-01 -4.56697866e-02 -2.29714233e-02
      1.29912019e-01 5.15486933e-02 -9.18002650e-02 3.14441845e-02
      -6.17492534e-02 -5.81617057e-02 7.72405742e-03 -8.93829539e-02
      -7.88888857e-02 -2.03831382e-02 -2.00773962e-02 2.50751502e-04
      3.63289490e-02 2.28345208e-02 -1.47023737e-01 -1.65139779e-01
      -1.01850614e-01 5.91924973e-03 7.08847940e-02 4.61346954e-02
      2.97871400e-02 7.03842789e-02 1.13416106e-01 -1.16686456e-01
      -2.65178621e-01 -1.23369575e-01 1.05719792e-03 1.10124536e-01
      -4.75272052e-02 -1.23163536e-02 -2.25697625e-02 2.98914090e-02
      5.95897138e-02 -7.99959973e-02 -1.81260809e-01 -1.58774242e-01
      -4.64779213e-02 -1.13246426e-01 9.11437497e-02 3.84631194e-02
      1.57600082e-02 -1.68167919e-01 -1.04569823e-01 -4.53347601e-02
      4.34162021e-02 1.01600669e-01 4.88156900e-02 -4.07870561e-02
      -1.77542076e-01 -2.31652841e-01 2.18587760e-02 3.54195237e-02
      -9.88483652e-02 -5.49242087e-02 -4.18001786e-02 -8.87656882e-02
      2.96886563e-02 1.46932155e-02 6.15344457e-02 1.93991140e-01
      -3.65344086e-03 1.86693873e-02 -1.04245335e-01 -8.01877081e-02
      -1.56433269e-01 7.84422904e-02 -4.38565016e-02 -5.94445691e-02
      -1.18450746e-01 -8.11200589e-02 -2.45143268e-02 -1.32674882e-02
      -3.27491900e-03 5.84051982e-02 -1.91550106e-02 -1.58888429e-01
      -9.62707922e-02 8.74342993e-02 4.51637506e-02 2.08286103e-02
      9.95691121e-02 -1.14141563e-02 -4.02783640e-02 1.43615022e-01
      -6.55432865e-02 7.04421708e-03 -2.90859975e-02 -1.98616348e-02
      -3.38040665e-02 3.12820189e-02 1.85002014e-02 8.63407701e-02
      8.17971826e-02 -7.52713671e-03 6.34998083e-02 -7.86235649e-03
      5.61913382e-03 -1.89312585e-02 -2.21311934e-02 2.45570540e-02
      1.51478713e-02 -7.18210638e-03 1.20111100e-01 1.81212202e-01
      8.56902376e-02 6.83625638e-02 -7.65356421e-02 -1.13764573e-02
      -1.89336196e-01 -1.35354966e-01 7.98304230e-02 -5.43409437e-02
      1.96262859e-02 -2.74007935e-02 8.89236033e-02 7.03129396e-02
      -2.52443589e-02 -4.37675864e-02 -6.81337863e-02 -1.92205850e-02
      2.20134929e-02 2.98975147e-02 1.64382756e-02 1.64972559e-01
      7.78536126e-02 7.87969157e-02 -7.19778240e-02 -1.61960915e-01
      6.39326451e-03 6.17243610e-02 3.32527049e-02 -3.20649706e-02
      1.40736550e-01 -8.42353776e-02 5.66131063e-03 -1.44862220e-01
      -2.47558057e-02 9.51255783e-02 -5.29578663e-02 3.86537872e-02
      1.56897996e-02 1.01208694e-01 1.06280595e-01 8.55398402e-02
      9.52960029e-02 1.43730417e-01 -1.23202261e-02 -2.58354656e-02
      -2.81808395e-02 -4.38501574e-02 1.07357554e-01 -1.04205959e-01
      -7.06780404e-02 -3.30469050e-02 -5.04779443e-02 2.70770397e-02
      -6.81223199e-02 8.15755874e-02 7.76645914e-03 -1.26051689e-02
      8.21422413e-02 -1.41500365e-02 1.48565412e-01 1.04842693e-01
      -4.01301198e-02 -1.46475390e-01 -7.13073462e-03 2.70686354e-02
      8.19174647e-02 -2.85234600e-02 8.21617544e-02 8.97984281e-02
      1.46131590e-01 -1.57865193e-02 -2.58633383e-02 -6.81379214e-02
      -3.40356566e-02 2.67913584e-02 -2.30364930e-02 4.76425439e-02
      2.78464854e-02 3.07551958e-02 -1.11817718e-01 -2.95161121e-02
      7.56897703e-02 -2.34467052e-02 -2.15502735e-02 4.37812768e-02
      3.88685204e-02 8.47424567e-02 -5.43575734e-03 -1.00202300e-01
      1.84540637e-02 -1.99885555e-02 8.88255518e-03 -6.99580181e-03
      6.78402856e-02 3.54955904e-02 7.50336098e-03 -5.48483990e-02
      -6.06642924e-02 -6.83139786e-02 -8.34839568e-02 -9.03882310e-02
      -2.52421983e-02 1.62528381e-02 2.65544117e-03 -8.98898393e-02
      -1.71473473e-02 -7.68637359e-02 -8.10421482e-02 1.35603528e-02
      -6.95494115e-02 9.77720171e-02 -9.28473845e-02 -2.28127558e-02
      -1.74841478e-01 -8.82843807e-02 -4.53122035e-02 -5.33023551e-02
      -5.97006045e-02 7.81723857e-03 5.03961407e-02 3.86214405e-02
      2.68274522e-03 -2.58418489e-02 2.19763629e-02 4.38961275e-02
      -2.10065525e-02 8.77050012e-02 8.00746679e-02 -1.08994395e-01
      -1.04823448e-01 -9.01325420e-02 -8.79881531e-02 1.21475086e-01
      -1.38273761e-01 9.60366949e-02 5.34829274e-02 3.56641412e-02
      -4.32231165e-02 -1.04311211e-02 7.62498975e-02 8.32056850e-02
      -1.53373599e-01 6.76287934e-02 1.08849525e-01 6.72418401e-02
      -2.28071943e-01 -2.08284140e-01 -1.69866942e-02 1.19535327e-01
      1.10253960e-01 6.93044066e-03 -2.50813365e-01 5.61065972e-02
      1.43592298e-01 1.66161865e-01 5.05358912e-03 -1.19954981e-02
      7.89942667e-02 1.13926902e-01 -1.01674192e-01 -7.53487200e-02
      -7.83282798e-03 1.10927336e-01 -1.66105673e-01 -1.00689985e-01
      -2.38006692e-02 -1.84962824e-02 9.44517925e-03 5.14550172e-02
      1.18369855e-01 2.72964761e-02 5.17059118e-02 -2.01296523e-01
      -1.03700288e-01 6.38127774e-02 4.05187905e-02 1.15814291e-01
      1.79161459e-01 -7.88238421e-02 -1.66769817e-01 -1.43024161e-01
      -1.47058159e-01 3.23179960e-02 3.58789004e-02 -8.46043900e-02
      3.51948366e-02 -3.40977609e-02 -4.27959301e-02 -1.18151002e-01
      4.88948487e-02 -8.17318931e-02 -3.27334367e-03 -3.15909050e-02
      -3.74727771e-02 1.11841466e-02 -8.49392638e-02 -1.79530233e-02
      -1.56740949e-01 -2.56994292e-02 -1.52583167e-01 1.59695148e-02
      -4.25559394e-02 -1.05563208e-01 -7.99702182e-02 -1.07913576e-01
      -2.56793713e-03 -7.62826800e-02 -5.45229502e-02 -2.25980431e-02
      1.18867375e-01 5.09338193e-02 -3.88917662e-02 -2.68166270e-02
      9.30556003e-03 7.64853433e-02 7.97502771e-02 8.25167820e-02
      -2.94328853e-02 3.32884118e-02 -6.13910072e-02 -6.29811883e-02
      -2.27392800e-02 7.60014122e-03 -7.89289922e-03 -4.87310141e-02
      7.48854801e-02 -1.07338165e-04 1.61377355e-01 5.97445928e-02
      -4.86552566e-02 -5.82276173e-02 -9.81270429e-03 -8.28594156e-03
      -4.39207479e-02 1.80951893e-01 -9.75659955e-03 8.13019946e-02
      -6.26938716e-02 -1.05678607e-02 8.30304530e-03 -9.52193141e-03
      6.91583455e-02 1.55915208e-02 -1.78614389e-02 -5.91836721e-02
      2.02016179e-02 -9.04920883e-03 -7.64035881e-02 -4.70873676e-02
      -6.94266288e-03 6.72313049e-02 -3.65580507e-02 -4.10897247e-02
      -5.68228886e-02 8.47854987e-02 4.46252376e-02 2.76196040e-02
      -6.15160763e-02 3.67485695e-02 -4.73305583e-02 -8.67690220e-02
      6.40884563e-02 -8.00210983e-02 8.62452760e-02 -5.03180586e-02
      -1.72130093e-02 -1.17161144e-02 3.48121673e-02 8.02241825e-03
      -7.19679892e-02 -2.15199944e-02 2.41432395e-02 4.93450351e-02
      4.55881730e-02 9.04931203e-02 4.31989059e-02 9.75198448e-02
      -1.18978865e-01 -1.18209876e-01 -1.10294446e-01 -4.71333489e-02
      2.82047372e-02 -8.12989920e-02 -6.06852695e-02 -8.43689963e-02
      8.67440086e-03 -2.49988791e-02 -1.41857220e-02 -3.67108248e-02
      2.19294336e-02 -1.86640322e-02 -4.17648405e-02 -4.18906659e-02
      6.87585473e-02 4.11324278e-02 1.74566973e-02 -1.13710061e-01
      2.05375422e-02 8.05757493e-02 2.12951116e-02 -2.97923498e-02
      3.73220013e-04 7.38320723e-02 -7.11292401e-02 -4.41079028e-02
      -2.69149691e-02 3.97565886e-02 5.18551506e-02 1.25651844e-02
      -1.09400481e-01 -1.55505706e-02 2.66522989e-02 2.12343764e-02
      2.18547806e-02 1.25664935e-01 -8.02775566e-03 2.40939148e-02
      -8.95001441e-02 -3.59546356e-02 -1.22838570e-02 1.22173419e-02
      6.06272260e-05 1.24360332e-02 7.13584572e-02 3.32838036e-02
      2.31059957e-02 -6.79690093e-02 -7.49499500e-02 -4.58299927e-02
      2.05374118e-02 -2.27909535e-02 -3.12575400e-02 5.02319075e-02
      1.08223535e-01 -1.31842447e-03 -1.04616404e-01 -1.26860484e-01
      3.21544893e-02 1.22967744e-02 2.65223645e-02 -6.47329465e-02
      -1.00507925e-03 1.48284718e-01 -8.86402205e-02 -4.95197624e-02
      -1.05786785e-01 -4.22735550e-02 5.77663118e-03 -2.32942775e-02
      -2.01988805e-04 -4.67050336e-02 -1.12219267e-02 -2.84351185e-02
      7.33592734e-02 -6.29095137e-02 -1.11826301e-01 -4.91747968e-02
      3.06379283e-03 1.11915819e-01 -1.18503861e-01 2.70080362e-02
      6.47848919e-02 -7.23665133e-02 -1.46745667e-01 -9.31687802e-02
      4.62572835e-02 1.18470579e-01 -1.46363880e-02 -3.81811783e-02
      6.80258796e-02 -9.09702033e-02 1.23589791e-01 -1.33771822e-01
      -7.25198388e-02 -3.34052853e-02 -4.56430055e-02 8.33457336e-02
      -5.84819317e-02 -9.90301743e-03 -2.96138390e-03 -8.27981010e-02
      -1.60620883e-02 -8.20664391e-02 7.35479072e-02 1.14649139e-01
      -2.73637772e-01 4.26286757e-02 1.04422383e-01 2.16142580e-01
      1.30135834e-01 1.64289385e-01 1.18027791e-01 9.46592763e-02
      -2.41601750e-01 -4.64778766e-02 3.56848240e-02 1.63530186e-01
      1.16772480e-01 -6.78753331e-02 -3.58794332e-02 2.23801173e-02
      3.35029326e-02 1.36603704e-02 -2.35628024e-01 1.10900939e-01
      1.43035233e-01 1.50073290e-01 1.35410532e-01 9.40686539e-02
      7.60023072e-02 7.15651736e-02 -2.79851824e-01 9.13741663e-02
      3.18370424e-02 9.91363972e-02 -1.24131748e-02 -4.07354347e-02
      -1.20870925e-01 7.63401687e-02 6.56527728e-02 2.07177531e-02
      4.73247506e-02 -3.95212322e-02 7.24253207e-02 6.95950761e-02
      -2.82262489e-02 -7.45138824e-02 -9.21112765e-03 4.71266210e-02
      -4.60448302e-03 2.15045270e-02 -4.45296988e-03 1.05961017e-01
      5.86418784e-04 3.15858908e-02 -1.38597637e-01 -2.76627429e-02
      5.40056080e-02 -3.34788002e-02 2.20565554e-02 -2.20996216e-02
      5.07313870e-02 3.47270854e-02 -3.90295275e-02 -1.68782905e-01
      -1.69563643e-03 9.14154798e-02 1.28526062e-01 -4.58191969e-02
      -1.01769432e-01 -1.16782203e-01 -1.14921890e-01 -1.74349714e-02
      -1.33702487e-01 -8.69078785e-02 1.01419792e-01 2.48343796e-02
      -1.89321171e-02 2.56805290e-02 4.83846478e-02 3.32632586e-02
      1.28923953e-01 -5.72971851e-02 3.64789180e-02 2.94351708e-02
      -3.56502160e-02 6.70681074e-02 4.58476730e-02 1.15091763e-01
      -1.11602873e-01 9.77579951e-02 -7.32475594e-02 7.71821514e-02
      1.01863757e-01 3.78743745e-02 -5.63575588e-02 -8.63321275e-02
      -8.95003304e-02 -8.05700347e-02 4.88542654e-02 -1.45792644e-02
      7.21844062e-02 1.00676931e-01 -5.16591826e-03 9.31570977e-02
      9.67673883e-02 -2.20866241e-02 -1.53440580e-01 1.12674776e-02
      -6.21304102e-02 5.07668220e-02 2.72906907e-02 -2.42869034e-02
      -6.06184676e-02 -3.03562321e-02 4.32112142e-02 -1.09132506e-01
      -1.85453836e-02 -3.78740416e-03 4.33915555e-02 -4.65406254e-02
      2.25833058e-02 -2.67327614e-02 -9.63554997e-03 7.33208954e-02
      4.43341546e-02 7.94535279e-02 4.50042523e-02 -2.27962574e-03
      2.66311946e-03 -1.56881735e-02 5.35107078e-03 4.04191501e-02
      -6.64262548e-02 -9.00714546e-02 -1.62589252e-01 -1.05056398e-01
      4.06056046e-02 -8.06230977e-02 -3.30836587e-02 -7.65446201e-03
      1.98191125e-02 -1.41798528e-02 -3.47432978e-02 1.29751824e-02
      -7.20483810e-02 5.12983203e-02 -3.17478850e-02 -6.68167975e-03
      -1.01991128e-02 -9.20457467e-02 5.25820516e-02 6.46374896e-02
      1.13045797e-02 -4.31910828e-02 -1.28271431e-01 -4.00698669e-02
      -8.30500349e-02 1.63772888e-02 -1.79031920e-02 1.24938130e-01
      9.95970741e-02 2.55208537e-02 -6.40631020e-02 -7.39684030e-02
      -1.09146580e-01 3.38671543e-03 -9.06117260e-02 -9.48623344e-02
      -5.57470322e-03 -3.24329473e-02 5.94160035e-02 -1.61729567e-02
      1.16446493e-02 -1.14579603e-01 -1.16539665e-01 1.65877063e-02
      -6.56134263e-02 -1.05520263e-01 -7.61752352e-02 -4.17742729e-02
      -9.79135633e-02 5.39690331e-02 -1.83155145e-02 7.18296170e-02
      5.40044792e-02 -5.08097447e-02 1.15103707e-01 -8.36290121e-02
      -1.06805682e-01 -1.22529916e-01 -3.07729952e-02 6.08044490e-03
      1.02405220e-01 -5.48813418e-02 -4.68246341e-02 1.00371964e-01
      -1.41481878e-02 -1.32306010e-01 -1.49751440e-01 -8.84749088e-03
      9.28280652e-02 4.09540161e-02 3.78194004e-02 -5.82249574e-02
      -5.01996316e-02 -1.16201945e-01 -1.62167266e-01 -2.07686424e-01
      -9.94035006e-02 -4.21982966e-02 7.67116845e-02 -1.57766137e-02
      4.00349535e-02 8.88746604e-02 7.82526210e-02 -3.69987898e-02
      -2.41254345e-02 -3.11377402e-02 2.86096372e-02 -7.63247609e-02
      -2.39089727e-02 -2.65278202e-02 1.34918531e-02 -2.40650959e-02
      6.49487302e-02 -1.11816436e-01 -2.18051728e-02 1.14785973e-02
      -8.15808550e-02 4.22491245e-02 -5.93716803e-04 1.99811477e-02
      -3.68563384e-02 2.57084202e-02 -3.25607462e-03 -4.39328287e-04
      6.37780279e-02 -2.06679963e-02 -6.66418970e-02 8.20142031e-02
      1.87100358e-02 4.03606240e-03 3.10133845e-02 -3.21298614e-02
      -1.07031569e-01 -1.06989898e-01 -1.84466556e-01 -1.37816250e-01
      -6.99086934e-02 -1.00544848e-01 -6.85453787e-02 -4.68337536e-02
      4.97000385e-03 4.20934036e-02 -2.21182648e-02 -1.86421677e-01
      -2.56685257e-01 1.55003769e-02 7.51250833e-02 7.81243220e-02
      1.49505138e-01 6.00578897e-02 2.43447404e-02 -5.72200771e-03
      -3.84581625e-01 3.83418575e-02 6.03577420e-02 -3.00703961e-02
      -1.64618388e-01 -1.50978804e-01 -1.13562614e-01 5.16102687e-02
      2.67288685e-02 1.55054368e-02 -1.37186423e-01 2.67605241e-02
      1.16977401e-01 1.05577961e-01 9.40521341e-03 6.15075231e-02
      9.17431787e-02 6.85662823e-03 -2.53039479e-01 3.51952086e-03
      9.57014970e-03 -1.85651965e-02 -1.34136930e-01 -8.60213190e-02
      1.24516590e-02 5.34187630e-02 4.44463007e-02 -3.72453369e-02
      3.17601487e-02 -5.11506982e-02 -4.05416302e-02 -8.45242068e-02
      -1.38925403e-01 -6.54435232e-02 -4.58836704e-02 -2.53178645e-02
      1.60938486e-01 -2.97146924e-02 -1.00361735e-01 -1.72563177e-02
      -2.39047393e-01 -1.09073937e-01 -7.50291049e-02 -1.80462688e-01
      -6.87392652e-02 7.73808956e-02 8.39009807e-02 1.07098101e-02
      -1.97685361e-02 -1.38131887e-01 -7.19631165e-02 5.58110774e-02
      -6.73713014e-02 -4.56059389e-02 1.38703749e-01 7.68899694e-02
      -1.05098505e-02 -2.00829618e-02 -2.63830960e-01 -8.87751356e-02
      -3.77528220e-02 -1.85901478e-01 -8.89125690e-02 8.88077989e-02
      -2.48720217e-02 -6.46559596e-02 -2.90870182e-02 -1.13622777e-01
      -3.85074914e-02 1.21705132e-02 8.00935831e-03 2.75228154e-02
      6.11332767e-02 3.22973616e-02 2.76605319e-02 5.86602557e-03
      -1.35881364e-01 -7.45654330e-02 -1.63183600e-01 1.12096116e-01
      5.02675883e-02 -3.83523963e-02 8.50831252e-03 -3.89898978e-02
      -1.05895586e-02 4.77740495e-03 -4.12832163e-02 8.01105145e-03
      -7.51192346e-02 -2.17244327e-02 3.88599280e-03 3.22375260e-02
      1.23173567e-02 3.87457460e-02 -5.20403758e-02 1.53208058e-02
      -1.23094887e-01 9.62098464e-02 5.54394685e-02 -5.20216413e-02
      1.40618300e-03 6.77020326e-02 5.61608560e-02 -2.73978561e-02
      -1.49305716e-01 -8.69083181e-02 1.64635420e-01 1.61033846e-03
      -1.58793498e-02 6.52627721e-02 4.26026173e-02 5.87244369e-02
      6.21321835e-02 4.77706157e-02 -5.15913144e-02 1.15268148e-01
      6.65130913e-02 3.62100042e-02 -3.12458109e-02 1.91106480e-02
      7.73114786e-02 1.36402864e-02 -1.77840516e-02 -1.53808184e-02
      1.65096875e-02 -2.66679879e-02 -1.28753334e-01 1.34963199e-01
      -6.87808404e-03 1.11585058e-01 1.17587931e-01 9.36296303e-03
      -6.01102673e-02 1.69560127e-02 -6.93622306e-02 5.19973673e-02
      -6.53320998e-02 -1.12197958e-01 -7.77727785e-03 -5.08694723e-02
      5.19038215e-02 1.86036695e-02 5.67189343e-02 -5.23398742e-02
      -5.05613424e-02 -4.04980220e-02 -1.04054771e-01 -7.13338926e-02
      -1.02390483e-01 1.79335810e-02 -1.47657376e-02 7.49572366e-02
      6.86111897e-02 -5.11925444e-02 4.54035327e-02 -1.44561455e-01
      -2.10670661e-02 -8.77753571e-02 7.77303278e-02 -7.26495609e-02
      -2.11674757e-02 -8.70532766e-02 -5.67483678e-02 2.72624940e-02
      -4.58429940e-02 2.23486312e-02 3.64856385e-02 1.14085242e-01
      9.97995958e-03 4.11659218e-02 -1.51500348e-02 -8.06849822e-02
      1.90279800e-02 -4.16061729e-02 -7.16489032e-02 -6.66150153e-02
      -6.36292174e-02 -9.86286178e-02 -8.05255175e-02 -1.15716353e-01
      -8.64052400e-02 -7.95565620e-02 1.13008425e-01 1.08924441e-01
      2.28849947e-01 1.15157135e-01 -5.21067604e-02 -1.62311912e-01
      -1.50738195e-01 -1.38823569e-01 1.53374206e-02 1.95792206e-02
      1.10719405e-01 1.28784403e-01 9.95321870e-02 2.00508349e-02
      4.30018976e-02 -5.13889641e-02 -9.78902653e-02 4.16200720e-02
      1.23078354e-01 6.23869263e-02 1.23163216e-01 1.38349220e-01
      4.39235605e-02 8.90717749e-03 -1.61521733e-01 -1.94052085e-01
      -1.04790903e-03 7.68029913e-02 -4.48536593e-03 9.93035268e-03
      -7.99050275e-03 -7.85956457e-02 -1.93711773e-01 -9.23326612e-02
      -5.41548021e-02 -1.50593193e-02 4.72812243e-02 4.53268550e-02
      -7.20063224e-02 -1.50405420e-02 -5.36499806e-02 6.86710179e-02
      1.16430938e-01 -6.70673419e-03 5.58861718e-02 -8.62643272e-02
      -5.04553877e-02 -6.71945214e-02 -4.45910590e-03 -8.88185725e-02
      -9.85093638e-02 -1.87971309e-01 -6.08116873e-02 -1.36752771e-02
      -2.19673961e-01 -1.27543546e-02 -6.79960698e-02 3.27387787e-02
      9.91560891e-02 1.59249276e-01 5.06111570e-02 7.18206838e-02
      -3.86018306e-02 9.73090976e-02 1.14045262e-01 1.87309813e-02
      -1.11507028e-02 -2.14581434e-02 1.16637582e-02 -2.80656684e-02
      -6.89348429e-02 7.13727176e-02 8.49610493e-02 8.47529694e-02
      -1.61864966e-01 -5.18130064e-02 -1.12282299e-01 -4.02884409e-02
      3.58862728e-02 3.12820747e-02 7.22074136e-02 1.25871196e-01
      9.28450972e-02 3.53418924e-02 -1.49174139e-01 -1.14038482e-01
      -1.22754648e-01 -1.61232557e-02 6.84440061e-02 -8.11212789e-03
      1.35691494e-01 1.28538415e-01 -7.07196146e-02 -1.52747566e-02
      -1.84376836e-01 -1.54888198e-01 -2.07825489e-02 -1.90930050e-02
      1.11795507e-01 6.74101934e-02 -5.05837612e-03 -6.61462098e-02
      -1.16054408e-01 -9.20991078e-02 -6.66217804e-02 -4.73130718e-02
      6.91102967e-02 8.77483785e-02 6.62413836e-02 -2.48729140e-02
      -1.41440243e-01 -1.21719211e-01 -5.98549563e-03 -1.23194501e-01
      -5.11515290e-02 5.37990555e-02 -4.75410372e-02 -2.64292560e-03
      -6.09649606e-02 -4.67534848e-02 -1.10262133e-01 4.75287214e-02
      -4.73458879e-02 -2.57179178e-02 -5.66845983e-02 -5.97318485e-02
      -6.42333552e-03 -1.39721721e-01 -1.01504572e-01 -8.47031847e-02
      -3.23470980e-02 -4.40931544e-02 2.13325638e-02 -3.19587663e-02
      5.80738625e-03 3.24256159e-02 3.62240076e-02 -2.98120044e-02
      1.91983785e-02 1.17156081e-01 -7.10290372e-02 3.41073871e-02
      4.64088060e-02 2.59809121e-02 -7.51707936e-03 8.82719010e-02
      -9.43622068e-02 7.30087459e-02 -1.46646366e-01 -3.61402296e-02
      3.68133113e-02 5.66690229e-02 -6.52755797e-02 -2.70553567e-02
      -7.25038350e-02 8.72972086e-02 -6.78366981e-03 1.11359350e-01
      4.65217493e-02 2.75872070e-02 2.35643685e-02 2.87209749e-02
      -4.37105261e-02 1.52146444e-01 4.86928113e-02 6.17685206e-02
      -1.96385488e-01 -1.17138131e-02 -2.07467610e-03 -1.36743337e-02
      -2.69882334e-03 -2.16621011e-02 1.37030274e-01 4.81108055e-02
      9.90267769e-02 7.02758878e-02 1.38431853e-02 6.61465060e-03
      -6.24573119e-02 4.69850078e-02 -2.49873698e-02 6.06156252e-02
      4.41136817e-03 9.56164673e-02 6.71763197e-02 1.83692072e-02
      -5.13610570e-03 3.25121656e-02 2.18126681e-02 -5.66969290e-02
      5.84056005e-02 2.03190241e-02 3.93780209e-02 -7.71619976e-02
      5.20490445e-02 -8.24729353e-03 9.33999568e-02 -5.41781858e-02
      -7.32833743e-02 -6.39383346e-02 -8.03409219e-02 1.50006533e-01
      1.52664572e-01 1.69170320e-01 1.41411692e-01 2.70973947e-02
      -5.54321632e-02 -1.94625810e-01 -9.16370228e-02 -1.16334505e-01
      4.30401834e-03 -2.38214321e-02 -2.92680599e-02 -5.71225323e-02
      -7.12965354e-02 2.82492233e-03 -2.80636698e-02 -2.50717206e-03
      6.98517486e-02 1.67891353e-01 7.67126158e-02 7.78495707e-03
      -3.53834853e-02 -1.03864715e-01 -1.03762932e-01 -6.59573972e-02
      -1.14690259e-01 -5.17530143e-02 3.76762562e-02 1.19477712e-01
      5.31741753e-02 3.51236016e-02 -4.43110019e-02 -8.46310556e-02
      2.45469194e-02 -2.81765386e-02 7.20354691e-02 8.56656730e-02
      5.15753850e-02 -4.35012765e-03 2.91683078e-02 -6.58585690e-03
      2.33472362e-02 2.16284506e-02 6.87166378e-02 5.58828600e-02
      4.79097962e-02 3.95995937e-02 -4.32689190e-02 2.72760447e-03
      1.02310600e-02 3.15386355e-02 1.14406683e-01 3.44744027e-02
      -5.30440845e-02 -1.20028947e-02 3.67602259e-02 -1.49496756e-02
      -5.91860786e-02 -2.98439413e-02 -5.84124252e-02 -1.75766125e-02
      -1.89659409e-02 2.44484805e-02 -8.54181573e-02 -7.52866864e-02
      -9.19706225e-02 3.13337594e-02 2.50268560e-02 -1.04423143e-01
      -3.02394163e-02 -3.44331898e-02 -3.75659168e-02 -1.26225473e-02
      -7.01975375e-02 -1.61390066e-01 -2.62306985e-02 -4.65102866e-03
      6.78775907e-02 8.20198283e-02 6.54320419e-02 3.21545042e-02
      -5.09035476e-02 1.44043397e-02 -6.41012937e-03 -6.77078292e-02
      -1.85296591e-02 -2.00516004e-02 -1.72606274e-01 1.41165936e-02
      -2.22591572e-02 9.66619328e-02 1.05623350e-01 9.30499211e-02
      1.60967500e-03 5.80185652e-02 7.88406748e-03 6.83259368e-02
      -4.22168039e-02 9.97202396e-02 5.97313186e-03 1.42819071e-02
      -3.69785875e-02 -6.65629581e-02 -6.81349635e-03 5.55334166e-02
      2.78773941e-02 -3.59858721e-02 -8.49828124e-02 2.60619028e-03
      3.88538726e-02 2.30007991e-03 -3.91031876e-02 -3.35831530e-02
      3.26202698e-02 1.25864208e-01 8.62620920e-02 -9.83696198e-04
      -1.19972922e-01 -8.09329823e-02 2.35968400e-02 4.48259935e-02
      6.42207488e-02 5.22076711e-02 1.70324236e-01 8.38093907e-02
      -7.83298016e-02 -6.71646073e-02 -1.53553322e-01 -1.14120223e-01
      5.17370217e-02 1.08606450e-01 -3.34167331e-01 -4.73692175e-03
      6.70599714e-02 -5.09168804e-02 -4.77958322e-02 2.72034295e-02
      1.46736428e-01 1.86975002e-01 -1.66186124e-01 -1.66726075e-02
      4.06495668e-02 -9.24238749e-03 -2.41607860e-01 -5.14954701e-02
      -2.31003672e-01 -1.74579009e-01 1.87819600e-01 1.52601764e-01
      6.41971603e-02 2.89039947e-02 -6.74325526e-02 -9.51152965e-02
      -2.03417376e-01 -5.58084399e-02 -8.86761993e-02 6.01744466e-02
      4.88682054e-02 3.13676558e-02 -6.83249757e-02 -2.27719054e-01
      -6.35361373e-02 -1.11427486e-01 -1.29017115e-01 6.98143709e-03
      6.75380751e-02 3.73509787e-02 1.05108917e-01 1.10637747e-01
      -5.42643182e-02 -8.04381166e-03 -1.07645184e-01 -2.68769205e-01
      -2.78245181e-01 3.93231995e-02 7.67524391e-02 -5.42751960e-02
      -9.53282788e-02 -1.39077753e-01 -7.42800385e-02 -6.72616810e-02
      -1.87407732e-01 -2.04098731e-01 -9.47620124e-02 -3.98371220e-02
      5.64417541e-02 -1.55579627e-01 -1.66871592e-01 8.43558758e-02
      7.33483359e-02 7.83026963e-02 6.04073778e-02 3.94183621e-02
      8.53629634e-02 -2.91790832e-02 -1.09118909e-01 -9.59719718e-03
      5.76771162e-02 2.89371889e-02 -1.63466841e-01 8.89228936e-03
      3.08384951e-02 8.24601576e-02 -1.11844733e-01 -1.81269571e-01
      -1.13807693e-01 5.52944466e-02 1.34012341e-01 3.33529934e-02
      -2.76384354e-02 -3.96011472e-02 -4.58212420e-02 -1.38264492e-01
      -1.98467478e-01 -3.59015190e-03 -1.04952462e-01 1.71743721e-01
      -1.37054801e-01 -5.75972050e-02 9.18564424e-02 1.44704105e-02
      -1.11190304e-01 -1.79064140e-01 2.60463711e-02 1.98930074e-02
      -1.11684300e-01 -1.41860113e-01 1.22149922e-01 9.89856198e-02
      1.13080941e-01 -1.52721629e-02 -1.38637215e-01 -8.25987458e-02
      -7.25752499e-04 2.91399080e-02 1.31496057e-01 2.08020821e-01
      1.33377209e-01 1.08559355e-01 -1.40326887e-01 -1.26409650e-01
      1.04629420e-01 2.28333548e-02 -6.89284503e-02 -1.70729473e-01
      2.39584930e-02 9.35297534e-02 1.16213493e-01 -1.14260372e-02
      -1.76341515e-02 6.81078807e-02 1.49582088e-01 -2.73211822e-02
      -3.87345813e-02 3.20917927e-02 9.02774781e-02 7.72259384e-02
      -8.19042996e-02 -1.67206243e-01 -1.31116003e-01 -2.31523477e-02
      2.98328642e-02 -1.37837734e-02 2.80847792e-02 3.69323120e-02
      -8.34317431e-02 -1.22039311e-01 -7.68762827e-02 -1.42653346e-01
      -8.81281942e-02 3.17145176e-02 -4.74058650e-02 1.12218121e-02
      2.88302340e-02 2.98109162e-03 -3.38053294e-02 -5.90535849e-02
      2.49951445e-02 8.47876519e-02 1.26547307e-01 -4.27550413e-02
      -7.27889091e-02 -1.59572866e-02 -6.57075346e-02 3.26759815e-02
      7.77697638e-02 7.59874657e-02 -6.60680979e-03 1.38449356e-01
      -1.25080824e-01 -1.02806218e-01 6.35350356e-03 5.13171963e-02
      1.29536400e-02 -1.23245898e-03 -2.20986810e-02 -3.99688780e-02
      2.16382202e-02 2.36813817e-03 -2.11117640e-02 2.79561654e-02
      8.21503997e-02 -1.83880441e-02 -9.84698385e-02 -1.27783930e-02
      1.40751675e-02 8.26511458e-02 8.35618004e-03 -3.31178792e-02
      -4.67692353e-02 8.08209702e-02 6.23097569e-02 -6.81830719e-02
      -6.88219890e-02 -1.12885810e-01 -1.64414465e-01 -5.70096821e-02
      -1.18605502e-01 -2.57430859e-02 4.82024997e-02 -4.37700413e-02
      -8.45347717e-02 -1.29992133e-02 -2.90801376e-02 -2.43411101e-02
      4.14268710e-02 -5.57290316e-02 8.11144337e-02 4.94020395e-02
      -1.18408501e-01 -4.28691655e-02 5.41666262e-02 6.60599247e-02
      4.82595712e-02 1.96838472e-02 7.75499344e-02 -6.22272678e-02
      -1.06895961e-01 -4.23996486e-02 4.37098332e-02 2.89802030e-02
      7.33162323e-03 1.54458322e-02 2.74715777e-02 6.95258975e-02
      -4.64498401e-02 -9.42676216e-02 -2.26446152e-01 -7.16003450e-03
      5.47956154e-02 1.29670175e-02 5.97763853e-03 4.32682298e-02
      1.80574924e-01 5.85703999e-02 -1.23839647e-01 -1.02500863e-01
      -8.12022388e-02 -6.77048489e-02 2.42650080e-02 6.85270410e-03
      -2.60172933e-02 1.77044272e-01 7.43969753e-02 -4.58560549e-02</_></support_vectors>
  <decision_functions>
    <_>
      <sv_count>1</sv_count>
      <rho>-4.3190588378368568e+00</rho>
      <alpha>
        1.</alpha>
      <index>
        0</index></_></decision_functions></my_svm>
</opencv_storage>
