<?xml version="1.0"?>
<opencv_storage>
<my_svm type_id="opencv-ml-svm">
  <svm_type>C_SVC</svm_type>
  <kernel><type>LINEAR</type></kernel>
  <C>5.0000000000000000e-01</C>
  <term_criteria><epsilon>1.1920928955078125e-07</epsilon>
    <iterations>1000</iterations></term_criteria>
  <var_all>1764</var_all>
  <var_count>1764</var_count>
  <class_count>2</class_count>
  <class_labels type_id="opencv-matrix">
    <rows>1</rows>
    <cols>2</cols>
    <dt>i</dt>
    <data>
      0 1</data></class_labels>
  <sv_total>1</sv_total>
  <support_vectors>
    <_>
      1.09702498e-01 1.17918365e-01 -2.65248194e-02 -2.50077814e-01
      -9.50357169e-02 1.92834973e-01 7.83207342e-02 1.76594362e-01
      9.70213488e-02 -1.67656522e-02 6.51465580e-02 -8.65621716e-02
      -3.19710791e-01 -3.59002352e-02 -3.31673324e-02 3.12465671e-02
      6.29395247e-02 -5.95879145e-02 -6.23266250e-02 1.21735282e-01
      8.77113268e-02 -2.37331986e-01 -1.02784455e-01 1.17529228e-01
      2.06489086e-01 1.92960933e-01 -4.77859862e-02 -7.80183524e-02
      -7.25136995e-02 -8.16309750e-02 -3.25266808e-01 -1.67189434e-01
      -2.91318800e-02 -8.79791155e-02 -7.11356550e-02 -2.58989215e-01
      -7.01998398e-02 2.28014439e-02 -3.65299992e-02 -1.38585623e-02
      1.61124095e-01 4.55267094e-02 7.87937827e-03 -5.33781946e-02
      -7.56602362e-02 1.02785334e-01 9.69515666e-02 5.96046224e-02
      3.68028469e-02 1.15773045e-01 -3.48633528e-02 -4.85897623e-02
      -2.43892297e-01 -1.29456237e-01 -5.20958714e-02 -2.41011591e-03
      9.10937116e-02 1.34139195e-01 9.95373800e-02 -3.63640413e-02
      -1.44691318e-01 -1.61625460e-01 -1.51620001e-01 -6.19336730e-03
      -5.20629473e-02 1.53094754e-02 -2.16392037e-02 1.08784236e-01
      -1.25431687e-01 -2.31850352e-02 -8.71557668e-02 -3.70580591e-02
      1.03356659e-01 8.15859623e-03 3.52829546e-02 5.30998334e-02
      1.66745096e-01 1.11028813e-01 3.58957089e-02 -2.57751763e-01
      -1.92675948e-01 -2.62912381e-02 1.32163416e-03 -3.41648748e-03
      7.12053478e-02 3.93700674e-02 8.27063471e-02 1.27393857e-01
      -1.81611434e-01 -2.62469143e-01 -9.36657842e-03 -7.33997300e-02
      1.07645281e-02 -4.45396118e-02 1.26085490e-01 3.60609330e-02
      1.42703950e-01 -4.55353670e-02 -2.04964401e-03 1.82704106e-02
      -9.52335016e-04 7.21381307e-02 7.12322593e-02 -6.71252012e-02
      -1.93069912e-02 2.93339174e-02 -2.41563451e-02 -7.94773251e-02
      1.30987251e-02 9.38845575e-02 7.93981403e-02 7.14213029e-03
      -3.88346240e-02 -1.00517578e-01 -7.17924908e-02 -1.08997919e-01
      -1.59721360e-01 1.35328710e-01 8.64741206e-02 1.29714608e-01
      2.10223064e-01 2.14724585e-01 -4.57483940e-02 -3.59697372e-01
      -1.31854743e-01 2.81447843e-02 -4.51556854e-02 2.89810300e-02
      4.92012016e-02 3.32900994e-02 1.48276938e-02 -8.96497592e-02
      -4.07954492e-02 5.26347477e-03 -9.58149210e-02 2.02459246e-02
      3.51303481e-02 3.05457152e-02 1.00874692e-01 7.86014497e-02
      8.32203478e-02 -8.69323325e-04 9.92697384e-03 1.90725140e-02
      2.07308963e-01 2.45948490e-02 2.44814507e-03 6.80739954e-02
      -7.54280016e-02 -3.09962124e-01 -3.73014510e-01 -2.70973034e-02
      9.84684974e-02 1.42877311e-01 3.01900003e-02 7.91741628e-03
      -3.53377983e-02 1.13870287e-02 -1.19735440e-02 1.37860879e-01
      1.19876578e-01 5.80066778e-02 6.72110170e-02 -7.59029016e-02
      2.16179248e-02 2.58947331e-02 -1.76463246e-01 -1.70470029e-01
      -1.00104928e-01 5.38969450e-02 1.36238188e-01 8.48949254e-02
      -5.44599146e-02 -4.78435569e-02 4.95998226e-02 -1.34694606e-01
      -2.04691827e-01 1.63524132e-02 6.15151413e-02 1.82523757e-01
      -3.39759067e-02 8.76260083e-03 4.50395644e-02 -9.12669525e-02
      -4.14054841e-03 1.81179747e-01 1.66032538e-01 -3.02411206e-02
      -1.30659983e-01 -1.41915530e-01 -4.32999432e-02 9.83551294e-02
      -7.22973421e-02 8.00112635e-02 4.84323092e-02 6.93762228e-02
      -7.76186511e-02 -1.88881665e-01 -1.94248743e-02 -1.06970713e-01
      1.97035763e-02 -2.88462415e-02 -9.37246680e-02 -7.65824392e-02
      -7.31436163e-02 -7.91095849e-03 -1.05462149e-02 -1.05220206e-01
      -5.72176650e-02 1.46675155e-01 4.06987444e-02 2.23046839e-02
      -1.01915143e-01 -7.17773195e-03 -7.30705038e-02 -5.50536662e-02
      -8.11458156e-02 -1.54630886e-02 8.41440931e-02 -7.89837539e-02
      -4.51351069e-02 -3.35380696e-02 4.40397263e-02 -1.08174734e-01
      -1.81473672e-01 -1.77657530e-02 -6.89583719e-02 -2.72620805e-02
      -1.89735711e-01 -2.39116270e-02 2.39502583e-02 -4.33781929e-02
      -8.17468539e-02 -8.35688859e-02 -1.69570826e-03 2.69484967e-02
      1.10351637e-01 6.61583170e-02 6.91733137e-02 -6.08950704e-02
      1.01389438e-01 3.79675184e-04 -5.64458333e-02 -7.30556622e-02
      -1.09124519e-01 -3.04312259e-02 -1.49322554e-01 -1.63971800e-02
      -1.14311144e-01 1.19244784e-01 -1.34517066e-02 -1.53976097e-03
      1.40022198e-02 1.82190850e-01 1.36908606e-01 -1.93169802e-01
      -1.47527248e-01 1.72465399e-01 1.49655759e-01 1.71907112e-01
      5.77611057e-03 3.08788046e-02 8.79987925e-02 1.64723061e-02
      -1.77103058e-01 -1.78854689e-01 -8.29556584e-02 -3.77149023e-02
      1.13965943e-02 -8.61449391e-02 5.58443367e-02 7.18206316e-02
      1.47285582e-02 -3.20750177e-01 -1.86314374e-01 1.19601771e-01
      1.38486713e-01 1.42563567e-01 -1.28137460e-02 5.87851256e-02
      -4.86592054e-02 5.14127687e-02 -1.28289998e-01 -1.18983053e-01
      -1.42787293e-01 -4.88905683e-02 6.72171684e-03 -3.85380909e-02
      -5.04672993e-03 -6.41296655e-02 7.44235292e-02 2.07589716e-01
      3.05659845e-02 -2.41303518e-02 -1.06380858e-01 -1.49994493e-01
      -1.35185063e-01 9.56164300e-02 -2.32182369e-02 -2.73213629e-02
      -7.36625493e-02 9.42967534e-02 -9.34024006e-02 -4.02706163e-03
      -2.73880269e-02 -2.83214706e-03 2.74112094e-02 -9.29058045e-02
      -5.02493493e-02 1.20229959e-01 2.80234925e-02 4.23639156e-02
      -1.13910455e-02 2.96888873e-02 9.25982650e-03 1.41152248e-01
      4.79403995e-02 -5.03223389e-02 -1.63011417e-01 5.33931181e-02
      1.22495070e-02 4.26232535e-03 3.90576757e-02 1.89913556e-01
      1.25351166e-02 -7.87673444e-02 -6.02954179e-02 -1.12982050e-01
      -1.68967973e-02 -1.29830807e-01 4.00515087e-02 1.45682236e-02
      3.98427024e-02 -4.97343577e-02 5.47421612e-02 3.98969017e-02
      5.92039675e-02 -3.79680917e-02 -7.75803775e-02 -9.84557196e-02
      -1.16938323e-01 -1.37090683e-01 7.94735327e-02 -1.19926129e-02
      1.64697338e-02 -1.18619427e-01 -5.47675565e-02 -3.20792831e-02
      -2.56800465e-02 -1.54382316e-02 3.87497395e-02 1.37935942e-02
      4.26347815e-02 2.17326209e-02 3.72075997e-02 4.08386774e-02
      1.42855123e-01 8.27578828e-02 -3.13147306e-02 -4.36429568e-02
      -7.11936736e-03 2.73846351e-02 5.69195002e-02 5.00069521e-02
      1.72481447e-01 -7.07830191e-02 -1.11917906e-01 -7.44027495e-02
      -1.03133604e-01 9.09949169e-02 4.88497540e-02 -3.99411516e-03
      5.20881973e-02 1.20805636e-01 1.33186281e-01 6.72471821e-02
      3.34792063e-02 2.97989286e-02 -1.38703343e-02 1.60878245e-02
      9.94633958e-02 7.15803951e-02 1.81569323e-01 5.01650013e-02
      -5.34688570e-02 -1.47140533e-01 -1.14084855e-01 -3.25291813e-03
      3.18375230e-02 6.91999570e-02 5.27708381e-02 1.07965216e-01
      7.62453079e-02 4.26399037e-02 -6.10660156e-03 -2.67060660e-02
      -5.48014529e-02 -9.39826369e-02 -1.02863293e-02 -1.35772834e-02
      -6.87994137e-02 -2.79365084e-03 8.94139037e-02 9.03114006e-02
      9.73552838e-02 -2.55073570e-02 -1.75923668e-02 -3.27857248e-02
      6.37180135e-02 -8.30512121e-02 -6.58802316e-02 1.03104703e-01
      1.19306967e-01 1.24119237e-01 -1.18806437e-01 -4.41116355e-02
      4.17534523e-02 -1.26699600e-02 4.09008786e-02 2.61652656e-02
      1.34958863e-01 5.69577590e-02 -6.98161721e-02 1.60283782e-02
      7.73659768e-03 9.95258093e-02 1.16278492e-01 -1.05169192e-02
      -3.55189405e-02 2.04792023e-01 9.74355713e-02 1.68681294e-02
      -4.75002155e-02 -1.84087418e-02 1.08333882e-02 5.37705002e-03
      -3.91858630e-02 -1.11317605e-01 -4.08298448e-02 8.33653845e-03
      -7.93109927e-03 -1.18952051e-01 6.65371567e-02 9.57437009e-02
      2.77917292e-02 -2.10556071e-02 -1.03872709e-01 -3.21012437e-02
      -1.05697468e-01 -6.57286122e-02 -5.32031655e-02 6.01040199e-02
      9.20862779e-02 1.02544300e-01 3.01626399e-02 -2.51018889e-02
      5.93178049e-02 -2.29077842e-02 -1.04631394e-01 -3.19861323e-02
      5.88370860e-02 1.81323588e-02 -5.82245626e-02 7.75181577e-02
      -1.60048790e-02 9.24605876e-02 -1.14769731e-02 1.25135574e-02
      -3.83541584e-02 1.24856671e-02 2.67784055e-02 -5.06140641e-04
      9.09611210e-02 -6.87734857e-02 3.94918025e-02 -4.07828875e-02
      -1.70680024e-02 -1.15803406e-01 -1.53824970e-01 -4.42095920e-02
      -1.61831751e-01 3.68724577e-02 -7.07263649e-02 6.02638349e-02
      -4.23634574e-02 2.44908519e-02 3.20229419e-02 -4.60872389e-02
      -7.16637671e-02 -1.12707041e-01 5.00108488e-02 -8.44664499e-02
      5.13960086e-02 5.69258481e-02 1.15228370e-01 -4.35387976e-02
      -4.53715473e-02 -2.09371429e-02 -5.53194992e-02 4.36170399e-02
      -2.06259210e-02 -1.52643755e-01 -9.38642621e-02 4.11238335e-02
      1.21970423e-01 9.23315659e-02 1.93533078e-02 -2.79304445e-01
      -1.95037737e-01 6.50601089e-02 1.90033823e-01 1.73941582e-01
      1.28408179e-01 6.89884415e-03 -3.17444734e-04 6.83637261e-02
      -3.90334241e-02 -1.10231794e-01 1.22625390e-02 -1.99736077e-02
      4.84136119e-03 -1.06264558e-02 -3.48440483e-02 -4.26989369e-04
      -1.06134312e-02 -1.86776489e-01 -1.16459772e-01 -9.66969132e-02
      4.23933752e-02 3.06064878e-02 -7.23200366e-02 -6.44877777e-02
      -8.10683519e-02 8.07311311e-02 -2.00267851e-01 -6.51968494e-02
      -8.34859163e-02 -6.41824156e-02 -1.27417848e-01 -4.55832630e-02
      -4.06293347e-02 -2.05261707e-02 -5.28846048e-02 6.22116681e-03
      8.28222707e-02 1.29029348e-01 -7.44524524e-02 -4.90257964e-02
      -7.02720881e-02 3.88839282e-02 5.44909239e-02 2.41790973e-02
      -1.30874977e-01 5.90412989e-02 2.96439026e-02 -1.28108829e-01
      -2.73896568e-02 7.80226737e-02 -9.89748240e-02 -1.07383817e-01
      1.60931069e-02 -2.49118693e-02 1.23679645e-01 1.19316205e-01
      -3.25451978e-02 -6.75769746e-02 -8.30936059e-02 4.29848284e-02
      -1.55478409e-02 -3.18650971e-03 -2.95177530e-02 1.32831693e-01
      -3.84218469e-02 -5.18359169e-02 -3.83150578e-02 7.73808882e-02
      3.26285250e-02 8.93774256e-03 8.36642459e-02 -1.30272493e-01
      8.24185926e-03 5.08564785e-02 -6.59837946e-02 -6.20617978e-02
      6.78026900e-02 2.81623844e-02 3.50453705e-02 1.39173418e-02
      -6.72093034e-02 9.24701020e-02 8.78244117e-02 9.52373222e-02
      5.54762606e-04 6.93605840e-02 7.18193650e-02 -3.68852131e-02
      7.92529806e-02 -9.33902040e-02 1.18610207e-02 -7.63293654e-02
      -6.92310780e-02 -7.67788813e-02 1.91278085e-02 3.99550833e-02
      2.45593116e-03 5.27580641e-02 -9.21851397e-02 9.78708565e-02
      -1.68375988e-02 2.13707518e-02 1.29302032e-02 2.25066748e-02
      -9.27681625e-02 -1.18475460e-01 -2.50136908e-02 -3.90363485e-02
      -2.35424191e-03 -1.58759840e-02 7.72045925e-02 -8.32834542e-02
      2.94716209e-02 -2.95117944e-02 -5.80238402e-02 3.06476820e-02
      2.69400012e-02 2.76389141e-02 -6.44410774e-02 -4.29605879e-03
      6.83590323e-02 8.58032778e-02 -3.17914970e-02 -1.84100613e-01
      -4.67962250e-02 -1.86976902e-02 -4.99745309e-02 -4.70280237e-02
      4.48405631e-02 -2.85943691e-02 2.32762080e-02 6.89347163e-02
      8.57084319e-02 9.79428366e-02 1.72840625e-01 8.01674575e-02
      -5.86132333e-02 -1.58437472e-02 4.65503521e-02 7.86790699e-02
      -3.42803672e-02 -7.69866854e-02 -2.41738521e-02 -6.63736239e-02
      -1.07091549e-03 -4.72399481e-02 2.42886003e-02 1.37427270e-01
      -2.87606250e-02 6.71035573e-02 8.39001685e-03 8.16175491e-02
      7.42852017e-02 -4.61116098e-02 -7.45802075e-02 6.12530112e-02
      1.14334106e-01 2.44791806e-02 4.54524383e-02 4.62206528e-02
      2.93854587e-02 1.25556868e-02 2.26596612e-02 -4.88802493e-02
      -6.52069598e-02 -4.71683266e-03 6.41610548e-02 7.11241215e-02
      2.59274207e-02 1.06021702e-01 -2.34058965e-03 5.52710108e-02
      -7.76900128e-02 -1.41143680e-01 5.71317412e-02 9.19934269e-03
      1.97995678e-02 8.14804994e-03 7.03528374e-02 1.18024588e-01
      3.91589664e-02 -5.32560013e-02 4.18213457e-02 -5.23044840e-02
      -4.56577353e-02 5.67661822e-02 1.11951269e-02 -4.12105350e-03
      -2.83651203e-02 8.36420134e-02 1.14591531e-02 3.68894339e-02
      5.85173070e-03 4.00462486e-02 -6.52441829e-02 -2.52857599e-02
      3.29577141e-02 7.29128271e-02 6.62694573e-02 5.34665547e-02
      -8.96978602e-02 -8.03701654e-02 -1.29153043e-01 5.18027367e-03
      -5.34059666e-02 -2.29056384e-02 8.39821026e-02 9.45405439e-02
      8.46830085e-02 -2.67578233e-02 -3.41160260e-02 -1.02042235e-01
      4.52708490e-02 -9.80174989e-02 -7.74707571e-02 -5.97440377e-02
      5.73934764e-02 -4.14602421e-02 2.02890169e-02 1.64506547e-02
      4.88303155e-02 -1.37505949e-01 -8.06230381e-02 -2.58616544e-02
      -4.08987291e-02 3.14409770e-02 2.18450222e-02 -1.61225960e-01
      -8.05514380e-02 -9.00280550e-02 4.35876846e-02 -9.91761871e-03
      1.50358630e-02 1.35410586e-02 9.81247704e-03 8.50800541e-04
      3.77221182e-02 7.69459605e-02 7.18408525e-02 -5.63761704e-02
      -9.68238339e-02 1.50090875e-02 2.53785662e-02 -3.64859849e-02
      -7.81847760e-02 7.04255849e-02 6.05958290e-02 1.02773122e-01
      1.73440576e-02 1.00478623e-02 1.75688621e-02 1.44542567e-02
      -1.66074604e-01 -7.15011060e-02 -9.37166959e-02 5.58712706e-03
      -6.53451756e-02 8.50318447e-02 -1.17007876e-02 3.53343263e-02
      1.63634717e-02 -1.30560234e-01 -1.50896102e-01 -6.69633970e-02
      -1.96840912e-02 1.33515606e-02 -9.22753103e-03 -6.26281127e-02
      -3.73905264e-02 -9.18527246e-02 -9.51297805e-02 -1.19875520e-01
      -8.54293443e-03 6.37783632e-02 -7.89563879e-02 5.73434941e-02
      -1.11987367e-01 -1.19577631e-01 -1.03252962e-01 -1.27684638e-01
      -1.52805522e-01 -1.54378355e-01 -1.34080239e-02 4.93974704e-03
      -2.07218435e-02 -5.87367900e-02 -5.40775992e-02 6.76157244e-04
      9.45726559e-02 -5.04042245e-02 1.98923517e-02 1.09974071e-02
      -1.45335561e-02 -1.05875582e-02 -7.84537122e-02 -5.66692278e-02
      -1.03834376e-01 1.51380271e-01 -1.01693995e-01 3.06486469e-02
      2.24158186e-02 6.87855110e-02 5.36639802e-02 -1.45892844e-01
      -1.81898624e-01 -8.70474800e-02 4.76195328e-02 -3.09927277e-02
      -1.41081735e-01 -4.65974258e-03 3.34845148e-02 6.83883727e-02
      6.37962250e-03 -5.73117882e-02 -8.25984105e-02 4.99950387e-02
      -8.87307338e-03 3.93533893e-02 6.02665208e-02 4.14777435e-02
      -7.74904415e-02 -7.41004795e-02 -3.50888483e-02 -1.15219899e-01
      6.44233674e-02 -9.53748599e-02 2.06157146e-03 -4.77783345e-02
      -1.18424602e-01 2.01588310e-02 7.26168454e-02 8.69525895e-02
      -2.28786282e-02 2.32081693e-02 -2.90029328e-02 -4.53237370e-02
      -1.54132545e-02 -9.40163732e-02 -5.90381436e-02 6.26222268e-02
      4.29075658e-02 -6.98946789e-02 -5.66476956e-02 -1.29790798e-01
      7.02993991e-03 3.16649899e-02 -3.02389450e-02 -1.78522523e-02
      9.96402800e-02 1.18662633e-01 -2.83894818e-02 4.30807099e-02
      -4.32222970e-02 1.21689722e-01 -4.43517417e-02 -3.28646228e-02
      1.75751261e-02 -2.66859345e-02 2.21275222e-02 -1.53873609e-02
      2.90098786e-02 2.16414146e-02 6.58054231e-03 -1.15210801e-01
      -1.36782616e-01 3.32281962e-02 1.05713837e-01 8.00457075e-02
      7.79468641e-02 1.06189981e-01 1.86072569e-02 -3.11452951e-02
      -1.03404999e-01 -3.99063900e-03 -5.12741059e-02 5.81989661e-02
      -1.40130157e-02 -2.41156984e-02 6.86217472e-02 -2.50005648e-02
      9.05646160e-02 -1.51211187e-01 -1.06370829e-01 -9.83140767e-02
      -6.78438246e-02 -7.19224364e-02 3.37902345e-02 1.60467252e-01
      1.51015650e-02 -6.82521192e-03 -1.34440780e-01 -8.19004402e-02
      5.39729744e-02 1.02406651e-01 4.03355770e-02 -2.11944729e-02
      -2.63358653e-02 -5.35290316e-02 -7.80517533e-02 -3.96949053e-03
      7.18064755e-02 2.23864149e-02 -1.43090030e-02 3.56586799e-02
      -7.19029084e-02 4.49350141e-02 -1.11176521e-01 5.16242795e-02
      1.05717443e-01 7.86279589e-02 4.68398705e-02 -4.81856661e-03
      -6.69993013e-02 -7.58761093e-02 -8.01512152e-02 -1.79865941e-01
      -8.75177607e-02 -7.49037638e-02 4.84000519e-02 5.76542430e-02
      -5.76728070e-03 -4.43195440e-02 2.62435991e-02 -3.86821814e-02
      -1.30985484e-01 6.16343580e-02 -4.80757169e-02 -6.85464889e-02
      -2.95446198e-02 -1.07670672e-01 -5.02373539e-02 -1.99215487e-03
      8.17301348e-02 -1.15632385e-01 -3.25829014e-02 -6.19994104e-03
      -6.48071766e-02 7.90427253e-02 -3.30059864e-02 -3.30124050e-02
      1.01563863e-01 9.09686908e-02 1.02801777e-01 1.83885656e-02
      -8.38639438e-02 1.29534835e-02 -1.05665217e-03 -3.06316447e-02
      -5.64414933e-02 5.74224517e-02 -8.78086407e-03 -4.01118025e-02
      -9.85606611e-02 -7.59936124e-02 -2.19160378e-01 -5.74220307e-02
      8.33479967e-03 6.28598034e-02 -2.46235244e-02 -2.69804131e-02
      3.53392102e-02 -7.43414136e-03 -8.60609636e-02 -1.40100077e-01
      -9.44656692e-03 1.53140975e-02 -2.69737802e-02 -5.37682604e-03
      5.25190644e-02 -3.88700441e-02 4.21650261e-02 1.46806939e-02
      6.14862181e-02 -6.06301287e-03 -1.41527951e-01 1.24676311e-02
      6.79537877e-02 -1.72814690e-02 -1.24431849e-01 -1.23983920e-02
      1.05092362e-01 2.54852213e-02 -1.16441354e-01 -1.13100149e-01
      -2.65667327e-02 -5.01008853e-02 -8.12266618e-02 2.47486122e-02
      -3.85163794e-03 -2.33604126e-02 -8.64754543e-02 -4.69376296e-02
      -1.15179464e-01 -3.29959728e-02 -4.42973040e-02 -5.17069548e-02
      -1.74877241e-01 2.14751922e-02 8.82557854e-02 5.10472991e-02
      2.32087318e-02 -1.15811452e-02 -2.52875350e-02 -1.43265575e-01
      -3.68382156e-01 -9.90192592e-02 6.17941171e-02 3.31655517e-02
      1.73414324e-03 5.40883243e-02 -4.85569350e-02 -4.65392806e-02
      -7.60184526e-02 -1.96483031e-01 -8.01449195e-02 -9.40087363e-02
      -4.89175431e-02 7.20504597e-02 9.75909606e-02 9.22854692e-02
      1.97737053e-01 4.73513268e-02 -1.85290202e-01 -1.31231666e-01
      -1.61824077e-02 7.59467948e-03 4.37375940e-02 -1.41622921e-04
      -2.21092906e-02 1.37014054e-02 -1.23818003e-01 -7.65209943e-02
      -6.59924001e-02 -8.45166519e-02 -2.70368308e-02 4.40620519e-02
      5.54038920e-02 -2.85667516e-02 -1.14075281e-01 -1.70853004e-01
      -1.14188492e-01 -5.21570630e-02 -1.10999957e-01 -1.35238161e-02
      1.31495789e-01 9.47453901e-02 3.37358825e-02 8.74526128e-02
      -1.09359428e-01 -1.45600617e-01 -7.63614252e-02 7.10031614e-02
      1.09413475e-01 1.05676062e-01 -3.02962940e-02 -2.33301222e-02
      -5.50570316e-04 -1.43214926e-01 -9.72715318e-02 -2.13510767e-02
      -3.37943546e-02 -3.36564519e-02 -3.99341919e-02 -2.63463054e-02
      -7.42562786e-02 1.18695721e-02 -1.02880858e-01 -6.39552251e-02
      -7.88258091e-02 7.07239844e-03 4.53635901e-02 -3.96105163e-02
      8.12680572e-02 5.85469864e-02 1.51418492e-01 -1.35026053e-02
      -1.66654140e-01 -1.54498100e-01 1.01631798e-01 1.43314987e-01
      7.92812929e-02 -4.46375692e-03 5.01576625e-02 6.65723160e-02
      -6.91680983e-02 2.49632332e-03 -1.00455619e-01 1.65292442e-01
      1.30163267e-01 7.81098455e-02 1.61868893e-02 -9.13297981e-02
      7.49366283e-02 2.55591087e-02 -4.07353491e-02 -8.66249353e-02
      2.31676735e-02 -5.95844015e-02 -1.53356767e-03 6.83102235e-02
      6.26132563e-02 9.05277058e-02 -1.38860159e-02 -1.58222504e-02
      -1.63599938e-01 5.03247008e-02 5.79626113e-02 1.28617302e-01
      -6.16571344e-02 -6.20465204e-02 -6.53976649e-02 -5.42406216e-02
      7.14922026e-02 -6.02403730e-02 1.20371796e-01 -9.99070471e-04
      -6.91180676e-02 -8.19577575e-02 -1.18285686e-01 2.37618312e-02
      4.23799455e-02 1.12614535e-01 -3.59640121e-02 -1.09699424e-02
      -9.08537731e-02 -8.34929943e-02 -4.02411483e-02 -1.00430205e-01
      -7.68871978e-02 -8.35349187e-02 8.45582113e-02 -8.33613202e-02
      5.21616414e-02 -4.37859781e-02 -5.73075935e-02 -3.34953191e-03
      -8.30508247e-02 -5.33646382e-02 7.77365407e-03 1.72097936e-01
      -2.63521057e-02 8.66239052e-03 -2.31897328e-02 -2.03739479e-02
      1.61665920e-02 -6.37993217e-02 -5.02883792e-02 -3.01041678e-02
      -8.95217247e-03 -1.90103397e-01 -7.27422163e-02 -9.99383777e-02
      -1.69768274e-01 -1.15877248e-01 -6.77876687e-03 4.59268987e-02
      1.01066992e-01 5.67637198e-02 -3.87730822e-02 -8.20763111e-02
      -1.63719758e-01 -1.78489998e-01 6.86262399e-02 3.24970372e-02
      1.28389969e-02 -4.52155098e-02 6.92107975e-02 3.04326061e-02
      8.94347429e-02 -6.99053938e-03 -2.10128129e-02 -2.03393977e-02
      1.10798009e-01 1.30848199e-01 -2.71838717e-02 1.70243472e-01
      1.42192200e-01 1.61030844e-01 -1.16794012e-01 -1.90849066e-01
      -7.74799660e-02 2.21790168e-02 3.90829481e-02 8.76601860e-02
      -2.57009380e-02 -3.06337867e-02 -1.13531187e-01 -7.74595737e-02
      -1.78854585e-01 -4.73865978e-02 6.16904050e-02 8.72483775e-02
      -1.52325742e-02 -9.79624093e-02 -6.82760030e-02 1.57160172e-03
      -5.42439800e-03 -1.74301136e-02 4.17401679e-02 1.41876534e-01
      7.96819925e-02 -2.55595203e-02 -2.20093485e-02 -6.27768561e-02
      3.51220220e-02 -1.81802303e-01 -7.58531615e-02 3.33990715e-02
      4.71284203e-02 7.57976947e-03 -3.99085544e-02 -7.15726614e-02
      -3.48358341e-02 3.27570848e-02 6.78650886e-02 8.57106969e-02
      -4.00159098e-02 -3.93223204e-02 5.01249684e-03 -1.28133455e-02
      -2.34978255e-02 -4.78919456e-03 1.15400009e-01 3.46936770e-02
      -1.10865600e-01 5.83556406e-02 1.03474245e-03 -4.35550325e-02
      1.26547581e-02 -1.21162556e-01 -1.54521242e-01 1.93112418e-02
      1.16303906e-01 3.71727836e-03 -7.93129653e-02 -1.27633825e-01
      -5.76906092e-02 1.48822926e-03 -2.25520674e-02 -3.14055271e-02
      -8.66998266e-03 1.68172214e-02 -2.94502378e-02 3.33622061e-02
      -6.56309426e-02 -2.25505903e-02 -1.61186066e-02 -3.38028781e-02
      -4.29597087e-02 -7.88372010e-02 6.44190162e-02 -5.69608696e-02
      1.64410859e-01 1.32009849e-01 2.05900803e-01 9.06031877e-02
      -1.37516990e-01 -2.43589193e-01 -1.62725568e-01 -6.82664514e-02
      7.85984993e-02 4.45132963e-02 -2.04596799e-02 -3.70998420e-02
      -1.71244189e-01 -1.34309798e-01 -2.44862190e-03 -1.20571747e-01
      -1.14050716e-01 -2.37817001e-02 2.12472543e-01 1.06001154e-01
      1.22167654e-01 7.95245096e-02 -1.38044238e-01 -2.31591076e-01
      -1.04775883e-01 6.42909184e-02 1.77688479e-01 -5.66788623e-03
      -4.56659310e-02 -6.05574921e-02 -1.75724730e-01 -1.63531229e-01
      5.36228605e-02 4.18836018e-03 -5.33737056e-02 -2.45861411e-02
      7.73781585e-03 -2.57591775e-04 6.23394586e-02 -7.72296935e-02
      -1.20562771e-02 1.27737209e-01 9.07001123e-02 -7.22240359e-02
      -7.33274892e-02 -1.27102256e-01 -8.20890293e-02 2.64684148e-02
      -8.30570832e-02 5.02724247e-03 -1.41027234e-02 5.31575317e-03
      -1.32901128e-02 -8.08886737e-02 -3.37968431e-02 -8.25353414e-02
      -3.99714336e-03 -6.97250664e-03 -3.41246761e-02 1.29710838e-01
      8.63298103e-02 3.00522614e-02 2.15362813e-02 -3.67595032e-02
      -8.66269618e-02 4.70182411e-02 8.07892978e-02 1.04924880e-01
      -4.58577164e-02 8.96044597e-02 1.95010416e-02 -1.81225222e-02
      -4.45075035e-02 4.40928154e-03 1.76611826e-01 1.85794681e-02
      1.50399897e-02 7.93059450e-03 -1.99425183e-02 -3.07730641e-02
      -5.07337451e-02 6.02848418e-02 1.08446330e-01 1.19438820e-01
      -2.54747085e-02 -2.51998473e-02 -3.24114747e-02 -1.60082486e-02
      -3.41662019e-02 -2.04293616e-02 1.11207981e-02 5.23880422e-02
      1.13352761e-01 -9.55922343e-03 -2.50455621e-03 -9.32751819e-02
      1.18007831e-01 1.67816952e-02 2.06519645e-02 -1.20022735e-02
      7.11925253e-02 2.29123179e-02 -1.78233217e-02 2.98390929e-02
      9.78634600e-03 1.38966113e-01 6.65634638e-03 1.65357925e-02
      -1.31008506e-01 -1.69370353e-01 -1.41363218e-01 -1.63472444e-01
      2.80868970e-02 1.24551700e-02 2.94212140e-02 -8.11273158e-02
      -2.87245512e-02 2.25160234e-02 -1.21249311e-01 -5.07056937e-02
      6.91963211e-02 1.56622291e-01 6.12743050e-02 7.86282793e-02
      6.22980646e-04 5.28870299e-02 -1.27142921e-01 -1.70979977e-01
      -7.16428086e-02 -1.06547587e-01 3.34710516e-02 3.88067327e-02
      1.46976605e-01 -2.33296454e-02 1.59344263e-02 -3.01829278e-02
      -3.66638340e-02 -5.09494282e-02 -3.60827893e-02 6.76416978e-02
      2.32685432e-02 1.10756256e-01 7.37242401e-02 8.92172083e-02
      -1.41577050e-02 -2.66182888e-02 -8.74141082e-02 -1.24778249e-03
      3.75904888e-02 1.23806167e-02 -2.08647605e-02 -5.93794137e-02
      -3.48126106e-02 -5.34534007e-02 6.46231845e-02 -6.73830286e-02
      -1.44740706e-02 6.82519525e-02 5.78662567e-02 -4.50545922e-02
      -1.46773309e-01 -2.15614930e-01 -6.36748075e-02 -2.12238766e-02
      -4.43604253e-02 -7.40598440e-02 -5.18178456e-02 -1.22825056e-01
      -1.15675978e-01 4.90768626e-03 2.45003365e-02 -1.03334635e-01
      -5.49182370e-02 -5.26152700e-02 -7.80892819e-02 1.82935614e-02
      -5.09498529e-02 -3.41787413e-02 -1.04477033e-02 -8.33891705e-02
      -1.04748113e-02 8.39687213e-02 7.04650395e-03 3.96157764e-02
      -2.28408538e-02 3.69964503e-02 5.48128225e-02 -8.71249009e-03
      1.97569933e-02 -6.34167269e-02 -5.72222210e-02 1.98895186e-02
      -4.67740148e-02 -1.17366984e-01 -2.65227556e-02 7.91616365e-03
      8.75425115e-02 -2.10065935e-02 -1.19116440e-01 -4.31759953e-02
      -4.39288020e-02 7.40434453e-02 -1.31798862e-02 -1.00442544e-02
      -5.31658642e-02 5.59899807e-02 -1.99074373e-02 -1.20089494e-01
      -5.76982610e-02 -1.00742817e-01 -1.44826053e-02 -1.33432835e-01
      -2.50512101e-02 -8.90199840e-02 1.76462959e-02 -3.87917534e-02
      -1.01277888e-01 -8.28167275e-02 6.10783808e-02 -1.22279217e-02
      -8.03650841e-02 5.11952415e-02 5.39251883e-03 2.50349753e-02
      -1.33422064e-03 2.19458621e-02 -3.92484553e-02 4.42801863e-02
      1.10292971e-01 -4.78953449e-03 5.34919351e-02 7.01825097e-02
      1.94275659e-02 5.27626984e-02 -6.09398931e-02 -9.37709585e-02
      2.10731523e-03 -1.07236058e-01 -1.70707434e-01 1.81757975e-02
      -7.56972730e-02 -7.62008503e-02 -4.67497148e-02 8.06942135e-02
      8.63589067e-03 5.81416674e-02 -5.07850908e-02 -2.43172780e-01
      -1.41894341e-01 -7.59669486e-03 -4.10283916e-02 1.37468830e-01
      2.07657292e-01 1.16765834e-01 2.08148342e-02 -2.00969443e-01
      -1.39047205e-01 -1.95125610e-01 -5.36707602e-02 7.99721926e-02
      1.83141634e-01 5.82177844e-03 -9.21521932e-02 -1.32296309e-01
      -2.63395518e-01 -1.22647829e-01 -1.08930483e-01 -5.21753132e-02
      7.73853995e-03 4.02379893e-02 1.69242062e-02 2.27638092e-02
      5.34891151e-02 -6.45711347e-02 -6.69834763e-02 -3.59280854e-01
      -2.60979027e-01 3.30935419e-02 3.89643125e-02 -5.08159138e-02
      -1.80883706e-01 -1.48687229e-01 -2.31317371e-01 2.57571544e-02
      -2.30592415e-01 -2.41519630e-01 -8.66400450e-02 1.33249396e-02
      -3.02579682e-02 -1.66534439e-01 -6.87339753e-02 5.02529368e-02
      7.45662376e-02 -4.00500484e-02 -2.93760770e-03 4.85565886e-03
      3.91339138e-03 -4.77550551e-02 -1.69183880e-01 -4.40952927e-02
      8.19447488e-02 1.78091884e-01 -5.46365753e-02 1.20389767e-01
      4.53261286e-02 3.79785337e-02 -1.21800117e-01 -2.12792948e-01
      -5.10831065e-02 8.09450671e-02 2.27401093e-01 -7.42121041e-02
      -1.39648750e-01 -8.26091692e-02 -1.24607384e-01 -1.06235184e-01
      -1.65957808e-01 -2.66301222e-02 3.83264981e-02 2.86065817e-01
      -6.62135258e-02 -6.32234961e-02 -6.83294311e-02 -1.20672241e-01
      -1.87747497e-02 -1.40009463e-01 5.15821204e-02 1.64263770e-02
      -8.73807147e-02 -1.10233329e-01 1.64001271e-01 9.61329043e-02
      1.14441097e-01 2.20274348e-02 -1.31748719e-02 2.53500734e-02
      -6.05820715e-02 -8.81804675e-02 -9.00748745e-02 1.70106560e-01
      7.79858008e-02 1.59295201e-01 -2.77203764e-03 -1.13164544e-01
      5.43256253e-02 7.50518143e-02 4.90352027e-02 -1.23249903e-01
      1.11762241e-01 7.25932121e-02 8.23806226e-02 8.73913467e-02
      1.52127771e-02 6.81907237e-02 2.99055353e-02 -3.74866687e-02
      -1.20308399e-01 1.05169125e-01 1.11538641e-01 1.18767291e-01
      -1.80355936e-01 -1.95289522e-01 -8.80581066e-02 -1.17348544e-01
      -2.98616104e-02 -1.33415058e-01 4.53276671e-02 -8.12827330e-03
      3.10541037e-02 -1.63124844e-01 -1.34821236e-01 -5.19753359e-02
      -1.41306967e-01 9.84066352e-02 -1.32850679e-02 8.87763649e-02
      6.99317548e-03 4.02966440e-02 -6.63742647e-02 -5.82167804e-02
      1.53811276e-02 7.96449482e-02 9.96269435e-02 9.47100762e-03
      7.83655941e-02 -4.40404601e-02 -5.80432564e-02 -1.07297085e-01
      -1.25220465e-02 3.97674888e-02 7.40381181e-02 2.12581128e-01
      5.57235740e-02 5.22433706e-02 1.03870258e-02 -4.74403463e-02
      -3.00141703e-03 -1.35920392e-02 -4.10301387e-02 -2.16389471e-03
      2.23650336e-02 5.40860333e-02 2.11800579e-02 5.06190434e-02
      8.47362950e-02 8.53215605e-02 1.72695108e-02 -3.02603282e-02
      -5.39018065e-02 -4.14403379e-02 -1.83813404e-02 2.52047144e-02
      6.54435083e-02 -3.62035334e-02 1.05099499e-01 5.26307113e-02
      5.50587587e-02 -9.57970915e-04 -5.92983067e-02 1.77870970e-02
      -1.62854064e-02 -4.82664220e-02 -1.79946013e-02 2.80408170e-02
      8.26334432e-02 -1.58586316e-02 -1.78015027e-02 -1.34357810e-01
      -1.01884007e-01 -5.22399470e-02 -4.36185747e-02 -1.18373223e-01
      4.92451675e-02 2.12273654e-02 4.42207232e-02 4.31662910e-02
      -7.90421106e-03 2.41822023e-02 -1.43459497e-03 5.79253659e-02
      -6.22121468e-02 -2.07403395e-02 -9.62201040e-03 3.97241786e-02
      1.66376978e-01 5.94550222e-02 -1.96481738e-02 -5.39115742e-02
      1.83747597e-02 -1.12749144e-01 -5.34212701e-02 -4.18359675e-02
      -5.86043596e-02 -1.58139933e-02 -9.68187675e-02 -1.05453379e-01
      4.16965000e-02 3.95298079e-02 -1.47662595e-01 -8.20896700e-02
      -7.71565139e-02 -3.86829525e-02 -1.68106779e-02 8.67730659e-03
      -1.13247447e-01 9.05976538e-03 1.21581607e-01 -4.48041856e-02
      -5.89773320e-02 -9.43820104e-02 -1.23216085e-01 -8.63341242e-03
      3.23264897e-02 1.52921965e-02 -7.62664154e-02 -4.32080179e-02
      -2.14159086e-01 -1.73844174e-02 -4.83289957e-02 -7.74299800e-02
      -1.38785690e-02 -7.85180479e-02 -2.84527410e-02 -3.85506777e-03
      -2.73857974e-02 1.08564608e-02 -1.42892808e-01 -1.38044804e-01
      -1.06186964e-01 -1.21978847e-02 7.06737563e-02 -6.01424873e-02
      -3.43407802e-02 5.99787869e-02 -1.01500824e-01 2.55165482e-03
      -5.62011190e-02 -4.20479141e-02 2.97587644e-02 9.30150971e-02
      -2.62496364e-03 1.80610195e-02 -1.03154197e-01 -7.13435784e-02</_></support_vectors>
  <decision_functions>
    <_>
      <sv_count>1</sv_count>
      <rho>-4.4752573781953195e+00</rho>
      <alpha>
        1.</alpha>
      <index>
        0</index></_></decision_functions></my_svm>
</opencv_storage>
