<?xml version="1.0"?>
<opencv_storage>
<my_svm type_id="opencv-ml-svm">
  <svm_type>C_SVC</svm_type>
  <kernel><type>LINEAR</type></kernel>
  <C>1.0000000000000001e-01</C>
  <term_criteria><epsilon>1.1920928955078125e-07</epsilon>
    <iterations>1000</iterations></term_criteria>
  <var_all>1764</var_all>
  <var_count>1764</var_count>
  <class_count>2</class_count>
  <class_labels type_id="opencv-matrix">
    <rows>1</rows>
    <cols>2</cols>
    <dt>i</dt>
    <data>
      0 1</data></class_labels>
  <sv_total>1</sv_total>
  <support_vectors>
    <_>
      2.47244034e-02 1.66593324e-02 -2.45373789e-02 -2.26609960e-01
      -7.09274784e-02 1.87490601e-02 3.33173573e-02 1.12303510e-01
      3.00309155e-02 -2.31839321e-03 -2.16189343e-02 -9.90898684e-02
      -2.42396012e-01 -9.02660098e-03 -9.39333253e-03 2.18898635e-02
      -2.99282484e-02 -7.83823058e-02 -1.46794850e-02 8.56725350e-02
      4.03372161e-02 -2.49772504e-01 -9.97502059e-02 1.70333628e-02
      1.04881041e-01 1.47004709e-01 -4.41637747e-02 5.33483662e-02
      -6.67797849e-02 -4.12671566e-02 -2.31689602e-01 -1.05722278e-01
      -9.70200300e-02 -7.73052350e-02 -7.46104792e-02 -5.77223822e-02
      -4.97047603e-02 -1.97907463e-02 -3.04704923e-02 3.04645486e-02
      1.23572908e-01 1.09099001e-01 -3.94823328e-02 -1.19336255e-01
      -8.58964995e-02 -2.12838389e-02 7.50805140e-02 6.89216554e-02
      1.22994550e-01 2.18875870e-01 4.47868966e-02 -5.70875593e-02
      -5.88314012e-02 -9.13352445e-02 -8.27332307e-03 -2.61376426e-02
      6.01028726e-02 1.19408913e-01 3.93726900e-02 -1.92054324e-02
      -1.71988472e-01 -1.13362290e-01 -8.54240581e-02 -8.09522644e-02
      -2.49392893e-02 2.29734406e-02 1.57263801e-02 1.46653816e-01
      -1.91368293e-02 -9.30244550e-02 2.92876475e-02 -5.82593195e-02
      -6.16205707e-02 -6.96867406e-02 -2.88286004e-02 1.61717068e-02
      2.13191554e-01 1.45761967e-01 1.33818258e-02 -3.96217406e-02
      -9.31766406e-02 -1.09724686e-01 -4.53950390e-02 -4.13458608e-03
      7.60824559e-03 1.55607522e-01 6.84510916e-02 8.32157508e-02
      -1.02939695e-01 -1.59257308e-01 -9.42188352e-02 -1.53824836e-01
      -8.69692564e-02 -3.73778231e-02 1.12113789e-01 2.87403446e-02
      7.95313492e-02 7.78188854e-02 -4.33263332e-02 -5.89731000e-02
      -2.70468444e-02 5.45662977e-02 5.29176043e-03 -2.86063217e-02
      -1.05659226e-02 8.98539349e-02 6.13854639e-02 -5.65224551e-02
      -6.34616474e-03 6.44294024e-02 8.87483358e-02 6.02697134e-02
      5.28749600e-02 -1.06970116e-01 -8.53403658e-02 -1.37053654e-01
      -1.16699621e-01 6.50657341e-02 3.54209915e-02 9.15562212e-02
      1.62301794e-01 1.43208981e-01 -9.33209211e-02 -2.32888475e-01
      -6.53075278e-02 1.21834055e-02 7.77850151e-02 9.59274247e-02
      1.10456683e-01 5.95069081e-02 4.48679551e-02 -1.31274939e-01
      4.94753048e-02 4.09909934e-02 -3.27143306e-03 1.25239491e-01
      3.90284359e-02 7.02627227e-02 1.41459748e-01 1.95509847e-02
      -8.72600377e-02 -2.15710122e-02 5.04901707e-02 6.25116611e-03
      9.90900174e-02 6.09358586e-02 9.78972167e-02 1.13576353e-01
      2.97753103e-02 -1.89386189e-01 -1.67115346e-01 -1.50651624e-02
      2.97629442e-02 -1.13616325e-02 -9.83565953e-03 -3.28784157e-03
      -3.16312127e-02 -1.83855183e-02 -1.26418099e-01 9.16493963e-03
      6.74553812e-02 -7.76615366e-03 1.43124402e-01 9.54664052e-02
      1.22166015e-01 1.10348269e-01 -8.24058205e-02 -1.80504844e-01
      -1.21190377e-01 2.75954865e-02 1.03911459e-01 5.64237945e-02
      4.80991490e-02 2.84069888e-02 -2.49243136e-02 -8.04381147e-02
      -1.89039320e-01 -1.01128943e-01 1.25328116e-02 4.58939932e-02
      -1.25285074e-01 -4.23549227e-02 -4.98003028e-02 -3.38305496e-02
      -3.48094143e-02 -3.46470214e-02 8.07904229e-02 8.66119936e-02
      -4.59320247e-02 -1.77090257e-01 5.30686341e-02 5.67617677e-02
      -1.96097679e-02 6.63214698e-02 -2.54922081e-02 1.45329624e-01
      6.40105531e-02 -8.79702857e-04 -7.54289925e-02 -1.01638578e-01
      -7.07063079e-02 -4.55644801e-02 -5.71697764e-02 -4.22316417e-02
      -6.36598766e-02 4.59504798e-02 -4.53611426e-02 -6.03068508e-02
      -6.52005449e-02 3.95375676e-03 6.89036474e-02 2.89419834e-02
      1.08032338e-02 -9.82611347e-03 -6.55833930e-02 -9.54415351e-02
      -8.77900720e-02 8.63985121e-02 7.59115741e-02 -5.97579256e-02
      -5.51747493e-02 -1.36929974e-01 6.94641396e-02 1.28343524e-02
      -3.98213156e-02 -2.26514786e-02 5.80710620e-02 1.42515944e-02
      -1.28346041e-01 -1.11729978e-02 -1.09862402e-01 -6.75606430e-02
      -1.22474313e-01 -1.53896715e-02 -9.62857604e-02 2.10325383e-02
      -9.47910734e-03 9.24156979e-03 7.74734691e-02 -4.15969118e-02
      -1.27067799e-02 -3.59069519e-02 -6.89240471e-02 -1.06171064e-01
      -4.51151058e-02 -1.50562063e-01 -1.45774335e-01 1.65227186e-02
      -3.14547718e-02 4.43613008e-02 -4.12633568e-02 -6.39446899e-02
      1.69383883e-02 1.43552661e-01 1.24989688e-01 -1.18931994e-01
      -1.59684762e-01 -4.83133644e-02 9.12324116e-02 9.86879766e-02
      -3.42872925e-02 5.12981825e-02 3.65250185e-02 6.28095046e-02
      -1.24128260e-01 -1.41156718e-01 -1.71304196e-01 -4.34899740e-02
      -2.58587841e-02 8.91466159e-03 7.74970204e-02 1.65962547e-01
      1.23285681e-01 -1.67624354e-01 -9.77284685e-02 9.67184361e-03
      1.44093081e-01 1.18083976e-01 1.71385542e-03 3.95023748e-02
      1.93177313e-02 1.77891515e-02 -1.50864393e-01 -6.91986978e-02
      -1.45179227e-01 -4.22340520e-02 -1.25522371e-02 3.21330614e-02
      1.76260192e-02 -5.94700910e-02 5.79561442e-02 1.49730325e-01
      6.15056306e-02 2.05200631e-02 -1.23011224e-01 -1.11056134e-01
      -9.86369327e-02 3.11366152e-02 -1.54794576e-02 3.24781202e-02
      -3.80373523e-02 7.56174996e-02 7.19717937e-03 -7.17929238e-03
      -4.13652509e-02 -7.86441118e-02 1.51339956e-02 -6.60958067e-02
      3.62623925e-03 1.07615523e-01 8.37721750e-02 2.87180655e-02
      -6.56028613e-02 -5.67545779e-02 1.81026049e-02 1.16262622e-01
      5.08155636e-02 5.98722249e-02 -2.49886466e-03 3.27335522e-02
      6.14910433e-03 5.96818551e-02 -1.92109197e-02 1.47308543e-01
      3.64251658e-02 -2.92343460e-02 1.49524556e-02 -6.22708127e-02
      2.95028705e-02 -8.97875726e-02 4.26137298e-02 2.56897267e-02
      -2.46172945e-04 4.51790504e-02 7.59979188e-02 1.07826337e-01
      2.42073331e-02 -7.27250101e-03 -8.51795450e-02 3.76393646e-02
      -2.75138603e-03 -2.28964072e-02 8.95988494e-02 1.13832124e-01
      1.06643744e-01 -8.21820125e-02 4.80307750e-02 -4.60766330e-02
      1.52845746e-02 -1.32018745e-01 4.75101396e-02 2.67552249e-02
      3.57942581e-02 2.24502571e-02 6.23052306e-02 1.34011507e-01
      4.19698507e-02 6.20737523e-02 -8.72547105e-02 -3.83465700e-02
      6.06111772e-02 8.24105516e-02 4.00900207e-02 5.81970857e-03
      7.98978359e-02 -1.16797693e-01 5.76374196e-02 -1.02880768e-01
      -2.53797732e-02 1.15407847e-01 6.15706407e-02 3.82990688e-02
      7.29093999e-02 3.79214399e-02 -4.02940027e-02 3.07378881e-02
      4.28869942e-04 -9.20364109e-04 -3.06162052e-02 -2.98068579e-02
      -4.90357820e-03 5.95223233e-02 1.58391863e-01 3.38364653e-02
      7.47181475e-03 -1.49428219e-01 -5.97169101e-02 1.94427893e-02
      3.59421596e-02 4.46275845e-02 6.27316386e-02 2.26366352e-02
      -9.53845773e-03 -4.83783968e-02 -6.05087727e-02 1.81078594e-02
      -6.88851811e-03 2.18804237e-02 1.16589889e-02 3.02149206e-02
      -4.07964811e-02 -1.31522000e-01 -4.28386852e-02 4.49863821e-03
      5.02713770e-02 -5.79906143e-02 1.55486204e-02 -1.72855426e-02
      -1.11262582e-03 -3.28897648e-02 -9.85838473e-02 3.59896868e-02
      4.48746197e-02 -1.53808072e-02 -2.64174845e-02 2.47934926e-02
      6.22610524e-02 -1.67470016e-02 7.40401854e-04 -1.99036933e-02
      3.52291577e-02 4.08734493e-02 2.80481484e-03 -5.32639623e-02
      1.70470383e-02 9.27802641e-04 -2.16115341e-02 -5.19846715e-02
      -1.48303108e-02 1.23690978e-01 6.71076849e-02 -5.45196123e-02
      -9.68512818e-02 -7.45244920e-02 -3.57866287e-02 -3.34386602e-02
      -1.13965664e-02 -2.77726650e-02 1.51578020e-02 1.96987186e-02
      -1.05817445e-01 -2.87461542e-02 -1.87096782e-02 -4.20675278e-02
      -1.65170915e-02 -1.68501586e-02 -4.73966859e-02 -8.75314325e-03
      -5.66472821e-02 -9.24888328e-02 -8.39425996e-02 -2.84743914e-03
      -7.54106231e-03 -3.05849705e-02 -3.90250725e-03 -6.51978096e-03
      4.50463295e-02 -3.09076216e-02 -9.93455499e-02 -4.88728471e-02
      5.49404249e-02 -7.79626658e-03 2.00409926e-02 -5.45088015e-03
      -9.91683826e-02 -1.36361625e-02 -3.79051678e-02 -1.67817790e-02
      -3.72304693e-02 2.74174567e-02 -2.17783730e-02 -2.71141473e-02
      8.01038183e-03 -1.73564833e-02 -3.48266140e-02 -6.12486377e-02
      -9.34335291e-02 -8.99745971e-02 -8.03566873e-02 -5.93429469e-02
      -1.30712762e-01 -1.22922556e-02 -6.30466267e-02 -5.99234700e-02
      -7.96706751e-02 -5.99182360e-02 -2.82836389e-02 2.10523382e-02
      1.56216146e-02 2.00551040e-02 -3.34901772e-02 -2.65584663e-02
      4.30469513e-02 1.12642944e-02 -2.48123147e-02 -5.62244505e-02
      2.78851092e-02 3.00536100e-02 -7.40070362e-03 1.31154386e-02
      -2.06610542e-02 -1.05384529e-01 -9.00463611e-02 -3.60037088e-02
      9.96968299e-02 1.21744387e-01 1.26200885e-01 -2.11279809e-01
      -1.46303684e-01 8.75750929e-02 1.94648251e-01 1.45799756e-01
      8.38066861e-02 -6.21898239e-03 3.45528661e-03 6.21147081e-02
      -1.08503588e-01 -1.12914167e-01 -4.50061401e-03 7.00762961e-03
      2.47758832e-02 5.68564236e-02 -6.71387315e-02 -5.11563085e-02
      5.70983179e-02 -1.55518100e-01 -1.14568546e-01 -1.38234600e-01
      2.95503978e-02 8.52406695e-02 -1.76588342e-01 -7.77583867e-02
      -7.23212212e-02 5.32130003e-02 -1.15948014e-01 -9.08079147e-02
      -6.76860958e-02 -1.12912044e-01 -2.77807713e-02 -6.35521114e-02
      -5.22792935e-02 -4.19537909e-02 -4.10186835e-02 2.99690175e-03
      8.35138187e-02 5.17324246e-02 -5.54778092e-02 -1.79554932e-02
      2.37410907e-02 1.15703695e-01 6.92803115e-02 1.31610930e-02
      -8.64599645e-02 -8.45841132e-03 -1.24777406e-02 6.58574840e-03
      3.46325822e-02 1.47734657e-01 -6.37176037e-02 -5.03421463e-02
      -4.19241637e-02 5.08772321e-02 6.31093532e-02 3.74502279e-02
      -7.45303705e-02 -6.12010173e-02 -1.28121465e-01 5.88375367e-02
      1.43377304e-01 -3.17490511e-02 -8.19694176e-02 2.38091890e-02
      -3.44900005e-02 2.59153359e-02 3.46765965e-02 4.05708104e-02
      1.07655644e-01 6.98103607e-02 2.06659511e-02 -7.58315548e-02
      3.28349285e-02 -5.44248708e-02 2.30495613e-02 -6.87821358e-02
      6.82944357e-02 -8.88393633e-03 3.25969346e-02 1.13520818e-02
      -1.70646943e-02 7.23923743e-02 3.34513672e-02 4.49856743e-02
      -9.09878463e-02 -1.67148225e-02 2.55725738e-02 8.36580470e-02
      1.73977565e-03 -7.13308156e-02 1.58543438e-02 -6.97504804e-02
      -4.19064984e-03 -4.52857185e-03 2.06744503e-02 -1.45081664e-02
      1.00029588e-01 9.61655676e-02 1.40764005e-02 6.44504605e-03
      8.65576323e-03 6.15820214e-02 4.95760553e-02 -1.27677275e-02
      -1.05970904e-01 -5.28294593e-02 -9.38109029e-03 -4.03819382e-02
      5.47752809e-03 -1.18817110e-02 -4.98141311e-02 -1.08862288e-01
      -5.15563227e-02 -4.96702231e-02 2.99461316e-02 1.83526543e-03
      3.24962884e-02 1.68086849e-02 2.34489352e-03 -7.68359825e-02
      3.30670476e-02 -2.18817871e-02 -9.73789990e-02 -3.01750414e-02
      5.29935881e-02 3.52149664e-06 5.58220269e-03 -7.32249096e-02
      2.05710325e-02 4.77511529e-03 -1.89728644e-02 -4.18057442e-02
      6.87347203e-02 9.06943977e-02 3.81757058e-02 2.75810119e-02
      -2.17999495e-03 -1.19076355e-03 5.21985106e-02 -3.30285961e-03
      1.51660526e-02 2.12232359e-02 1.16736386e-02 -1.25585094e-01
      -6.89398497e-02 -2.27411799e-02 -1.49459986e-04 4.80270535e-02
      -2.36656070e-02 5.18460758e-02 5.19879088e-02 -3.00548095e-02
      -1.18642703e-01 -3.19534168e-02 -3.75292636e-02 3.22888643e-02
      -4.21432965e-02 2.35547926e-02 4.65709530e-03 8.02012533e-02
      3.35337855e-02 -3.80196497e-02 -3.68067287e-02 6.59336988e-03
      -7.82130957e-02 2.57390775e-02 3.24617652e-03 3.44947912e-02
      1.85410902e-02 -5.91379963e-02 -7.51858279e-02 -2.38469914e-02
      2.48780358e-03 -7.49669373e-02 -4.60833253e-04 -2.50102673e-02
      -5.33282803e-03 3.19460146e-02 -9.36566666e-03 -8.97928774e-02
      -2.67450698e-02 -6.46542385e-02 -6.12673461e-02 -1.19879544e-01
      -2.21410487e-02 3.29774269e-03 6.94052279e-02 1.45966224e-02
      1.35111827e-02 1.31783290e-02 -1.32680416e-01 -8.71302560e-02
      -6.83540031e-02 2.09885538e-02 6.32610321e-02 -6.59830542e-03
      -4.76777367e-02 -1.61860517e-05 -6.58059306e-03 -1.02117034e-02
      -5.34933135e-02 -7.98527077e-02 -8.98143575e-02 3.25957946e-02
      3.50316651e-02 -4.13048407e-03 2.81698611e-02 6.21184036e-02
      -4.21760790e-02 -8.27340689e-03 2.42710449e-02 2.94691492e-02
      -3.85102108e-02 -3.90775986e-02 -2.68961582e-02 -2.59781796e-02
      -2.81095412e-02 -8.69009197e-02 -1.75263844e-02 -4.58816811e-02
      -6.23491555e-02 -5.60026839e-02 -1.02888197e-02 4.18154144e-04
      -2.09744070e-02 -2.78746895e-02 -6.27711415e-02 -1.09287009e-01
      -6.17127381e-02 -1.47394523e-01 2.01288797e-02 1.11061474e-03
      -1.26184940e-01 -9.32287872e-02 8.70871395e-02 -2.05307864e-02
      6.54108673e-02 6.36858270e-02 3.75637040e-02 1.11465156e-02
      -9.31986084e-04 3.12826596e-02 5.66024473e-03 8.30117688e-02
      -3.40684205e-02 -1.05356071e-02 -5.52984998e-02 -7.03190714e-02
      -7.01269358e-02 1.82092618e-02 2.96868421e-02 8.01165178e-02
      -1.59560263e-01 -1.58289552e-01 -2.54347250e-02 3.22992876e-02
      -1.98660955e-01 1.43245626e-02 2.62181107e-02 2.95898765e-02
      1.91122368e-02 -1.26128212e-01 -1.30476996e-01 -1.17444888e-01
      3.71736847e-02 -3.90564986e-02 -1.47181712e-02 1.20165274e-02
      6.15609996e-03 -8.80291238e-02 -6.91374987e-02 -1.12785064e-01
      9.57440063e-02 3.26310731e-02 -1.39999554e-01 9.95510891e-02
      -1.59431137e-02 -9.77354869e-02 -1.48605049e-01 -7.83249289e-02
      -1.56392381e-01 -7.64241144e-02 9.71650481e-02 3.89722362e-02
      4.02005669e-03 8.98985006e-03 -2.76774857e-02 7.92053938e-02
      5.56499735e-02 -7.86255449e-02 -3.87151279e-02 6.87839184e-03
      -8.90074819e-02 3.04036662e-02 1.41323775e-01 -1.05933296e-02
      -6.78853467e-02 2.79528871e-02 -2.54941843e-02 5.04689626e-02
      2.81480644e-02 -1.57377403e-02 4.08094749e-02 -6.65174425e-02
      -1.15676649e-01 -6.37734979e-02 -5.84995113e-02 -4.05284949e-02
      -5.98345250e-02 8.20547864e-02 -3.55610661e-02 -3.22038643e-02
      1.50074521e-02 3.12135499e-02 -1.13420807e-01 -5.16976751e-02
      -7.08660632e-02 4.65117469e-02 6.02005944e-02 -2.88679674e-02
      -4.33628261e-02 9.33449622e-03 -8.25584866e-03 -5.15194423e-02
      -2.89814714e-02 -4.01405133e-02 2.51303297e-02 -3.36625278e-02
      -4.29165959e-02 -1.50378197e-02 5.19245071e-03 8.80463943e-02
      6.19242387e-03 3.20265740e-02 -4.00680378e-02 6.95745945e-02
      1.91365983e-02 3.31150256e-02 -7.89515078e-02 -1.31223360e-02
      4.67888266e-02 -9.95976031e-02 -6.82256743e-02 -1.36771426e-01
      -1.45170074e-02 -2.54641604e-02 1.30606890e-02 3.60511653e-02
      2.64799539e-02 7.97680244e-02 -3.34575959e-02 -3.29853334e-02
      -9.70876217e-02 2.08997708e-02 -1.47241401e-02 5.91059923e-02
      -6.30259216e-02 -8.26910138e-02 3.11970040e-02 3.08046513e-03
      7.62055889e-02 -8.82539824e-02 7.24404212e-03 -7.79158399e-02
      -5.81985191e-02 3.77249997e-03 1.77642498e-02 5.63146919e-02
      3.78912091e-02 1.06802113e-01 5.10968314e-03 -2.77575292e-02
      -3.13047431e-02 -3.78034785e-02 -8.69113654e-02 -9.50112119e-02
      3.67809576e-03 -4.40376736e-02 2.84635127e-02 -1.06843822e-02
      -6.01307303e-02 -1.66270390e-01 -1.00173309e-01 -1.65441466e-04
      -8.75744671e-02 -5.92966229e-02 1.78994350e-02 4.94285785e-02
      3.26608284e-03 -4.05341089e-02 -3.60812084e-03 8.47882591e-03
      8.05029795e-02 8.99736881e-02 6.05167225e-02 -4.66172546e-02
      -1.71374492e-02 -2.74084955e-02 -1.84820630e-02 3.95164825e-02
      3.69513519e-02 7.58601055e-02 -2.70511154e-02 -1.16957687e-02
      -2.78965645e-02 -5.78346103e-02 -5.16070910e-02 -5.36879525e-03
      4.64573316e-02 5.84560782e-02 9.95168090e-02 6.42820373e-02
      4.62463424e-02 -6.09879531e-02 -8.44025984e-02 -1.30030081e-01
      -5.65998144e-02 4.54304069e-02 2.84994617e-02 7.64058754e-02
      1.04202898e-02 5.00087887e-02 -1.32418275e-02 -1.62765682e-01
      -1.40714347e-01 -6.41257167e-02 -9.18148644e-03 -1.47512853e-01
      5.48275299e-02 -5.44697493e-02 -6.14573760e-03 3.72657143e-02
      -4.11328711e-02 -7.55396783e-02 -2.93219611e-02 -3.70393805e-02
      -4.52700555e-02 7.04409694e-03 -1.60797760e-02 -4.68344428e-02
      1.26127362e-01 1.35365784e-01 2.87851822e-02 -1.26205006e-04
      1.29645383e-02 1.22072613e-02 -2.16687676e-02 -3.52937840e-02
      1.64291114e-02 -1.24903545e-02 -7.93566629e-02 -7.67291561e-02
      -1.40826985e-01 -8.52418020e-02 -1.74199104e-01 -3.23787332e-02
      -7.80245813e-04 3.10054086e-02 3.60845290e-02 6.20531291e-03
      -1.63130686e-02 -4.72679585e-02 -5.00331819e-02 -6.59230649e-02
      -8.90564620e-02 -4.82478440e-02 -1.94439575e-01 -6.81709945e-02
      9.16299671e-02 -6.12665713e-02 -3.51997390e-02 1.80727672e-02
      1.17820045e-02 -2.24811230e-02 -4.66224179e-02 -3.28274369e-02
      -4.31561917e-02 9.57293510e-02 -1.29297987e-01 2.18074564e-02
      -1.28635867e-02 -2.53169835e-02 -6.78332299e-02 -7.50461817e-02
      -7.86005929e-02 -6.31256327e-02 -6.97196350e-02 -1.18889943e-01
      -9.16822851e-02 -1.07229091e-01 -6.46881610e-02 7.37590194e-02
      1.69768482e-02 -4.86575887e-02 -1.25782341e-01 -4.79800068e-02
      -1.26072258e-01 -3.48474346e-02 -1.67449974e-02 1.87744070e-02
      6.87540472e-02 -1.57324877e-02 7.58909970e-04 -9.39851776e-02
      -1.58008188e-01 -3.88815887e-02 8.03578645e-02 2.01459285e-02
      1.33872619e-02 7.01388270e-02 -6.86904415e-02 -1.44166335e-01
      -1.34372339e-01 -1.00276284e-01 -4.30876091e-02 -4.38314155e-02
      -2.10957564e-02 5.99855967e-02 1.75865442e-01 6.42607436e-02
      8.71075913e-02 -3.75237130e-02 -9.65171307e-02 -1.00984134e-01
      7.17026666e-02 9.99678522e-02 1.77452892e-01 -4.89935558e-03
      -8.28866288e-02 -9.21491534e-02 -1.04982227e-01 -7.37136602e-02
      -8.02206546e-02 -1.24801196e-01 -4.86664921e-02 1.79722477e-02
      2.64397338e-02 -4.53582741e-02 -1.05392516e-01 -8.58185142e-02
      -8.19963291e-02 2.14020532e-04 -9.71069336e-02 -2.31054686e-02
      1.04265530e-02 -2.66147293e-02 -2.85816332e-03 9.90857333e-02
      -5.79208881e-02 -6.47047907e-02 -1.31451249e-01 1.46378046e-02
      7.11816698e-02 1.47547135e-02 -8.85700956e-02 -6.91368580e-02
      -4.97226641e-02 -6.47788867e-02 -1.64720267e-02 -3.98100428e-02
      -1.11509919e-01 -4.62221652e-02 -8.71310458e-02 -8.96214321e-02
      -5.42129911e-02 2.76286211e-02 -8.73342007e-02 -3.97942960e-02
      -8.30348507e-02 5.54223312e-03 3.59457023e-02 -9.16186199e-02
      -6.79141209e-02 -1.53910769e-02 9.04111937e-02 -6.48282049e-03
      -1.31659940e-01 -1.27462864e-01 8.04362446e-02 6.97468445e-02
      -7.37887761e-03 -2.83611845e-02 -3.07208131e-04 8.15633312e-02
      -1.20844198e-02 -2.41626482e-02 -4.13617641e-02 7.52533749e-02
      9.98545140e-02 -7.54914293e-03 -3.15453485e-02 -8.12258497e-02
      -1.39373289e-02 -5.07393107e-03 -4.44083996e-02 -6.76749498e-02
      5.67248873e-02 6.56160265e-02 -2.92889029e-02 3.79588604e-02
      -8.40529278e-02 4.30891998e-02 2.69388687e-03 1.68305207e-02
      -1.94748491e-02 1.25756845e-01 1.12087637e-01 1.05057657e-01
      -1.55476779e-01 -7.65613765e-02 -1.77668408e-02 -7.64639154e-02
      3.88603956e-02 5.99170178e-02 3.09652612e-02 -2.51630582e-02
      -6.96088001e-02 -5.23233004e-02 -1.06945448e-01 -2.35109255e-02
      6.90288469e-02 4.54055183e-02 -1.97651833e-02 -3.57664600e-02
      3.36727500e-02 -3.75458933e-02 -9.47301164e-02 -1.35413602e-01
      -2.98794769e-02 -7.75527135e-02 8.76359716e-02 3.10529731e-02
      8.93563107e-02 -2.99627017e-02 7.74486223e-03 -1.07857976e-02
      -5.06955534e-02 -2.42465958e-02 -5.84148318e-02 1.47896662e-01
      1.78796463e-02 6.62302598e-04 -1.02372831e-02 6.13362640e-02
      -1.43227922e-02 -5.36618829e-02 1.21110352e-02 -4.70815189e-02
      -5.97532280e-02 -1.55487478e-01 -1.47216037e-01 -1.35499863e-02
      -3.02785207e-02 -6.80458546e-02 -3.67519185e-02 1.07718512e-01
      6.41054362e-02 -7.29753077e-03 -3.89579237e-02 -1.36702910e-01
      -9.95705575e-02 -2.37202227e-01 1.83164626e-02 -7.75333717e-02
      -1.58545543e-02 -9.46974475e-03 8.15441608e-02 5.31604979e-03
      -3.85486633e-02 2.01247726e-02 4.07818444e-02 -4.51638252e-02
      -5.24267629e-02 6.33529946e-02 9.52976197e-02 1.15825638e-01
      4.95001562e-02 -4.12308099e-03 -1.36354640e-01 -2.06561878e-01
      -7.50295967e-02 -1.24311540e-02 5.66907823e-02 -6.02578837e-03
      -3.16568986e-02 -4.35587279e-02 -8.10007080e-02 -6.00617044e-02
      -2.43605226e-01 -3.30627561e-02 5.86662889e-02 9.37097296e-02
      1.68841090e-02 -2.33139526e-02 -6.32872060e-02 3.00738253e-02
      2.72977520e-02 -5.58745265e-02 3.28064933e-02 -5.02929278e-03
      2.37826630e-02 -1.32604437e-02 9.42035019e-03 -7.08969906e-02
      4.08116588e-03 -9.94093418e-02 -1.47309825e-01 2.15118192e-02
      -1.23343039e-02 -1.26000512e-02 -7.28403702e-02 -6.77931532e-02
      3.88032116e-04 8.58874395e-02 6.41032830e-02 -3.63847837e-02
      -3.95574719e-02 -7.37956306e-03 2.27125436e-02 -5.65030538e-02
      -3.36964093e-02 -9.02388766e-02 9.11936536e-03 -3.77599895e-02
      -9.22080278e-02 2.89431736e-02 8.75191465e-02 2.45299749e-02
      -1.01208910e-01 -8.50631744e-02 -9.19786692e-02 2.05190983e-02
      5.49767464e-02 -2.28694566e-02 -8.97375941e-02 -1.36667728e-01
      -1.71557870e-02 -6.57803267e-02 -7.69981742e-02 -1.21885225e-01
      -9.80098099e-02 -1.28510177e-01 -1.27824217e-01 4.48452309e-02
      -2.75573283e-02 6.45670742e-02 2.96357255e-02 -4.17305864e-02
      -7.49762282e-02 -4.10370380e-02 -7.66545832e-02 -3.69620174e-02
      1.53893948e-01 9.57601070e-02 1.48669556e-01 1.64891165e-02
      -1.74455896e-01 -1.55821845e-01 -6.21268973e-02 6.23289049e-02
      1.55866623e-01 2.16859914e-02 2.32860688e-02 -6.58340845e-03
      -1.66141272e-01 -1.37539938e-01 -8.90790746e-02 -1.60650596e-01
      -8.26666132e-02 2.21645758e-02 1.51133597e-01 1.02266259e-01
      1.68869615e-01 1.91651694e-02 -1.18426807e-01 -8.56730416e-02
      -7.91406352e-03 1.43155754e-01 1.54720113e-01 -1.36386435e-02
      -4.08202857e-02 -4.68665473e-02 -1.54212013e-01 -1.21921994e-01
      -1.25447577e-02 2.00494169e-03 1.56216742e-03 -3.84528493e-03
      -4.80152592e-02 -4.83581476e-04 4.29908596e-02 -7.69191701e-03
      -1.80059011e-04 4.49741632e-02 -5.38740009e-02 -5.27174249e-02
      -5.21832779e-02 -3.61059271e-02 -3.97934839e-02 2.13336162e-02
      -5.30044064e-02 1.66981742e-02 -2.45285686e-02 -5.09688223e-04
      1.72403622e-02 -5.67201823e-02 2.28987285e-03 -4.24260944e-02
      -5.11666127e-02 -3.64780761e-02 -4.52595875e-02 3.90856937e-02
      2.18023136e-02 -1.74376406e-02 -7.73182604e-03 2.14631055e-02
      -1.52286971e-02 -4.04410362e-02 1.02927415e-02 6.00068644e-02
      -1.95013953e-03 3.57811637e-02 6.44855872e-02 1.05750471e-01
      -2.23688744e-02 -2.66911052e-02 3.57357748e-02 1.39763439e-02
      1.75321139e-02 -1.20316669e-02 4.24283147e-02 8.14845785e-02
      -5.94585529e-03 -1.59841292e-02 -7.31407385e-03 6.22322932e-02
      9.34108067e-03 -3.53208855e-02 -2.09959298e-02 1.22430772e-01
      6.23685308e-02 1.63439680e-02 4.21790406e-02 -5.87519445e-03
      2.84023993e-02 -6.36677537e-03 4.13262993e-02 -2.45706290e-02
      1.03069194e-01 1.18298598e-01 7.76883066e-02 1.15467208e-02
      -4.63702902e-02 2.14920901e-02 -6.85593905e-03 3.47864553e-02
      -4.06714045e-02 1.42026499e-01 9.20891389e-02 1.13224089e-01
      -7.04542696e-02 -1.98347777e-01 -1.02486059e-01 -1.25697479e-01
      -8.71723145e-03 -8.07809830e-03 9.58792791e-02 -3.43408138e-02
      -1.42197134e-02 5.07728122e-02 -1.48055658e-01 -6.39378056e-02
      -1.10541992e-01 9.57581922e-02 1.10596791e-03 2.55219042e-02
      1.73914991e-02 6.27548173e-02 -1.22967742e-01 -1.88814729e-01
      -4.89134341e-02 -9.52921808e-03 -3.18899029e-03 7.96704844e-04
      1.26224384e-01 3.17232832e-02 -2.32300255e-02 1.31179199e-01
      -5.29085919e-02 4.92553692e-03 -3.51315327e-02 5.91582358e-02
      2.41608452e-02 1.29062706e-03 7.84429759e-02 8.47633258e-02
      -1.28501160e-02 -8.86895359e-02 -3.61956619e-02 -7.09320754e-02
      4.36767228e-02 -3.35727669e-02 -5.65130729e-03 -2.58994475e-02
      3.74780893e-02 -4.54738438e-02 -6.55253679e-02 -2.71396022e-02
      -1.11391963e-02 5.82370684e-02 5.33391684e-02 -1.13313487e-02
      -1.08333297e-01 -1.04348749e-01 2.60167737e-02 9.61676124e-04
      4.18960676e-02 -5.72631806e-02 -7.95509201e-03 -7.52543956e-02
      -7.38781914e-02 -2.39345711e-02 2.56566592e-02 6.48710411e-05
      -6.54799715e-02 -3.14457938e-02 -1.11546531e-01 -2.81593520e-02
      2.92428234e-03 -9.33199674e-02 -9.40041915e-02 -2.92709228e-02
      1.85016077e-02 -2.46825218e-02 -1.99691914e-02 -4.92559560e-02
      -3.18962336e-02 3.43357436e-02 3.97090539e-02 -2.29556463e-03
      -4.80260216e-02 -8.80392045e-02 -9.96309817e-02 -1.10730097e-01
      -1.29907966e-01 -1.10268667e-01 5.35651715e-03 2.62933448e-02
      4.92694974e-02 -9.79012549e-02 -6.09304719e-02 -6.26746491e-02
      -2.26578005e-02 -5.17743826e-02 -2.88943760e-02 7.77291954e-02
      -7.98441004e-03 -2.14140005e-02 -5.72710782e-02 -8.50534141e-02
      -1.48961432e-02 -5.22560850e-02 -1.39393108e-02 -4.26758155e-02
      -4.92057949e-02 1.64168682e-02 1.64962895e-02 -4.88425195e-02
      -9.23407897e-02 -1.26699060e-01 -6.08463176e-02 -7.00188950e-02
      -4.69172932e-02 -1.05298012e-02 -7.72425756e-02 -2.51674037e-02
      -5.40667921e-02 2.02954523e-02 -3.85046266e-02 2.43149512e-02
      4.98918630e-02 4.75847013e-02 1.51808392e-02 9.57179964e-02
      3.96021865e-02 3.70149761e-02 -9.72605199e-02 -8.16022381e-02
      -6.71602786e-02 -7.48811290e-02 -8.44720155e-02 -2.45455336e-02
      -9.19108689e-02 -8.32564086e-02 -5.87003641e-02 -3.80131439e-03
      -2.31307875e-02 -5.78367114e-02 -2.63356157e-02 -6.64233118e-02
      -1.21293031e-02 4.31402735e-02 -1.05565041e-02 5.53105250e-02
      1.41632259e-01 1.19439974e-01 1.26312032e-01 -1.82174429e-01
      -1.76689327e-01 -7.75677562e-02 7.82048851e-02 1.56906798e-01
      1.67795539e-01 -4.96357344e-02 -2.68736351e-02 -1.07830562e-01
      -2.79221505e-01 -1.33348629e-01 -5.10573462e-02 8.65761414e-02
      4.61787954e-02 1.31589593e-02 8.50106701e-02 1.49245977e-01
      9.73003879e-02 -6.40060753e-02 -1.19060442e-01 -3.19045782e-01
      -1.25154302e-01 9.13577154e-02 1.02753825e-01 -1.24633282e-01
      -9.98320524e-03 -2.18820777e-02 -1.75183266e-01 -2.94614956e-02
      -9.15975422e-02 -1.34385124e-01 -3.55142690e-02 -2.32767891e-02
      -3.96445356e-02 -5.51517643e-02 -1.36833280e-01 -6.41761050e-02
      -1.58442874e-02 4.93504107e-03 7.84419477e-02 3.35680172e-02
      -2.72452086e-03 -5.63477539e-02 -3.64844501e-02 -8.85407776e-02
      6.42907864e-04 1.41374752e-01 -4.36161757e-02 5.80474064e-02
      1.07444428e-01 9.36227292e-02 -1.26010299e-01 -1.24923624e-01
      -7.80499279e-02 2.67388113e-02 1.36010885e-01 6.03566095e-02
      -3.38398442e-02 -1.59625579e-02 -4.26127948e-02 -1.73289329e-01
      -1.39645293e-01 -8.41560438e-02 2.17324086e-02 2.58108944e-01
      3.63542624e-02 -2.55602337e-02 -4.25495170e-02 -8.15165862e-02
      -6.58784658e-02 -1.11470848e-01 -2.47124694e-02 7.55487289e-03
      -1.02659408e-02 -5.33805415e-02 1.16633154e-01 1.39256582e-01
      9.00458321e-02 5.02109621e-03 -8.63034353e-02 1.62202027e-02
      7.68770501e-02 1.00343004e-02 -6.63481280e-02 2.01433405e-01
      1.74237058e-01 9.84754860e-02 -1.04534186e-01 -9.64352563e-02
      1.18769491e-02 7.80730844e-02 4.19455059e-02 -7.72594512e-02
      5.68189397e-02 5.92981391e-02 4.88427393e-02 3.60853970e-02
      2.12269519e-02 1.23455569e-01 1.10387243e-01 6.86043054e-02
      -7.12245703e-02 2.03065321e-01 1.94746196e-01 7.45607391e-02
      -1.89149842e-01 -2.63725281e-01 -1.27775744e-01 2.97380239e-02
      -5.88844344e-02 -6.50256649e-02 6.09926246e-02 -6.45701913e-03
      -7.19055384e-02 -6.58663586e-02 -1.49049982e-01 -4.99387160e-02
      -3.80430487e-03 7.11066127e-02 -8.08483735e-03 -4.24279906e-02
      2.24605333e-02 -1.20940059e-02 -9.29194018e-02 -1.51973724e-01
      -3.36062424e-02 1.38555497e-01 8.82756710e-02 -1.93787739e-02
      1.04012154e-01 7.85145611e-02 -3.71359624e-02 3.88419107e-02
      7.68129341e-03 5.27378060e-02 1.69577897e-01 1.16992548e-01
      8.30069110e-02 -2.45531872e-02 7.80908018e-02 5.85672669e-02
      6.60752952e-02 3.00452113e-02 5.21054976e-02 -7.68000074e-03
      2.91780308e-02 6.32418273e-03 -1.76598560e-02 2.43625306e-02
      7.08926246e-02 1.59948450e-02 -2.54395045e-02 -5.54712303e-02
      -1.52789041e-01 -3.60573716e-02 -2.84891445e-02 -1.73072815e-02
      -6.66472223e-03 3.23825292e-02 1.15656599e-01 7.88298473e-02
      4.11413051e-02 -6.26529679e-02 -4.81190868e-02 -5.34715224e-03
      -5.20712556e-03 3.46586667e-02 1.48327217e-01 6.98431060e-02
      -7.61829736e-03 -1.15114041e-01 -1.47470862e-01 -4.84397076e-02
      -3.18689942e-02 2.77956519e-02 -4.70725354e-03 6.31416738e-02
      -4.54459861e-02 -4.70867977e-02 -3.54400314e-02 -5.90282939e-02
      6.78480640e-02 1.10040538e-01 -1.48859341e-02 -3.21254395e-02
      -6.63530082e-02 -5.83857410e-02 -1.28380423e-02 -2.63061235e-03
      6.92343190e-02 1.11535363e-01 -7.06353858e-02 -6.72044456e-02
      -1.81772262e-02 -1.99500069e-01 2.93849688e-02 -6.88166246e-02
      -7.82937780e-02 -8.60146582e-02 7.58627206e-02 4.06856313e-02
      4.08392027e-03 -6.67291433e-02 -8.24832767e-02 -4.27978598e-02
      -3.11533399e-02 -1.02239773e-01 -3.37260477e-02 2.04109345e-02
      -8.54887962e-02 -8.95926952e-02 -5.78218023e-04 -2.25508641e-02
      -1.02172300e-01 -7.20361248e-02 -3.65415849e-02 -3.82915512e-02
      4.69271243e-02 -4.12774608e-02 -2.49184985e-02 -1.07354656e-01
      -1.35077253e-01 -6.12127557e-02 -5.10525294e-02 -2.25021467e-02
      3.51317152e-02 1.57832019e-02 -3.72814462e-02 -9.24111065e-03
      -8.33905675e-03 1.26177911e-03 -1.88603133e-01 -1.38377979e-01
      -1.09091662e-01 -5.50103374e-02 7.00687617e-02 -1.23025708e-01
      3.61812674e-02 6.23496948e-03 -9.08665657e-02 -4.25067209e-02
      -7.86185265e-02 -2.04830039e-02 4.49540280e-02 1.12717867e-01
      -8.48562941e-02 -1.46149658e-02 -4.20126878e-02 -5.91288991e-02</_></support_vectors>
  <decision_functions>
    <_>
      <sv_count>1</sv_count>
      <rho>-4.9091452776539120e+00</rho>
      <alpha>
        1.</alpha>
      <index>
        0</index></_></decision_functions></my_svm>
</opencv_storage>
