<?xml version="1.0"?>
<opencv_storage>
<my_svm type_id="opencv-ml-svm">
  <svm_type>C_SVC</svm_type>
  <kernel><type>LINEAR</type></kernel>
  <C>5.0000000000000000e-01</C>
  <term_criteria><epsilon>1.1920928955078125e-07</epsilon>
    <iterations>1000</iterations></term_criteria>
  <var_all>1764</var_all>
  <var_count>1764</var_count>
  <class_count>2</class_count>
  <class_labels type_id="opencv-matrix">
    <rows>1</rows>
    <cols>2</cols>
    <dt>i</dt>
    <data>
      0 1</data></class_labels>
  <sv_total>1</sv_total>
  <support_vectors>
    <_>
      -7.63201043e-02 -3.28109115e-02 -2.19011419e-02 -3.16110164e-01
      -3.32935870e-01 -2.20122263e-01 -6.14451319e-02 3.65476221e-01
      -3.57518606e-02 8.37927014e-02 1.33813894e-03 -1.91869736e-01
      -4.70022738e-01 -2.37800013e-02 -2.42842749e-01 4.73077781e-02
      -1.11864001e-01 -4.28624630e-01 -5.35861909e-01 2.52036095e-01
      -1.82079196e-01 -7.04116344e-01 -1.05079822e-01 -1.06371112e-01
      1.76844075e-01 3.10973406e-01 -4.72629637e-01 -1.59069896e-01
      -1.53735682e-01 -9.15990397e-02 -5.38435400e-01 -1.65934861e-01
      -2.58439988e-01 -4.80061382e-01 -3.62481564e-01 -3.98484051e-01
      8.47095102e-02 2.71295514e-02 -5.67302182e-02 -1.26479223e-01
      1.17889442e-01 2.13711545e-01 8.03412199e-02 -1.67434424e-01
      -1.08467989e-01 2.64898241e-01 5.02985179e-01 2.32748210e-01
      7.16038868e-02 8.15635398e-02 -3.25914007e-03 -1.00102164e-01
      -1.84175596e-01 1.85413793e-01 -3.52761820e-02 2.47887848e-03
      3.81590158e-01 3.99362624e-01 -1.80395786e-02 -1.09489888e-01
      -3.18637043e-01 -1.75049573e-01 -7.42569938e-02 5.89600727e-02
      -9.14069638e-03 5.32625662e-03 -4.43963520e-02 2.85588235e-01
      -9.92194265e-02 -1.11058563e-01 1.82566136e-01 5.77985682e-02
      1.32261008e-01 1.13732174e-01 -2.75268889e-04 9.30228308e-02
      2.33071312e-01 3.95608306e-01 -3.94824177e-01 -3.96593034e-01
      -4.61858958e-02 -1.15912817e-01 -3.83817405e-02 -9.58484188e-02
      -1.87833101e-01 -2.84145810e-02 1.48483455e-01 -9.72488672e-02
      -4.52913851e-01 -3.97629380e-01 2.67082676e-02 -2.53500015e-01
      -1.49321973e-01 -1.38469175e-01 4.61056121e-02 2.61004180e-01
      1.59455448e-01 1.61573052e-01 9.86151323e-02 -4.07238863e-02
      -1.60107598e-01 1.06558636e-01 -1.17666788e-01 -3.23614120e-01
      6.11232556e-02 1.71068907e-01 7.39297196e-02 -1.05849370e-01
      6.88160807e-02 1.26229957e-01 9.87698786e-06 -1.32172272e-01
      -2.01190725e-01 -3.60950619e-01 9.17174295e-02 -2.43190020e-01
      -2.24039197e-01 3.21542054e-01 1.59342706e-01 2.15936244e-01
      4.05366540e-01 3.20588112e-01 2.94014644e-02 -2.05728754e-01
      2.22019553e-01 1.37117997e-01 4.61869985e-02 -3.32657322e-02
      1.85514659e-01 -8.22358113e-03 -4.16846992e-03 -3.10535043e-01
      1.35921717e-01 1.12895302e-01 2.99988016e-02 9.16703641e-02
      -1.52297586e-01 -1.09741360e-01 2.90408492e-01 -3.85050811e-02
      1.31599590e-01 8.39352757e-02 4.28412139e-01 -1.54568776e-01
      4.54641074e-01 2.04514386e-03 1.08160384e-01 8.53682011e-02
      5.46825491e-02 -3.34573299e-01 -4.04859126e-01 -8.01169574e-02
      1.00101121e-01 1.18780613e-01 -8.15339163e-02 -1.97812840e-01
      3.76351364e-02 1.07003145e-01 -1.20313585e-01 1.21148519e-01
      -1.30682781e-01 -3.50630805e-02 6.52435422e-02 -1.60767540e-01
      1.48108184e-01 1.94780514e-01 -1.25966772e-01 -7.17096403e-02
      -1.67482734e-01 -5.62664792e-02 5.00339922e-03 2.81959027e-02
      5.17832041e-02 -6.64881244e-02 4.26924713e-02 -3.96571130e-01
      -1.99052885e-01 3.86343300e-02 -1.35603994e-01 -6.94785314e-03
      -3.10381297e-02 1.16898574e-01 -4.67282161e-02 1.43334297e-02
      -6.17958382e-02 4.26542424e-02 2.77834415e-01 1.36494637e-01
      -2.16535419e-01 -2.42051840e-01 1.23243876e-01 3.21865469e-01
      -1.64021820e-01 1.08391024e-01 -2.00464725e-02 2.45270342e-01
      7.18296096e-02 -2.96100020e-01 -2.31675338e-03 -7.44029805e-02
      -1.32784799e-01 -1.67318597e-01 -3.17193210e-01 -4.64725234e-02
      -1.48046479e-01 2.42332108e-02 -1.19334668e-01 -2.24473581e-01
      -1.00586966e-01 8.82468820e-02 -2.80614328e-02 -1.59803331e-01
      -1.55419528e-01 -3.17827493e-01 -1.77550197e-01 -3.21169585e-01
      -1.46529138e-01 1.47783980e-01 2.31923789e-01 -2.99479008e-01
      -3.96425724e-01 -3.11199814e-01 1.20081022e-01 -1.87632274e-02
      -3.97501975e-01 -1.26359656e-01 1.38503090e-01 -1.35420427e-01
      -3.89166445e-01 -1.92880526e-01 -4.01133865e-01 -3.74175906e-01
      -2.08929434e-01 -5.97725734e-02 -2.68762589e-01 -1.14288539e-01
      -4.61724661e-02 5.05373031e-02 1.60582021e-01 -4.87401485e-02
      3.15754786e-02 -6.91634789e-02 -9.21600983e-02 -1.63869634e-01
      -1.92191273e-01 -3.05758029e-01 -2.39902079e-01 -1.76838655e-02
      -1.28719687e-01 2.07100466e-01 7.89607018e-02 -3.50684635e-02
      -4.22172785e-01 4.19746906e-01 2.60712773e-01 -8.07699859e-02
      -3.25150400e-01 -9.97164324e-02 3.05763394e-01 2.44208753e-01
      -3.51557612e-01 3.41396593e-02 9.09367129e-02 5.75583689e-02
      -1.22705191e-01 -4.06998724e-01 -2.59018779e-01 2.14668363e-01
      2.15259716e-01 8.91462713e-02 -1.92299739e-01 3.91619921e-01
      1.12307087e-01 -9.21704173e-02 -1.78278729e-01 -8.70253146e-02
      6.82917386e-02 7.64506310e-02 -3.45664263e-01 5.45899533e-02
      -7.57058188e-02 1.81235820e-02 -3.87088358e-01 3.88188139e-02
      -2.35409409e-01 -1.43203452e-01 -9.56874564e-02 3.98974121e-03
      -6.57311156e-02 -1.89715356e-01 -6.19397238e-02 3.62050384e-01
      -8.59257355e-02 2.14506119e-01 1.50064155e-01 3.21037471e-02
      5.56631340e-03 2.35281572e-01 9.47570503e-02 5.69510311e-02
      5.80410287e-02 1.65196866e-01 4.60432060e-02 1.53980881e-01
      1.37050256e-01 6.38373494e-02 8.09255019e-02 -3.96044612e-01
      -2.26461649e-01 2.99015194e-01 7.33763948e-02 5.15313186e-02
      -6.31628558e-02 -3.08755375e-02 -7.06045628e-02 2.94487298e-01
      -5.64195625e-02 6.03697412e-02 4.30883840e-02 1.84152741e-02
      -2.80733258e-02 3.48673880e-01 1.18280314e-01 4.70972240e-01
      1.64638907e-01 -1.27243191e-01 5.39632142e-02 1.06091183e-02
      6.43256158e-02 -3.22482847e-02 5.63361570e-02 8.90610740e-02
      2.89109230e-01 6.54915646e-02 2.37287119e-01 1.85973048e-01
      7.30595216e-02 -2.15029746e-01 -5.81038147e-02 -5.70674334e-03
      -4.46886830e-02 -1.54952362e-01 1.03029750e-01 5.02292924e-02
      1.80957645e-01 -1.13011740e-01 1.04865022e-01 6.17283955e-02
      -1.09150767e-01 -2.75915325e-01 2.41896138e-02 -1.64889872e-01
      4.60265763e-02 4.79938090e-02 -5.53136282e-02 1.21492758e-01
      2.45991781e-01 2.42784724e-01 9.38677862e-02 -1.14935249e-01
      -5.67571409e-02 1.50485905e-02 6.32595718e-02 6.87638149e-02
      1.10311970e-01 -7.99010992e-02 -8.30405392e-04 -2.87381470e-01
      -1.81303918e-02 2.03109443e-01 5.38273975e-02 -1.61051959e-01
      1.22817658e-01 -3.88852768e-02 1.97358325e-01 -6.64349198e-02
      2.09356263e-01 5.05472161e-02 -9.72819552e-02 -2.23896325e-01
      9.84188393e-02 -9.34346318e-02 6.25546277e-02 -7.68901631e-02
      -2.02032641e-01 -1.80289865e-01 -4.76640612e-02 2.17134178e-01
      -1.08813263e-01 -4.97635175e-03 -1.01948166e-02 -1.18753314e-01
      1.61067888e-01 -3.17908734e-01 -2.19369144e-03 2.15562657e-01
      -2.50857055e-01 -1.58990741e-01 -1.75392497e-02 1.04480959e-01
      -2.95924600e-02 -7.42246509e-02 3.87496222e-03 1.85684845e-01
      2.76420146e-01 -2.93047994e-01 -4.67906594e-02 -8.38325396e-02
      1.53154925e-01 -1.09404169e-01 -8.74125361e-02 1.61081225e-01
      1.01856910e-01 8.02435130e-02 -2.89199919e-01 -2.52115428e-02
      1.32592857e-01 -5.16253971e-02 -7.02292174e-02 -8.01075250e-02
      -1.74938798e-01 -2.05188524e-02 -2.24832341e-01 -1.44500777e-01
      7.24961609e-02 3.81375812e-02 2.23414406e-01 -1.05236702e-01
      1.38388485e-01 1.57956913e-01 1.81948692e-01 7.08245486e-03
      1.52528331e-01 3.33077759e-02 1.77424215e-02 -1.86857563e-02
      -2.73165852e-02 8.30758438e-02 1.27586022e-01 -6.21074326e-02
      -1.01334661e-01 3.60374637e-02 1.03382640e-01 3.71189527e-02
      -1.29678771e-01 -3.40387411e-02 -1.95478231e-01 -1.54021993e-01
      -1.30036503e-01 -3.04871380e-01 1.16156153e-01 -3.17189731e-02
      9.75408629e-02 1.13890223e-01 -4.33823280e-02 1.36725739e-01
      1.12329885e-01 -1.57002017e-01 -1.14526123e-01 7.70286843e-02
      1.34646922e-01 6.02224804e-02 8.52393731e-03 -1.39033571e-01
      -2.81189233e-01 -8.06467086e-02 1.29489424e-02 -1.76453236e-02
      -1.94143176e-01 2.50745676e-02 -5.10430336e-02 6.15448058e-02
      3.02665412e-01 -2.07101569e-01 -1.99320793e-01 -1.33441091e-01
      -2.98692852e-01 -2.98664033e-01 -1.21440142e-01 5.62324515e-03
      -3.52519989e-01 -2.15709373e-01 -2.64153749e-01 8.89559463e-03
      2.79596388e-01 1.73944205e-01 -1.63837507e-01 -3.14278179e-04
      -5.38475104e-02 3.54892492e-01 -1.59377590e-01 -1.02145365e-02
      4.00357731e-02 -3.14112462e-04 -1.06866628e-01 3.88965756e-02
      6.06723912e-02 5.35570346e-02 -2.58128308e-02 -1.97736427e-01
      6.91414103e-02 -3.16299140e-01 -1.83543861e-01 1.36457309e-02
      3.17110345e-02 4.01280344e-01 2.36152142e-01 -4.24512923e-01
      -2.53036261e-01 5.02904534e-01 3.40169668e-01 3.08410496e-01
      1.16555914e-01 -1.55782416e-01 -1.15492687e-01 1.24336161e-01
      -2.36263722e-01 -1.92669392e-01 -1.16171040e-01 -2.53451377e-01
      -5.06551638e-02 9.32975486e-03 -4.14802849e-01 -4.24481034e-02
      3.16363871e-02 -4.77409422e-01 -1.05181344e-01 -4.05832380e-02
      2.48182453e-02 3.07706803e-01 -6.20079696e-01 -4.03576523e-01
      -3.02073270e-01 5.61845116e-02 -3.74187231e-01 -1.98113665e-01
      5.70112490e-04 -4.75218624e-01 -9.90447849e-02 -2.16501027e-01
      -5.90648241e-02 -1.03213973e-01 -1.50059864e-01 -2.98562311e-02
      8.16360936e-02 1.04013151e-02 -9.97980610e-02 -1.00785114e-01
      -5.19163236e-02 1.69971988e-01 1.08531453e-01 5.83719797e-02
      -6.12836741e-02 1.26812086e-01 1.50271058e-01 -5.25094569e-02
      1.10471345e-01 2.95347989e-01 -3.84139293e-03 3.42600122e-02
      -1.71805471e-01 -4.06341404e-02 2.14266554e-01 2.70393435e-02
      -1.69778064e-01 -5.44888042e-02 -1.56402767e-01 2.08155081e-01
      3.10336500e-01 -3.03710867e-02 -8.12924467e-03 2.04662576e-01
      -2.59193420e-01 3.30657624e-02 1.84710901e-02 3.43234271e-01
      1.11305088e-01 4.87674102e-02 1.84800010e-02 -5.99769093e-02
      -3.18232067e-02 2.58145690e-01 -1.30832285e-01 -3.05288043e-02
      4.93137464e-02 -1.51102856e-01 2.56955884e-02 1.84997678e-01
      -2.41378874e-01 -5.13331816e-02 1.56576753e-01 2.36789212e-01
      1.20315529e-01 -1.35744736e-01 -1.30157638e-02 3.43043841e-02
      -1.99506115e-02 -1.08551152e-01 1.28155261e-01 1.36198670e-01
      -4.98957373e-02 -5.10792471e-02 6.55288771e-02 7.53407925e-02
      2.77095914e-01 5.74534871e-02 -2.59254593e-02 2.11420342e-01
      -9.95423421e-02 -1.99845210e-02 1.25747547e-01 3.86752300e-02
      -2.11896330e-01 -3.25701535e-01 8.79646689e-02 -1.68101028e-01
      -3.06856543e-01 -2.56011695e-01 -2.45689407e-01 -2.76048750e-01
      -1.62856225e-02 -2.42844522e-02 -4.20355313e-02 -5.96975386e-02
      1.32412776e-01 9.46797207e-02 8.09364114e-03 -3.45180422e-01
      6.66954368e-02 1.94399744e-01 -1.39831692e-01 -3.48456427e-02
      1.96418036e-02 1.92450788e-02 -3.35425436e-01 -2.84365386e-01
      -9.25084129e-02 1.17925671e-03 2.48737186e-02 -6.79111928e-02
      1.10368140e-01 1.74370423e-01 6.14798330e-02 -1.85877129e-01
      -7.49517791e-03 -1.59282923e-01 1.38611495e-01 1.15397155e-01
      -1.95515722e-01 3.47613692e-02 -5.33315875e-02 -3.33849728e-01
      7.36829415e-02 -1.21930763e-01 -4.34086006e-03 1.67251259e-01
      -7.14638159e-02 -1.70129672e-01 2.01313451e-01 -1.08859673e-01
      -8.13319907e-02 9.13657993e-02 -1.88459247e-01 1.70656890e-01
      -3.33902836e-02 1.24633014e-01 -1.54670522e-01 1.88983783e-01
      -3.66584137e-02 -1.31856322e-01 -7.75150284e-02 4.66766320e-02
      -1.86470583e-01 8.23574811e-02 1.22345991e-01 -1.15106434e-01
      2.05362231e-01 -1.86574280e-01 -2.88635008e-02 1.28997847e-01
      2.90238182e-03 -7.00388774e-02 -2.15163408e-03 -3.58848572e-02
      -6.45424947e-02 8.86618532e-03 4.69122380e-02 -4.88566868e-02
      1.13379858e-01 1.31163215e-02 -4.17853557e-02 -9.47159156e-02
      -6.22508489e-02 5.97292408e-02 -2.15059090e-02 5.01651876e-02
      -9.92140174e-02 -6.51203543e-02 -1.01317443e-01 -7.39893466e-02
      7.98640177e-02 8.09159875e-02 1.95644408e-01 2.28218392e-01
      8.46666768e-02 9.53233913e-02 1.26097471e-01 9.92258359e-03
      1.82503331e-02 -1.37630299e-01 -8.32933262e-02 -1.67499185e-02
      1.33442003e-02 -8.72545913e-02 -4.37715417e-03 1.47327017e-02
      2.76130587e-02 -3.72486450e-02 -5.31388372e-02 -1.96800411e-01
      4.38075364e-02 -1.86632112e-01 9.05236974e-03 3.67896669e-02
      -1.34815186e-01 -1.25354409e-01 1.34935051e-01 -6.82660714e-02
      3.51600791e-03 1.01873316e-01 -5.83641902e-02 -2.33398154e-02
      3.47620286e-02 -2.11676463e-01 7.00799003e-02 -1.51594073e-01
      -2.50496324e-02 -1.40456542e-01 8.52278396e-02 1.60803378e-03
      -2.77512550e-01 -3.72797519e-01 -8.91463645e-03 6.39010370e-02
      1.07788429e-01 1.40051320e-01 4.80085909e-02 1.88463375e-01
      -7.53601938e-02 3.60565074e-02 -4.02548164e-02 -7.60542452e-02
      1.20183885e-01 -1.88918523e-02 -1.23048853e-02 -2.63171911e-01
      -2.03939691e-01 -3.74352299e-02 -4.01341617e-02 3.65735710e-01
      -5.29422700e-01 -2.76465386e-01 -1.84856936e-01 1.38322130e-01
      -5.71841180e-01 2.49216426e-02 1.52457252e-01 1.50515884e-01
      -7.01021254e-02 -4.17180002e-01 -2.04702448e-02 -1.96420953e-01
      1.55366510e-01 -4.74399142e-02 -1.18515916e-01 -1.40613779e-01
      -2.36673746e-02 -2.18852654e-01 -2.78478831e-01 -3.40155900e-01
      1.15053199e-01 -1.01946585e-01 -4.88976628e-01 1.07720569e-01
      -2.40646318e-01 -8.69354010e-02 -2.33496100e-01 -1.30093247e-01
      -1.59762681e-01 -2.61125565e-01 6.96558356e-02 5.31005450e-02
      -2.76609153e-01 2.57330686e-01 -2.18508631e-01 -6.20992947e-03
      -8.05191100e-02 -2.59463727e-01 1.24130659e-01 1.84046701e-01
      -3.12577665e-01 -3.76379788e-02 1.89471841e-01 4.98188995e-02
      -1.62466720e-01 1.77343518e-01 -1.65654555e-01 1.76602408e-01
      1.80900335e-01 1.25609949e-01 -2.28013843e-02 -9.26868320e-02
      -3.34280729e-01 5.03682345e-02 -1.24503143e-01 1.93484444e-02
      4.68224511e-02 1.81265831e-01 -3.22318599e-02 -2.50286669e-01
      1.41506651e-02 -1.16315432e-01 -3.45176667e-01 -2.97740120e-02
      1.00589963e-02 1.87187120e-01 2.24935085e-01 -4.32895869e-02
      -1.12016737e-01 -5.67352846e-02 1.56894624e-02 1.94368795e-01
      1.87652320e-01 2.43239790e-01 -1.48365602e-01 -2.22282261e-01
      -2.16661587e-01 -5.11853844e-02 -6.56137913e-02 4.93874662e-02
      -2.07801163e-02 2.79155910e-01 1.13337114e-01 8.45975354e-02
      6.66848272e-02 1.02925144e-01 -1.65993914e-01 -5.73733747e-02
      -1.29509848e-02 -3.32490146e-01 -3.15213241e-02 -1.90820768e-01
      -1.61159486e-01 -9.65370238e-02 -1.44919276e-01 1.16861351e-02
      -2.51599762e-04 1.73383102e-01 -3.41865003e-01 -1.03941206e-02
      -9.09644514e-02 1.06862806e-01 -8.40581059e-02 6.67550117e-02
      -2.51506209e-01 -3.13295245e-01 -6.65370226e-02 -1.80327520e-01
      -4.47913110e-02 2.31670644e-02 6.72988221e-02 -2.18038112e-01
      -2.26182401e-01 1.55259416e-01 -9.96703003e-03 4.45392355e-03
      -3.79786156e-02 2.94469237e-01 2.74512440e-01 -1.47448212e-01
      -9.96093303e-02 6.65924475e-02 -1.90515682e-01 -9.95993465e-02
      1.03874795e-01 -2.36357182e-01 -7.84933493e-02 -5.35702631e-02
      -1.22231476e-01 -4.41839367e-01 -1.26986355e-01 -8.43016952e-02
      -1.32457018e-01 -8.77176449e-02 2.24340871e-01 4.76280078e-02
      1.25811562e-01 2.70694401e-02 -3.97216380e-02 4.62734997e-02
      2.22424015e-01 1.63770095e-01 -4.40831706e-02 -1.43843472e-01
      2.52177835e-01 1.07238270e-01 -5.36926314e-02 9.17253494e-02
      1.98807684e-04 3.52994986e-02 -1.67506456e-01 -8.17409456e-02
      -2.29463190e-01 7.59457648e-02 -2.39087529e-02 1.46695450e-01
      2.92459428e-01 2.29948953e-01 3.22851598e-01 1.90525055e-01
      5.55395186e-02 -6.37197271e-02 -9.34069604e-02 -2.10720181e-01
      -1.44837216e-01 6.50455058e-02 1.17106205e-02 2.59075433e-01
      2.61554513e-02 1.62789881e-01 -9.15495157e-02 -2.86797166e-01
      -4.69893701e-02 1.19774781e-01 -2.43145544e-02 -2.12550536e-01
      -5.40465824e-02 -1.97058424e-01 -7.08486512e-02 5.49649633e-02
      -1.69442549e-01 -1.82016551e-01 1.62492499e-01 1.49470549e-02
      -1.50272712e-01 -4.86202016e-02 1.60032004e-01 -1.11101583e-01
      1.81237653e-01 2.24169791e-01 1.98440313e-01 2.09103495e-01
      -2.70868361e-01 4.99154478e-02 9.63574182e-03 1.57172695e-01
      9.87437367e-02 -4.12400328e-02 -7.23811239e-02 9.14624184e-02
      -1.85402870e-01 6.04143068e-02 -1.23344988e-01 -1.05130285e-01
      8.69382769e-02 1.08426046e-02 3.10534500e-02 -6.90214634e-02
      3.05529125e-02 7.86335543e-02 2.78062429e-02 -4.10528444e-02
      -1.23262793e-01 1.79655179e-02 -1.08712971e-01 -1.33408874e-01
      3.24439704e-02 -1.29894778e-01 3.08632497e-02 -6.44515008e-02
      2.56150160e-02 -1.32379621e-01 -2.09808230e-01 -5.48911504e-02
      9.18413773e-02 1.92333966e-01 -2.08037481e-01 -7.62275979e-02
      9.31957886e-02 -5.77221960e-02 -3.36185306e-01 -1.63620591e-01
      7.37276450e-02 2.66870745e-02 -9.75254104e-02 -2.62534350e-01
      -4.02628407e-02 -3.77019852e-01 -1.26181602e-01 6.64195418e-02
      -1.86389852e-02 6.21401556e-02 -7.71556571e-02 -6.05551265e-02
      -2.56484985e-01 -2.65599210e-02 -1.55152440e-01 -9.41188782e-02
      -4.89327721e-02 -2.01214060e-01 -1.12191208e-01 -1.78990275e-01
      -4.83447284e-01 3.20427455e-02 1.07133135e-01 -1.56706348e-01
      -8.91369879e-02 9.78108421e-02 -2.88789511e-01 -1.20294787e-01
      -1.74041718e-01 -3.71581912e-01 -2.08029836e-01 -4.36266422e-01
      -3.28528941e-01 1.78564668e-01 7.02754632e-02 1.10842682e-01
      3.23371857e-01 2.12026536e-01 -3.45417291e-01 3.09523772e-02
      3.36101092e-02 -1.32944673e-01 1.10628136e-01 -2.48794794e-01
      -3.56760204e-01 -3.00226122e-01 -2.69360304e-01 -1.36128813e-01
      1.47900388e-01 -1.84268907e-01 -5.40241823e-02 -5.87522201e-02
      9.90118235e-02 4.71892729e-02 -1.46235466e-01 -2.48418435e-01
      -3.12843353e-01 -3.15632463e-01 -2.88411081e-01 -1.93560034e-01
      9.48071480e-02 -5.12658507e-02 1.69510961e-01 3.66083384e-02
      -1.87721089e-01 -2.46788502e-01 -3.19799155e-01 -2.82840952e-02
      1.38081864e-01 -1.62166301e-02 -1.79097325e-01 -7.55595639e-02
      -1.40230149e-01 -1.07808173e-01 -1.77131116e-01 -2.79669195e-01
      -4.53660972e-02 9.08528715e-02 -1.14168718e-01 -1.42458886e-01
      6.07756451e-02 -5.23513444e-02 -2.62006640e-01 -2.78214633e-01
      -3.59771460e-01 -1.30600840e-01 4.16391306e-02 -2.52809078e-01
      -5.96553236e-02 -1.09046459e-01 5.07126674e-02 1.93094641e-01
      -3.06548566e-01 -1.66239053e-01 2.40947470e-01 -4.27937135e-02
      4.35175151e-02 -4.34955657e-02 -1.77235439e-01 1.71201006e-01
      6.46408200e-02 -1.52436927e-01 -1.28870666e-01 1.43036366e-01
      1.95480555e-01 -2.10648049e-02 -2.23853841e-01 2.67635807e-02
      -2.75772125e-01 9.10696015e-02 3.59520987e-02 1.16701879e-01
      1.98564738e-01 -9.82396975e-02 -2.35879704e-01 2.59634018e-01
      9.46892500e-02 2.00936407e-01 1.84927091e-01 2.95159575e-02
      -3.59586328e-02 2.50225842e-01 -1.39287384e-02 1.62950680e-01
      -4.30090576e-01 -2.68665731e-01 -9.26356018e-02 -1.20941274e-01
      5.75188398e-02 4.30468097e-02 -1.01628780e-01 -9.36875958e-03
      1.32869286e-02 -2.83155710e-01 -2.38183692e-01 8.68998021e-02
      1.83685914e-01 -4.95315529e-03 2.66120508e-02 -3.93976159e-02
      1.77067563e-01 4.63537350e-02 -2.04936370e-01 -1.27688274e-01
      -1.68175306e-02 8.55145305e-02 -1.99754108e-02 -1.09199420e-01
      -1.28990486e-01 -2.25619987e-01 -9.28521305e-02 -2.38228068e-02
      2.18612894e-01 -8.97891168e-03 -1.25173241e-01 8.73593688e-02
      2.56734908e-01 1.96653064e-02 -3.36008109e-02 5.96723221e-02
      -1.49291933e-01 -1.95492625e-01 -2.15523154e-01 -1.58222869e-01
      -1.25565052e-01 -4.23368394e-01 -1.71645135e-01 5.72596043e-02
      -1.58377260e-01 -1.79588884e-01 -5.25010042e-02 2.06309725e-02
      1.74745664e-01 8.91475379e-02 -2.08771646e-01 -2.47827783e-01
      -2.04796061e-01 -4.03736502e-01 9.78893116e-02 -4.64907214e-02
      -2.52110162e-03 -6.77915588e-02 6.44196123e-02 1.17343150e-01
      -6.14508055e-02 2.90329251e-02 1.58601433e-01 3.76264192e-02
      -4.54507098e-02 -1.99564531e-01 3.84837948e-02 6.55883923e-02
      1.23754246e-02 1.33096814e-01 -1.02319613e-01 -2.42204890e-01
      -3.35552581e-02 3.67157571e-02 -6.30023032e-02 2.01339796e-02
      -9.16920230e-02 -3.08052730e-02 -2.15513110e-01 -1.31492957e-01
      -8.43501315e-02 4.75873537e-02 1.58357233e-01 -9.65343416e-02
      -1.53700918e-01 -9.02444348e-02 -2.18682393e-01 -5.40047921e-02
      5.56214936e-02 2.69412845e-01 1.49298757e-01 8.96302387e-02
      -1.72866374e-01 -4.40737121e-02 4.85973991e-02 -3.57551038e-01
      -1.80733204e-02 -1.65717691e-01 1.01642795e-01 9.65838581e-02
      -4.19463031e-02 -2.35064253e-01 -1.64037347e-01 -2.26093292e-01
      1.29834056e-01 5.93594909e-02 1.87048286e-01 3.70255336e-02
      -1.07439324e-01 3.49817029e-03 -6.24759048e-02 -2.08132938e-01
      6.27415106e-02 4.45555896e-02 -6.92741349e-02 -3.02885994e-02
      -1.08046398e-01 -8.11557695e-02 1.26678035e-01 -1.23488151e-01
      -2.50929266e-01 -1.08831540e-01 -3.59167606e-01 -1.81367751e-02
      2.31470853e-01 -6.68355674e-02 -3.34649622e-01 -2.63744116e-01
      -1.32803932e-01 -2.15439387e-02 1.36340810e-02 -1.46641359e-01
      -2.55760521e-01 -7.21140727e-02 -1.95250496e-01 2.39191484e-02
      -1.30023241e-01 1.46591529e-01 2.78675128e-02 -1.25859916e-01
      -3.27672720e-01 -1.14123285e-01 -1.97836354e-01 -1.41205832e-01
      2.22741827e-01 2.81405807e-01 3.06618184e-01 4.17899221e-01
      -5.36330879e-01 -4.37140673e-01 -5.41582823e-01 -3.14990580e-01
      8.58724937e-02 -3.08915693e-02 -1.17884733e-01 -2.66968220e-01
      -4.06771123e-01 -2.87505895e-01 2.48487905e-01 -3.23815972e-01
      -2.54605889e-01 -9.97526050e-02 2.70159602e-01 3.33192766e-01
      3.62047911e-01 3.34095269e-01 -2.13230327e-01 -2.43778989e-01
      -2.47550115e-01 3.61956358e-02 2.49271333e-01 -3.46778274e-01
      -1.72424749e-01 -3.87062401e-01 7.56988768e-04 -1.81142706e-02
      3.60955715e-01 -9.45838913e-02 -2.34518841e-01 -2.68568426e-01
      6.33129328e-02 4.12211046e-02 1.36539057e-01 -1.20372839e-01
      -1.60376132e-01 1.50685474e-01 -3.23597267e-02 8.07061195e-02
      1.63340438e-02 2.71618040e-03 -1.15683421e-01 1.10997967e-01
      -4.15002555e-02 -1.47350365e-02 -1.66624546e-01 -5.29789031e-02
      -2.40282081e-02 -1.02464877e-01 -4.94890427e-03 3.25272838e-03
      -4.05532867e-02 -1.18791789e-01 -1.65685728e-01 -1.11735538e-01
      -6.57798424e-02 3.93330529e-02 6.47286698e-02 2.89343059e-01
      5.67366406e-02 1.10678531e-01 1.11092441e-01 8.66150763e-03
      -9.73864347e-02 1.07147224e-01 -1.42325833e-01 2.18207046e-01
      -1.54823661e-01 -5.79228550e-02 7.94300437e-03 8.27628076e-02
      2.34392852e-01 2.26923242e-01 8.03089216e-02 1.18740216e-01
      -1.30087316e-01 -1.14267491e-01 2.52298832e-01 1.19312294e-01
      1.83690667e-01 -7.66335651e-02 1.18874341e-01 2.24529564e-01
      -8.85610133e-02 -3.05130839e-01 2.87855446e-01 6.50052801e-02
      5.63321598e-02 9.41795930e-02 1.21470526e-01 -5.00707962e-02
      8.09325948e-02 -1.28931463e-01 1.96329117e-01 -2.02728417e-02
      1.72991723e-01 9.83998403e-02 3.16879712e-02 1.85476005e-01
      -5.48193194e-02 1.77632332e-01 -4.70271520e-02 1.60880074e-01
      -3.82197708e-01 -3.87206107e-01 -2.36475214e-01 -2.78725699e-02
      -2.60329872e-01 1.32586017e-01 1.65660977e-01 -2.31076702e-01
      -2.02740386e-01 -1.17093429e-03 -1.67038649e-01 -9.53656435e-02
      -1.91586271e-01 -7.28599206e-02 1.70929447e-01 1.26009166e-01
      -1.45331442e-01 1.00191675e-01 -1.98740944e-01 -2.39216894e-01
      -1.38749201e-02 -9.01642069e-02 -2.94410110e-01 2.56815314e-01
      1.77986264e-01 -6.19432032e-02 1.04912333e-01 1.57807827e-01
      -1.96548030e-02 1.24293186e-01 -2.70344555e-01 -1.45405307e-01
      1.79618318e-02 -1.51166013e-02 1.55005977e-01 1.67677984e-01
      -3.78694445e-01 -2.15180544e-03 -5.53641142e-03 -4.94661368e-02
      -1.39834620e-02 -8.02946314e-02 -1.62760578e-02 -1.82382509e-01
      1.51533544e-01 -1.30359948e-01 8.70485157e-02 -2.15347648e-01
      -1.32005170e-01 -4.76881564e-02 -3.50901112e-02 5.46630584e-02
      -1.47718638e-01 -6.23921342e-02 -2.85804540e-01 3.82447755e-03
      -1.14198653e-02 -2.32279450e-01 -1.27933830e-01 -2.97526538e-01
      -1.90590441e-01 -1.77797854e-01 -2.79294662e-02 4.72710505e-02
      -5.87001741e-02 -4.05967720e-02 -4.56104465e-02 -1.21035390e-01
      2.22970974e-02 -3.01284820e-01 -1.48916140e-01 -1.01388097e-01
      -2.78664418e-02 -1.44662142e-01 -7.48261288e-02 -1.21266693e-01
      -1.04190689e-02 -1.30670279e-01 3.53179239e-02 8.34703371e-02
      2.16028448e-02 -2.36055568e-01 -2.52895623e-01 -7.96831921e-02
      -2.60577500e-01 -2.65057087e-01 -1.22220054e-01 -2.71244854e-01
      1.34404495e-01 -3.30341965e-01 -3.35845239e-02 -7.15912655e-02
      -1.04694411e-01 -1.90987922e-02 2.90888287e-02 1.89443648e-01
      -5.96999489e-02 -8.12042654e-02 1.00796528e-01 1.45214871e-01
      1.11670503e-02 -4.64916900e-02 -2.42123127e-01 -2.34845981e-01
      -8.21013600e-02 -7.89155625e-03 2.22744886e-02 5.88070080e-02
      -3.72364044e-01 -2.07586586e-01 1.42887175e-01 -3.80546041e-02
      1.41322672e-01 5.04180454e-02 -2.03929842e-01 5.42344451e-02
      1.24010518e-02 -9.89613831e-02 -1.82692558e-01 1.39256135e-01
      1.37413666e-02 2.37480730e-01 1.60872206e-01 3.80357891e-01
      -3.77159603e-02 4.70297262e-02 -2.26661742e-01 -2.35912889e-01
      -5.05165979e-02 -1.15596116e-01 -2.79101372e-01 5.01235994e-03
      -1.22702464e-01 -2.82746047e-01 -2.30723262e-01 -1.55079931e-01
      -1.47850901e-01 -1.85140505e-01 -1.32347971e-01 -1.88094497e-01
      -1.94351971e-02 -4.23198342e-02 1.07256718e-01 2.34515276e-02
      1.77988812e-01 2.92453021e-01 1.49144083e-01 -4.29061919e-01
      -3.95363361e-01 -1.33978799e-01 5.23141623e-02 2.30857626e-01
      3.27571452e-01 -3.25382084e-01 -2.13401556e-01 -4.31691945e-01
      -6.46438003e-01 -2.95714170e-01 4.11122106e-02 2.05455035e-01
      -6.74128160e-02 -2.86936052e-02 -1.60532936e-01 -3.58648896e-02
      -4.97206822e-02 -1.26806609e-02 -3.70391384e-02 -6.82651222e-01
      -4.17941779e-01 5.97467460e-02 6.20176271e-02 -2.02093408e-01
      -1.20889517e-02 -1.58247575e-01 -5.44787407e-01 -5.02540395e-02
      -2.47927532e-01 -4.39784139e-01 -2.38931403e-01 -1.10005498e-01
      -6.81268470e-03 -1.35729641e-01 -2.19576851e-01 3.44538987e-02
      -7.42374286e-02 -1.52043551e-01 1.26739115e-01 1.69081420e-01
      1.35220885e-01 1.93446595e-02 -1.17528155e-01 -2.38660700e-03
      8.82880539e-02 1.15378767e-01 -3.05982947e-01 1.26802981e-01
      1.09425850e-01 1.77560493e-01 1.40307862e-02 -1.74565628e-01
      -3.84195372e-02 2.08333522e-01 1.90168142e-01 -1.13311410e-01
      -1.94340914e-01 -1.19688034e-01 -1.70884982e-01 -1.99758098e-01
      -3.18967521e-01 -2.57031888e-01 -1.24349862e-01 4.95868683e-01
      -2.07585394e-01 -2.48183310e-01 -8.61924291e-02 -1.34369597e-01
      2.05378812e-02 -1.12190858e-01 2.20878348e-01 1.99467927e-01
      -5.27312048e-02 -1.92132205e-01 3.62846285e-01 1.22194082e-01
      3.59456867e-01 1.79597177e-02 -3.85073498e-02 -7.02868178e-02
      1.23741552e-01 -6.29763901e-02 -3.94215584e-01 2.97059864e-01
      1.91911310e-01 2.80310273e-01 2.15119079e-01 7.11252093e-02
      2.19040170e-01 1.36756867e-01 1.82582915e-01 -2.26028964e-01
      1.29753649e-01 8.43307301e-02 3.32521439e-01 1.61430493e-01
      1.92212045e-01 4.36244249e-01 1.69930339e-01 -1.00040603e-02
      -3.30926031e-01 2.90764421e-01 3.93931597e-01 1.22461073e-01
      -3.34032506e-01 -2.87452787e-01 -2.69783586e-01 1.46872574e-03
      -3.04952770e-01 2.75789630e-02 -1.57521311e-02 -1.31771564e-01
      1.06979817e-01 -2.15741962e-01 -2.94484466e-01 -3.14678460e-01
      -1.38489753e-01 -6.49730638e-02 -4.15110886e-02 -1.87728465e-01
      -2.96867132e-01 2.65994705e-02 -1.33713111e-01 -4.35881406e-01
      3.71757112e-02 3.78495216e-01 1.00475080e-01 2.32320949e-01
      1.72392160e-01 2.10688159e-01 3.97609323e-02 -4.54318263e-02
      -1.08463868e-01 7.12884665e-02 2.31728271e-01 3.14727306e-01
      2.96149194e-01 -3.18650514e-01 2.21429076e-02 5.68622015e-02
      9.59292799e-02 -9.63811297e-03 -1.22352352e-03 7.13653788e-02
      1.82089344e-01 1.43328801e-01 2.07582429e-01 -8.04352015e-02
      2.80168333e-05 1.43493682e-01 4.89271134e-02 1.34647591e-02
      -1.50382400e-01 -9.16722789e-02 4.67963852e-02 -6.87227249e-02
      -2.56064348e-02 5.15578035e-03 2.17614174e-02 2.67445058e-01
      4.00795192e-02 -7.02857971e-02 -3.06819618e-01 -7.15491269e-03
      -1.49185568e-01 5.71112745e-02 2.18100220e-01 -7.53680542e-02
      6.10578842e-02 -2.96282265e-02 -1.24837898e-01 2.77460754e-01
      -4.26673032e-02 2.70538658e-01 1.77875653e-01 1.75059885e-02
      1.03341334e-01 1.64495781e-01 1.72408149e-01 -2.76024286e-02
      1.58887252e-01 3.33913296e-01 -1.06679179e-01 -5.54677956e-02
      -1.60612330e-01 9.01242718e-02 1.57206610e-01 1.82089567e-01
      1.41544566e-01 1.51524171e-01 -7.22984746e-02 5.61441407e-02
      1.55836955e-01 -3.14802974e-01 -4.55594249e-02 -1.56974748e-01
      -3.33646759e-02 -1.10552274e-01 1.26762480e-01 -6.33210167e-02
      4.93011884e-02 6.93869144e-02 -4.02395695e-01 1.27226859e-01
      5.15490398e-02 -4.35711034e-02 -1.84930086e-01 -6.09343015e-02
      -1.86180159e-01 -2.74696648e-01 1.14433505e-02 1.76617771e-01
      -9.74083021e-02 -2.39123985e-01 -1.43199250e-01 2.21140124e-02
      6.47000968e-02 4.53728437e-02 1.08578399e-01 -4.02436286e-01
      -3.32414329e-01 -8.08757693e-02 -4.95081246e-02 -2.66421400e-03
      -8.95864591e-02 -1.21782459e-01 -1.73904330e-01 -1.49158597e-01
      -1.28691897e-01 1.91654675e-02 -3.56005907e-01 -3.70849997e-01
      -3.18138599e-01 -2.58530825e-01 1.26372948e-01 -2.83198446e-01
      2.40925457e-02 -1.03106864e-01 -4.11728118e-03 -9.80535895e-02
      -3.81813012e-02 -1.55200168e-01 -2.80297268e-03 2.72878200e-01
      -1.94822967e-01 -1.09775700e-01 -3.10352981e-01 -1.75906464e-01</_></support_vectors>
  <decision_functions>
    <_>
      <sv_count>1</sv_count>
      <rho>-1.1434036277504093e+01</rho>
      <alpha>
        1.</alpha>
      <index>
        0</index></_></decision_functions></my_svm>
</opencv_storage>
